{"learner":{"attributes":{"scikit_learn":"{\"_estimator_type\": \"classifier\"}"},"feature_names":["age","pack_years","risk_score","gender","copd_diagnosis","alcohol_consumption","family_history","asbestos_exposure","secondhand_smoke_exposure","radon_exposure"],"feature_types":["int","float","float","int","int","float","int","int","int","int"],"gradient_booster":{"model":{"gbtree_model_param":{"num_parallel_tree":"1","num_trees":"202"},"iteration_indptr":[0,1,2,3,4,5,6,7,8,9,10,11,12,13,14,15,16,17,18,19,20,21,22,23,24,25,26,27,28,29,30,31,32,33,34,35,36,37,38,39,40,41,42,43,44,45,46,47,48,49,50,51,52,53,54,55,56,57,58,59,60,61,62,63,64,65,66,67,68,69,70,71,72,73,74,75,76,77,78,79,80,81,82,83,84,85,86,87,88,89,90,91,92,93,94,95,96,97,98,99,100,101,102,103,104,105,106,107,108,109,110,111,112,113,114,115,116,117,118,119,120,121,122,123,124,125,126,127,128,129,130,131,132,133,134,135,136,137,138,139,140,141,142,143,144,145,146,147,148,149,150,151,152,153,154,155,156,157,158,159,160,161,162,163,164,165,166,167,168,169,170,171,172,173,174,175,176,177,178,179,180,181,182,183,184,185,186,187,188,189,190,191,192,193,194,195,196,197,198,199,200,201,202],"tree_info":[0,0,0,0,0,0,0,0,0,0,0,0,0,0,0,0,0,0,0,0,0,0,0,0,0,0,0,0,0,0,0,0,0,0,0,0,0,0,0,0,0,0,0,0,0,0,0,0,0,0,0,0,0,0,0,0,0,0,0,0,0,0,0,0,0,0,0,0,0,0,0,0,0,0,0,0,0,0,0,0,0,0,0,0,0,0,0,0,0,0,0,0,0,0,0,0,0,0,0,0,0,0,0,0,0,0,0,0,0,0,0,0,0,0,0,0,0,0,0,0,0,0,0,0,0,0,0,0,0,0,0,0,0,0,0,0,0,0,0,0,0,0,0,0,0,0,0,0,0,0,0,0,0,0,0,0,0,0,0,0,0,0,0,0,0,0,0,0,0,0,0,0,0,0,0,0,0,0,0,0,0,0,0,0,0,0,0,0,0,0,0,0,0,0,0,0,0,0,0,0,0,0],"trees":[{"base_weights":[5.138267E-3,-1.2761918E0,3.3157623E-1,-1.5982752E0,-9.3743616E-1,3.4706295E-3,6.6406894E-1,-1.9001821E0,-1.2822411E0,-1.2599802E0,-5.8807266E-1,-3.5579515E-1,3.4691778E-1,3.812629E-1,9.4403225E-1,-1.9677287E0,-5.925809E-1,-1.4090399E0,-9.870817E-1,-1.4412183E0,-8.636692E-1,-8.258853E-1,-5.2650116E-2,-5.787907E-1,9.41312E-2,1.2386668E-1,7.895819E-1,1.7707357E-1,7.6615E-1,7.9598373E-1,1.2258569E0,-1.0899067E-1,-7.5906344E-2,-4.1492928E-2,-1.7625516E-2,-8.10028E-2,-5.6533713E-2,-2.0284142E-2,-5.371163E-2,-7.420915E-2,-2.8718224E-2,-5.4543365E-2,-3.0981708E-2,-5.3687096E-2,-2.7484417E-2,-1.2143356E-2,6.850315E-3,-3.7518986E-2,-2.0213608E-2,-9.25772E-3,1.7583078E-2,-6.1965957E-3,1.804919E-2,2.8508782E-2,5.0808977E-2,-2.2993961E-4,1.7438365E-2,2.8316457E-2,4.7797583E-2,2.825574E-2,5.074924E-2,-7.58074E-3,6.269412E-2],"categories":[],"categories_nodes":[],"categories_segments":[],"categories_sizes":[],"default_left":[0,0,0,0,0,0,0,0,0,0,0,0,0,0,0,0,0,0,0,0,0,0,0,0,0,0,0,0,0,0,0,0,0,0,0,0,0,0,0,0,0,0,0,0,0,0,0,0,0,0,0,0,0,0,0,0,0,0,0,0,0,0,0],"id":0,"left_children":[1,3,5,7,9,11,13,15,17,19,21,23,25,27,29,31,33,35,37,39,41,43,45,47,49,51,53,55,57,59,61,-1,-1,-1,-1,-1,-1,-1,-1,-1,-1,-1,-1,-1,-1,-1,-1,-1,-1,-1,-1,-1,-1,-1,-1,-1,-1,-1,-1,-1,-1,-1,-1],"loss_changes":[2.8756316E3,1.5080322E2,5.977261E2,6.570056E1,7.619501E1,3.405213E2,2.1510364E2,3.0909302E1,1.1782227E1,2.4190979E1,4.1927757E1,1.3538315E2,1.3921268E2,1.0639104E2,5.605493E1,2.9576782E1,8.050871E-1,1.2492981E1,5.0926895E0,8.142181E0,5.6237717E0,1.5030273E1,3.7291052E0,2.6706787E1,3.227546E1,5.523992E1,2.2914398E1,2.7666838E1,1.7266632E1,4.4878784E1,1.8291565E1,0E0,0E0,0E0,0E0,0E0,0E0,0E0,0E0,0E0,0E0,0E0,0E0,0E0,0E0,0E0,0E0,0E0,0E0,0E0,0E0,0E0,0E0,0E0,0E0,0E0,0E0,0E0,0E0,0E0,0E0,0E0,0E0],"parents":[2147483647,0,0,1,1,2,2,3,3,4,4,5,5,6,6,7,7,8,8,9,9,10,10,11,11,12,12,13,13,14,14,15,15,16,16,17,17,18,18,19,19,20,20,21,21,22,22,23,23,24,24,25,25,26,26,27,27,28,28,29,29,30,30],"right_children":[2,4,6,8,10,12,14,16,18,20,22,24,26,28,30,32,34,36,38,40,42,44,46,48,50,52,54,56,58,60,62,-1,-1,-1,-1,-1,-1,-1,-1,-1,-1,-1,-1,-1,-1,-1,-1,-1,-1,-1,-1,-1,-1,-1,-1,-1,-1,-1,-1,-1,-1,-1,-1],"split_conditions":[2.3474014E1,1E0,1E0,1E0,1E0,1E0,1E0,2.016813E1,2E0,2E0,2E0,2E0,2E0,2E0,2E0,2E0,2.2331656E1,1E0,6.8624406E0,1.9777464E1,1E0,1E0,1.4994919E1,1E0,1E0,1E0,1E0,1E0,1E0,1E0,1.9777464E1,-1.0899067E-1,-7.5906344E-2,-4.1492928E-2,-1.7625516E-2,-8.10028E-2,-5.6533713E-2,-2.0284142E-2,-5.371163E-2,-7.420915E-2,-2.8718224E-2,-5.4543365E-2,-3.0981708E-2,-5.3687096E-2,-2.7484417E-2,-1.2143356E-2,6.850315E-3,-3.7518986E-2,-2.0213608E-2,-9.25772E-3,1.7583078E-2,-6.1965957E-3,1.804919E-2,2.8508782E-2,5.0808977E-2,-2.2993961E-4,1.7438365E-2,2.8316457E-2,4.7797583E-2,2.825574E-2,5.074924E-2,-7.58074E-3,6.269412E-2],"split_indices":[2,4,7,7,7,4,4,1,9,9,9,9,9,9,9,9,2,8,2,1,8,8,2,8,8,8,8,8,8,8,1,0,0,0,0,0,0,0,0,0,0,0,0,0,0,0,0,0,0,0,0,0,0,0,0,0,0,0,0,0,0,0,0],"split_type":[0,0,0,0,0,0,0,0,0,0,0,0,0,0,0,0,0,0,0,0,0,0,0,0,0,0,0,0,0,0,0,0,0,0,0,0,0,0,0,0,0,0,0,0,0,0,0,0,0,0,0,0,0,0,0,0,0,0,0,0,0,0,0],"sum_hessian":[6.87297E3,1.3948832E3,5.478087E3,7.1313135E2,6.8175183E2,2.7577422E3,2.7203447E3,3.621538E2,3.5097754E2,3.5312683E2,3.2862503E2,1.347814E3,1.4099282E3,1.3544767E3,1.3658679E3,3.4388492E2,1.8268887E1,2.4286873E2,1.08108826E2,2.4050452E2,1.12622314E2,2.2717897E2,1.0144605E2,9.009785E2,4.4683548E2,9.38376E2,4.715522E2,8.8593353E2,4.685432E2,8.979695E2,4.678984E2,2.3104768E2,1.1283724E2,7.9523387E0,1.0316547E1,1.354047E2,1.07464035E2,1.4830037E1,9.3278786E1,2.2846855E2,1.2035973E1,5.6526085E1,5.609623E1,1.1821044E2,1.0896854E2,5.05081E1,5.0937954E1,4.5263852E2,4.4833997E2,2.1449821E2,2.3233725E2,4.5908636E2,4.792896E2,2.4136423E2,2.3018797E2,4.309308E2,4.5500275E2,2.3018797E2,2.3835524E2,4.3888312E2,4.5908636E2,9.241907E0,4.5865652E2],"tree_param":{"num_deleted":"0","num_feature":"10","num_nodes":"63","size_leaf_vector":"1"}},{"base_weights":[1.4715747E-4,-1.1959368E0,3.0722126E-1,-1.6551309E0,-8.867839E-1,-2.8850941E-3,6.2265265E-1,-1.9456378E0,-1.3507909E0,-1.2084095E0,-5.512549E-1,-3.413529E-1,3.319777E-1,2.5825176E-1,8.7464815E-1,-2.2448425E0,-1.6210679E0,-1.6895361E0,-9.7514534E-1,-1.5298706E0,-8.469741E-1,-7.8517747E-1,-2.8806016E-1,-7.451648E-1,-7.620562E-2,-5.504944E-2,5.878522E-1,-2.5312787E-2,5.4571897E-1,6.046952E-1,1.1456279E0,-1.2726565E-1,-9.497262E-2,-8.276773E-2,1.9656334E-3,-8.9323424E-2,-5.3488314E-2,-5.1888596E-2,-6.1778463E-3,-7.896734E-2,-1.0149998E-2,-4.4846773E-2,-1.23201525E-2,-1.9818857E-2,-4.5613278E-2,-2.7455634E-2,5.8139977E-4,-4.936565E-2,-2.4897039E-2,-1.5893115E-2,8.225693E-3,-1.7320927E-2,1.1296036E-2,2.0849092E-2,3.7903186E-2,-1.3662293E-2,1.0415409E-2,1.407633E-2,3.9778993E-2,1.9034421E-2,4.1682985E-2,-2.1410778E-3,5.845247E-2],"categories":[],"categories_nodes":[],"categories_segments":[],"categories_sizes":[],"default_left":[0,0,0,0,0,0,0,0,0,0,0,0,0,0,0,0,0,0,0,0,0,0,0,0,0,0,0,0,0,0,0,0,0,0,0,0,0,0,0,0,0,0,0,0,0,0,0,0,0,0,0,0,0,0,0,0,0,0,0,0,0,0,0],"id":1,"left_children":[1,3,5,7,9,11,13,15,17,19,21,23,25,27,29,31,33,35,37,39,41,43,45,47,49,51,53,55,57,59,61,-1,-1,-1,-1,-1,-1,-1,-1,-1,-1,-1,-1,-1,-1,-1,-1,-1,-1,-1,-1,-1,-1,-1,-1,-1,-1,-1,-1,-1,-1,-1,-1],"loss_changes":[2.522921E3,1.9774036E2,5.3465393E2,4.7189087E1,9.0068054E1,3.12612E2,2.485946E2,2.4136475E1,3.3784637E1,4.8485107E1,2.5222145E1,1.4681049E2,1.3733543E2,9.0429245E1,1.1645764E2,1.0340271E1,8.080109E0,6.8029785E0,7.039528E0,1.4484802E1,5.897888E0,1.0423096E1,1.5346661E1,3.2049072E1,4.8283928E1,4.5328102E1,2.396167E1,3.2455006E1,3.6138E1,4.093863E1,2.2265503E1,0E0,0E0,0E0,0E0,0E0,0E0,0E0,0E0,0E0,0E0,0E0,0E0,0E0,0E0,0E0,0E0,0E0,0E0,0E0,0E0,0E0,0E0,0E0,0E0,0E0,0E0,0E0,0E0,0E0,0E0,0E0,0E0],"parents":[2147483647,0,0,1,1,2,2,3,3,4,4,5,5,6,6,7,7,8,8,9,9,10,10,11,11,12,12,13,13,14,14,15,15,16,16,17,17,18,18,19,19,20,20,21,21,22,22,23,23,24,24,25,25,26,26,27,27,28,28,29,29,30,30],"right_children":[2,4,6,8,10,12,14,16,18,20,22,24,26,28,30,32,34,36,38,40,42,44,46,48,50,52,54,56,58,60,62,-1,-1,-1,-1,-1,-1,-1,-1,-1,-1,-1,-1,-1,-1,-1,-1,-1,-1,-1,-1,-1,-1,-1,-1,-1,-1,-1,-1,-1,-1,-1,-1],"split_conditions":[2.3125105E1,5.1E1,1E0,1E0,1E0,1E0,5.1E1,1E0,1E0,1E0,1E0,5.1E1,5.1E1,1E0,1E0,1E0,2.016813E1,2.0045536E1,2.1999313E1,2.016813E1,2.159768E1,4.738886E0,1E0,1E0,1E0,1E0,1E0,1E0,1E0,1E0,2.016813E1,-1.2726565E-1,-9.497262E-2,-8.276773E-2,1.9656334E-3,-8.9323424E-2,-5.3488314E-2,-5.1888596E-2,-6.1778463E-3,-7.896734E-2,-1.0149998E-2,-4.4846773E-2,-1.23201525E-2,-1.9818857E-2,-4.5613278E-2,-2.7455634E-2,5.8139977E-4,-4.936565E-2,-2.4897039E-2,-1.5893115E-2,8.225693E-3,-1.7320927E-2,1.1296036E-2,2.0849092E-2,3.7903186E-2,-1.3662293E-2,1.0415409E-2,1.407633E-2,3.9778993E-2,1.9034421E-2,4.1682985E-2,-2.1410778E-3,5.845247E-2],"split_indices":[2,0,7,7,4,4,0,6,4,7,7,0,0,4,4,4,1,2,2,1,2,1,6,6,6,6,6,6,6,6,1,0,0,0,0,0,0,0,0,0,0,0,0,0,0,0,0,0,0,0,0,0,0,0,0,0,0,0,0,0,0,0,0],"split_type":[0,0,0,0,0,0,0,0,0,0,0,0,0,0,0,0,0,0,0,0,0,0,0,0,0,0,0,0,0,0,0,0,0,0,0,0,0,0,0,0,0,0,0,0,0,0,0,0,0,0,0,0,0,0,0,0,0,0,0,0,0,0,0],"sum_hessian":[6.867083E3,1.4022576E3,5.4648257E3,5.624619E2,8.397956E2,2.7561726E3,2.708653E3,2.8501178E2,2.7745013E2,4.2745325E2,4.1234235E2,1.3706984E3,1.3854742E3,1.1081809E3,1.6004722E3,1.4522227E2,1.397895E2,1.4405147E2,1.3339868E2,2.2452643E2,2.0292682E2,2.1726129E2,1.9508105E2,5.425696E2,8.281287E2,5.517304E2,8.337439E2,5.5833636E2,5.498445E2,8.0337366E2,7.970985E2,7.425509E1,7.096718E1,1.3696423E2,2.82527E0,1.22940956E2,2.111051E1,1.240568E2,9.341885E0,2.1627185E2,8.254581E0,1.8688632E2,1.6040499E1,5.453655E1,1.6272475E2,1.0381636E2,9.12647E1,2.7258627E2,2.6998334E2,4.1309998E2,4.1502875E2,2.7073862E2,2.8099182E2,4.1778827E2,4.159556E2,2.7078885E2,2.8754752E2,2.6829132E2,2.815532E2,4.0742914E2,3.9594455E2,1.5389358E1,7.817091E2],"tree_param":{"num_deleted":"0","num_feature":"10","num_nodes":"63","size_leaf_vector":"1"}},{"base_weights":[-3.370872E-3,-1.1038786E0,2.9205847E-1,-1.4682264E0,-8.5346997E-1,-1.754167E-2,6.1215365E-1,-1.7400424E0,-1.1855015E0,-1.1495444E0,-5.30427E-1,-3.3330712E-1,2.9918498E-1,2.6686424E-1,8.524E-1,-1.9022568E0,-1.3733783E0,-1.5128601E0,-8.330748E-1,-1.4298319E0,-8.3973724E-1,-8.336477E-1,-2.0127499E-1,-6.9990945E-1,-8.781915E-2,-6.487429E-2,5.307849E-1,-1.9416433E-2,5.598442E-1,5.993299E-1,1.1044556E0,-9.809508E-2,-5.8133733E-2,2.3025444E-2,-7.115557E-2,-8.467697E-2,-5.157834E-2,-4.9644805E-2,-2.3574378E-2,-8.173475E-2,-4.780103E-2,-4.909202E-2,-2.5593704E-2,-7.801875E-2,-3.9979625E-2,-1.8253436E-2,7.562929E-3,-4.3675736E-2,-1.7676363E-2,-1.4810461E-2,1.6984541E-2,-1.5854798E-2,9.609889E-3,1.539054E-2,4.865345E-2,-1.0770074E-2,1.7025491E-2,1.7621592E-2,4.780933E-2,2.0364266E-2,4.834695E-2,4.6680916E-2,6.332161E-2],"categories":[],"categories_nodes":[],"categories_segments":[],"categories_sizes":[],"default_left":[0,0,0,0,0,0,0,0,0,0,0,0,0,0,0,0,0,0,0,0,0,0,0,0,0,0,0,0,0,0,0,0,0,0,0,0,0,0,0,0,0,0,0,0,0,0,0,0,0,0,0,0,0,0,0,0,0,0,0,0,0,0,0],"id":2,"left_children":[1,3,5,7,9,11,13,15,17,19,21,23,25,27,29,31,33,35,37,39,41,43,45,47,49,51,53,55,57,59,61,-1,-1,-1,-1,-1,-1,-1,-1,-1,-1,-1,-1,-1,-1,-1,-1,-1,-1,-1,-1,-1,-1,-1,-1,-1,-1,-1,-1,-1,-1,-1,-1],"loss_changes":[2.2377869E3,1.3164697E2,5.377604E2,4.3428345E1,8.219086E1,2.760627E2,2.2108972E2,1.5210815E1,3.2576782E1,3.7949158E1,4.1337097E1,1.243342E2,1.1622954E2,9.194687E1,9.9664795E1,6.768799E0,9.366089E0,1.1369049E1,7.8225555E0,2.1275085E1,9.587616E0,4.101471E0,1.1645369E1,3.3018555E1,7.3956024E1,3.486075E1,8.277417E1,3.924866E1,4.419844E1,5.516748E1,2.0589783E1,0E0,0E0,0E0,0E0,0E0,0E0,0E0,0E0,0E0,0E0,0E0,0E0,0E0,0E0,0E0,0E0,0E0,0E0,0E0,0E0,0E0,0E0,0E0,0E0,0E0,0E0,0E0,0E0,0E0,0E0,0E0,0E0],"parents":[2147483647,0,0,1,1,2,2,3,3,4,4,5,5,6,6,7,7,8,8,9,9,10,10,11,11,12,12,13,13,14,14,15,15,16,16,17,17,18,18,19,19,20,20,21,21,22,22,23,23,24,24,25,25,26,26,27,27,28,28,29,29,30,30],"right_children":[2,4,6,8,10,12,14,16,18,20,22,24,26,28,30,32,34,36,38,40,42,44,46,48,50,52,54,56,58,60,62,-1,-1,-1,-1,-1,-1,-1,-1,-1,-1,-1,-1,-1,-1,-1,-1,-1,-1,-1,-1,-1,-1,-1,-1,-1,-1,-1,-1,-1,-1,-1,-1],"split_conditions":[2.3474014E1,5.1E1,1E0,1E0,1E0,1E0,5.1E1,2E0,1E0,1E0,1E0,5.1E1,5E1,1E0,1E0,2.159768E1,1.9E1,2E0,2E0,2E0,2E0,3.6024537E0,2E0,2E0,2E0,1E0,2E0,2E0,2E0,2E0,1E0,-9.809508E-2,-5.8133733E-2,2.3025444E-2,-7.115557E-2,-8.467697E-2,-5.157834E-2,-4.9644805E-2,-2.3574378E-2,-8.173475E-2,-4.780103E-2,-4.909202E-2,-2.5593704E-2,-7.801875E-2,-3.9979625E-2,-1.8253436E-2,7.562929E-3,-4.3675736E-2,-1.7676363E-2,-1.4810461E-2,1.6984541E-2,-1.5854798E-2,9.609889E-3,1.539054E-2,4.865345E-2,-1.0770074E-2,1.7025491E-2,1.7621592E-2,4.780933E-2,2.0364266E-2,4.834695E-2,4.6680916E-2,6.332161E-2],"split_indices":[2,0,7,7,7,4,0,9,4,4,4,0,0,4,4,2,0,9,9,9,9,2,9,9,9,8,9,9,9,9,8,0,0,0,0,0,0,0,0,0,0,0,0,0,0,0,0,0,0,0,0,0,0,0,0,0,0,0,0,0,0,0,0],"split_type":[0,0,0,0,0,0,0,0,0,0,0,0,0,0,0,0,0,0,0,0,0,0,0,0,0,0,0,0,0,0,0,0,0,0,0,0,0,0,0,0,0,0,0,0,0,0,0,0,0,0,0,0,0,0,0,0,0,0,0,0,0,0,0],"sum_hessian":[6.880916E3,1.4556646E3,5.4252515E3,5.909545E2,8.6471E2,2.7583174E3,2.6669343E3,2.9866196E2,2.922926E2,4.4985324E2,4.1485678E2,1.3812284E3,1.3770889E3,1.0951139E3,1.5718204E3,2.0415471E2,9.450724E1,1.4982861E2,1.4246399E2,2.3428061E2,2.1557263E2,2.1513646E2,1.997203E2,5.5321985E2,8.2800854E2,5.357098E2,8.4137915E2,5.543619E2,5.407521E2,7.860171E2,7.8580334E2,1.8738963E2,1.6765066E1,2.2771933E0,9.223005E1,1.07103E2,4.272562E1,9.758538E1,4.487861E1,1.6185071E2,7.24299E1,1.4899864E2,6.657399E1,7.6240067E0,2.0751245E2,1.3633907E2,6.3381245E1,3.6750574E2,1.8571408E2,5.5686926E2,2.7113925E2,2.7028802E2,2.6542175E2,5.605022E2,2.8087695E2,3.59183E2,1.9517883E2,3.562237E2,1.8452838E2,5.176808E2,2.6833633E2,3.8573325E2,4.000701E2],"tree_param":{"num_deleted":"0","num_feature":"10","num_nodes":"63","size_leaf_vector":"1"}},{"base_weights":[-4.7667343E-3,-1.052549E0,2.8235385E-1,-1.4329176E0,-7.9475343E-1,-1.7436121E-3,5.714846E-1,-1.5947393E0,-1.0569795E0,-1.0973326E0,-4.691377E-1,-2.016512E-1,3.993479E-1,2.3087212E-1,8.0445063E-1,-1.8521644E0,-1.3178743E0,-1.289203E0,-8.0494976E-1,-1.1264979E0,1.01628296E-1,-6.3303035E-1,-1.0990934E-1,-5.4457724E-1,3.5022233E-2,7.01014E-2,6.2063736E-1,3.5924796E-2,6.1001873E-1,6.419126E-1,1.1313688E0,-9.58856E-2,-6.170969E-2,-6.832951E-2,-1.8839683E-2,-7.497782E-2,-5.2642245E-2,-5.2000076E-2,-2.8936485E-2,-6.61479E-2,-4.5408193E-2,2.7335865E-2,-4.6620708E-2,-3.6570262E-2,-1.0610311E-2,-1.1996735E-2,1.6167507E-2,-3.659056E-2,-1.800645E-2,-8.864214E-3,1.23161925E-2,-1.0159659E-2,1.6480109E-2,1.9367352E-2,4.385189E-2,-1.1352131E-2,1.4667531E-2,1.6551038E-2,4.3845113E-2,2.2224234E-2,4.1817132E-2,1.148062E-2,5.7992995E-2],"categories":[],"categories_nodes":[],"categories_segments":[],"categories_sizes":[],"default_left":[0,0,0,0,0,0,0,0,0,0,0,0,0,0,0,0,0,0,0,0,0,0,0,0,0,0,0,0,0,0,0,0,0,0,0,0,0,0,0,0,0,0,0,0,0,0,0,0,0,0,0,0,0,0,0,0,0,0,0,0,0,0,0],"id":3,"left_children":[1,3,5,7,9,11,13,15,17,19,21,23,25,27,29,31,33,35,37,39,41,43,45,47,49,51,53,55,57,59,61,-1,-1,-1,-1,-1,-1,-1,-1,-1,-1,-1,-1,-1,-1,-1,-1,-1,-1,-1,-1,-1,-1,-1,-1,-1,-1,-1,-1,-1,-1,-1,-1],"loss_changes":[2.0592659E3,1.4322949E2,4.4132864E2,3.4420166E1,8.616498E1,2.174501E2,2.1111108E2,2.6990356E1,9.588608E0,1.6034546E1,2.4981995E1,1.4691339E2,6.568062E1,8.002171E1,8.327594E1,6.200989E0,8.765442E0,3.0366516E0,4.1693726E0,1.786676E1,5.907937E0,1.19325485E1,7.655725E0,2.526181E1,4.81248E1,2.5861994E1,3.1922287E1,4.8553596E1,2.7086716E1,4.0248596E1,1.3187744E1,0E0,0E0,0E0,0E0,0E0,0E0,0E0,0E0,0E0,0E0,0E0,0E0,0E0,0E0,0E0,0E0,0E0,0E0,0E0,0E0,0E0,0E0,0E0,0E0,0E0,0E0,0E0,0E0,0E0,0E0,0E0,0E0],"parents":[2147483647,0,0,1,1,2,2,3,3,4,4,5,5,6,6,7,7,8,8,9,9,10,10,11,11,12,12,13,13,14,14,15,15,16,16,17,17,18,18,19,19,20,20,21,21,22,22,23,23,24,24,25,25,26,26,27,27,28,28,29,29,30,30],"right_children":[2,4,6,8,10,12,14,16,18,20,22,24,26,28,30,32,34,36,38,40,42,44,46,48,50,52,54,56,58,60,62,-1,-1,-1,-1,-1,-1,-1,-1,-1,-1,-1,-1,-1,-1,-1,-1,-1,-1,-1,-1,-1,-1,-1,-1,-1,-1,-1,-1,-1,-1,-1,-1],"split_conditions":[2.3474014E1,5.1E1,1E0,2E0,1E0,2E0,5.1E1,1E0,1E0,2.0534237E1,2E0,5.1E1,5.1E1,2E0,2E0,2.1254145E1,1.9419409E1,1E0,1.3844404E1,1E0,8.3E1,1.931814E1,9.1E1,1E0,1E0,1E0,1E0,1E0,1E0,1E0,2.5774925E1,-9.58856E-2,-6.170969E-2,-6.832951E-2,-1.8839683E-2,-7.497782E-2,-5.2642245E-2,-5.2000076E-2,-2.8936485E-2,-6.61479E-2,-4.5408193E-2,2.7335865E-2,-4.6620708E-2,-3.6570262E-2,-1.0610311E-2,-1.1996735E-2,1.6167507E-2,-3.659056E-2,-1.800645E-2,-8.864214E-3,1.23161925E-2,-1.0159659E-2,1.6480109E-2,1.9367352E-2,4.385189E-2,-1.1352131E-2,1.4667531E-2,1.6551038E-2,4.3845113E-2,2.2224234E-2,4.1817132E-2,1.148062E-2,5.7992995E-2],"split_indices":[2,0,4,9,4,9,0,4,6,1,9,0,0,9,9,2,1,4,2,6,0,2,0,6,6,6,6,6,6,6,2,0,0,0,0,0,0,0,0,0,0,0,0,0,0,0,0,0,0,0,0,0,0,0,0,0,0,0,0,0,0,0,0],"split_type":[0,0,0,0,0,0,0,0,0,0,0,0,0,0,0,0,0,0,0,0,0,0,0,0,0,0,0,0,0,0,0,0,0,0,0,0,0,0,0,0,0,0,0,0,0,0,0,0,0,0,0,0,0,0,0,0,0,0,0,0,0,0,0],"sum_hessian":[6.8430693E3,1.4712836E3,5.3717856E3,5.925045E2,8.78779E2,2.709978E3,2.6618076E3,4.1194272E2,1.805618E2,4.542739E2,4.2450513E2,1.8089022E3,9.0107574E2,1.0819348E3,1.5798728E3,2.105171E2,2.0142563E2,9.183164E1,8.873015E1,4.435449E2,1.072901E1,2.909852E2,1.3351993E2,7.3811523E2,1.070787E3,3.627192E2,5.3835657E2,7.15261E2,3.6667383E2,1.0572098E3,5.2266296E2,1.8842757E2,2.2089539E1,1.9108194E2,1.0343681E1,4.5760994E1,4.6070652E1,4.1751434E1,4.6978718E1,2.3080446E2,2.1274043E2,7.8299847E0,2.8990247E0,2.3525278E2,5.5732418E1,1.0304218E2,3.0477743E1,3.648189E2,3.732963E2,5.3420374E2,5.3658325E2,1.7676997E2,1.8594923E2,2.831963E2,2.5516026E2,3.5388052E2,3.6138046E2,1.8036353E2,1.863103E2,5.261914E2,5.3101843E2,1.6285326E1,5.0637762E2],"tree_param":{"num_deleted":"0","num_feature":"10","num_nodes":"63","size_leaf_vector":"1"}},{"base_weights":[-6.505702E-4,-9.7378343E-1,2.7582076E-1,-1.2972648E0,-7.507764E-1,-1.2148139E-2,5.7679605E-1,-1.5641855E0,-1.0230107E0,-1.006337E0,-4.7113642E-1,-3.805321E-1,2.3749314E-1,2.6582587E-1,7.993282E-1,-1.697588E0,-1.2541913E0,-1.1804613E0,-6.6311574E-1,-1.2427759E0,-7.398665E-1,-7.204537E-1,-1.8826215E-1,-6.610345E-1,-9.124E-2,3.393955E-2,6.530516E-1,7.917748E-2,6.374989E-1,5.276448E-1,1.0783086E0,-9.329055E-2,-7.5378805E-2,3.3542752E-2,-6.612201E-2,-6.8265885E-2,-4.6408884E-2,-4.7068126E-2,-1.7411098E-2,-6.484452E-2,-1.0836205E-2,-4.553792E-2,-2.6761597E-2,-1.9823851E-2,-4.1143756E-2,-1.8641206E-2,1.1502203E-2,-4.148793E-2,-1.5596131E-2,-1.3601179E-2,1.3219821E-2,-1.2620943E-2,1.6353456E-2,1.819647E-2,4.7314797E-2,-6.379276E-3,1.4658721E-2,1.8682936E-2,4.55552E-2,1.7190743E-2,4.4286963E-2,-1.0635505E-2,5.50532E-2],"categories":[],"categories_nodes":[],"categories_segments":[],"categories_sizes":[],"default_left":[0,0,0,0,0,0,0,0,0,0,0,0,0,0,0,0,0,0,0,0,0,0,0,0,0,0,0,0,0,0,0,0,0,0,0,0,0,0,0,0,0,0,0,0,0,0,0,0,0,0,0,0,0,0,0,0,0,0,0,0,0,0,0],"id":4,"left_children":[1,3,5,7,9,11,13,15,17,19,21,23,25,27,29,31,33,35,37,39,41,43,45,47,49,51,53,55,57,59,61,-1,-1,-1,-1,-1,-1,-1,-1,-1,-1,-1,-1,-1,-1,-1,-1,-1,-1,-1,-1,-1,-1,-1,-1,-1,-1,-1,-1,-1,-1,-1,-1],"loss_changes":[1.841155E3,1.082489E2,4.6190317E2,4.3528442E1,6.3743744E1,2.5064241E2,1.8011194E2,1.0712341E1,1.661084E1,2.860611E1,3.0258156E1,8.927348E1,1.3739813E2,7.545574E1,1.1451611E2,4.036133E0,1.3664688E1,8.631317E0,8.057293E0,1.3424316E1,7.303711E0,7.2630005E0,1.5777192E1,3.2655014E1,3.4990368E1,9.1702965E1,4.49366E1,3.214727E1,2.5915833E1,5.0463196E1,2.2213806E1,0E0,0E0,0E0,0E0,0E0,0E0,0E0,0E0,0E0,0E0,0E0,0E0,0E0,0E0,0E0,0E0,0E0,0E0,0E0,0E0,0E0,0E0,0E0,0E0,0E0,0E0,0E0,0E0,0E0,0E0,0E0,0E0],"parents":[2147483647,0,0,1,1,2,2,3,3,4,4,5,5,6,6,7,7,8,8,9,9,10,10,11,11,12,12,13,13,14,14,15,15,16,16,17,17,18,18,19,19,20,20,21,21,22,22,23,23,24,24,25,25,26,26,27,27,28,28,29,29,30,30],"right_children":[2,4,6,8,10,12,14,16,18,20,22,24,26,28,30,32,34,36,38,40,42,44,46,48,50,52,54,56,58,60,62,-1,-1,-1,-1,-1,-1,-1,-1,-1,-1,-1,-1,-1,-1,-1,-1,-1,-1,-1,-1,-1,-1,-1,-1,-1,-1,-1,-1,-1,-1,-1,-1],"split_conditions":[2.3474014E1,5.1E1,1E0,1E0,1E0,5.1E1,5.1E1,2E0,2E0,1E0,1E0,1E0,2E0,2E0,1E0,1E0,1.9E1,1.4994919E1,1E0,2.016813E1,1E0,4.738886E0,2E0,2E0,2E0,1E0,1E0,1E0,1E0,2E0,2.016813E1,-9.329055E-2,-7.5378805E-2,3.3542752E-2,-6.612201E-2,-6.8265885E-2,-4.6408884E-2,-4.7068126E-2,-1.7411098E-2,-6.484452E-2,-1.0836205E-2,-4.553792E-2,-2.6761597E-2,-1.9823851E-2,-4.1143756E-2,-1.8641206E-2,1.1502203E-2,-4.148793E-2,-1.5596131E-2,-1.3601179E-2,1.3219821E-2,-1.2620943E-2,1.6353456E-2,1.819647E-2,4.7314797E-2,-6.379276E-3,1.4658721E-2,1.8682936E-2,4.55552E-2,1.7190743E-2,4.4286963E-2,-1.0635505E-2,5.50532E-2],"split_indices":[2,0,7,7,4,0,0,9,9,7,7,4,9,9,4,4,0,2,4,1,8,1,9,9,9,4,4,4,4,9,1,0,0,0,0,0,0,0,0,0,0,0,0,0,0,0,0,0,0,0,0,0,0,0,0,0,0,0,0,0,0,0,0],"split_type":[0,0,0,0,0,0,0,0,0,0,0,0,0,0,0,0,0,0,0,0,0,0,0,0,0,0,0,0,0,0,0,0,0,0,0,0,0,0,0,0,0,0,0,0,0,0,0,0,0,0,0,0,0,0,0,0,0,0,0,0,0,0,0],"sum_hessian":[6.841342E3,1.5130691E3,5.328273E3,6.154765E2,8.975926E2,2.7234624E3,2.6048103E3,3.095248E2,3.059517E2,4.676304E2,4.2996222E2,1.0998867E3,1.6235756E3,1.0874224E3,1.517388E3,2.1327022E2,9.625459E1,2.112513E2,9.470039E1,2.4583633E2,2.2179405E2,2.2771439E2,2.0224783E2,5.5777435E2,5.4211237E2,1.0904974E3,5.330782E2,7.2470166E2,3.6272076E2,7.702126E2,7.471754E2,1.08443054E2,1.0482717E2,2.993369E0,9.326122E1,1.1937187E2,9.187943E1,4.9219524E1,4.548087E1,2.3326962E2,1.2566716E1,1.1898127E2,1.0281279E2,5.586735E1,1.7184703E2,1.4040717E2,6.1840675E1,3.7510916E2,1.826652E2,3.5956622E2,1.8254614E2,5.5169E2,5.388074E2,2.6955414E2,2.6352408E2,3.6878595E2,3.559157E2,1.8585983E2,1.7686093E2,5.1023856E2,2.5997403E2,1.2796928E1,7.343785E2],"tree_param":{"num_deleted":"0","num_feature":"10","num_nodes":"63","size_leaf_vector":"1"}},{"base_weights":[2.4429113E-3,-9.095467E-1,2.6078743E-1,-1.1488702E0,-6.4607495E-1,-9.33372E-3,5.453646E-1,-1.4362334E0,-9.526663E-1,-9.5134264E-1,-4.2319304E-1,-3.4087214E-1,2.2038247E-1,2.4556227E-1,7.815728E-1,-1.6873128E0,-1.1683679E0,-1.1023036E0,-6.143306E-1,-1.1313723E0,-5.29185E-1,-5.966306E-1,-2.304726E-1,-5.879389E-1,-9.923357E-2,4.4686478E-2,5.887631E-1,7.045655E-2,5.9310764E-1,6.262355E-1,1.0884293E0,-9.157165E-2,-6.849608E-2,-6.7633204E-2,-4.8100423E-2,-6.054282E-2,-3.7513155E-2,2.984053E-3,-3.446237E-2,-4.227876E-2,-6.535474E-2,-9.889693E-3,-3.220163E-2,-3.4235064E-2,6.3022943E-3,-1.8815909E-2,5.6735235E-3,-4.102707E-2,-1.8206008E-2,-1.5383596E-2,1.6392507E-2,-7.852063E-3,1.2253015E-2,1.8381545E-2,4.141149E-2,-8.974603E-3,1.5440658E-2,1.7983656E-2,4.1398015E-2,2.0667745E-2,4.1761357E-2,-2.0668982E-2,5.5980474E-2],"categories":[],"categories_nodes":[],"categories_segments":[],"categories_sizes":[],"default_left":[0,0,0,0,0,0,0,0,0,0,0,0,0,0,0,0,0,0,0,0,0,0,0,0,0,0,0,0,0,0,0,0,0,0,0,0,0,0,0,0,0,0,0,0,0,0,0,0,0,0,0,0,0,0,0,0,0,0,0,0,0,0,0],"id":5,"left_children":[1,3,5,7,9,11,13,15,17,19,21,23,25,27,29,31,33,35,37,39,41,43,45,47,49,51,53,55,57,59,61,-1,-1,-1,-1,-1,-1,-1,-1,-1,-1,-1,-1,-1,-1,-1,-1,-1,-1,-1,-1,-1,-1,-1,-1,-1,-1,-1,-1,-1,-1,-1,-1],"loss_changes":[1.6161174E3,9.473328E1,4.1089163E2,4.3295044E1,4.8789764E1,2.0899873E2,1.8413873E2,1.9512878E1,2.330597E1,2.2529236E1,1.3890793E1,6.6995895E1,1.0489348E2,6.9854294E1,6.869354E1,4.9305115E0,4.7002716E0,1.1595123E1,7.4903374E0,9.564484E0,3.4066505E0,1.4105705E1,1.009658E1,2.8602478E1,5.07559E1,4.4447384E1,2.7411453E1,4.5623795E1,2.0790329E1,4.2749634E1,2.3304688E1,0E0,0E0,0E0,0E0,0E0,0E0,0E0,0E0,0E0,0E0,0E0,0E0,0E0,0E0,0E0,0E0,0E0,0E0,0E0,0E0,0E0,0E0,0E0,0E0,0E0,0E0,0E0,0E0,0E0,0E0,0E0,0E0],"parents":[2147483647,0,0,1,1,2,2,3,3,4,4,5,5,6,6,7,7,8,8,9,9,10,10,11,11,12,12,13,13,14,14,15,15,16,16,17,17,18,18,19,19,20,20,21,21,22,22,23,23,24,24,25,25,26,26,27,27,28,28,29,29,30,30],"right_children":[2,4,6,8,10,12,14,16,18,20,22,24,26,28,30,32,34,36,38,40,42,44,46,48,50,52,54,56,58,60,62,-1,-1,-1,-1,-1,-1,-1,-1,-1,-1,-1,-1,-1,-1,-1,-1,-1,-1,-1,-1,-1,-1,-1,-1,-1,-1,-1,-1,-1,-1,-1,-1],"split_conditions":[2.3474014E1,1E0,1E0,5.1E1,5.1E1,5.1E1,5.3E1,1E0,2E0,2E0,1E0,1E0,2E0,2E0,2E0,2E0,1E0,1.813757E1,1.9235338E0,3.1E1,2.7E1,2.1254145E1,2E0,1E0,2E0,1E0,1E0,1E0,1E0,1E0,2.016813E1,-9.157165E-2,-6.849608E-2,-6.7633204E-2,-4.8100423E-2,-6.054282E-2,-3.7513155E-2,2.984053E-3,-3.446237E-2,-4.227876E-2,-6.535474E-2,-9.889693E-3,-3.220163E-2,-3.4235064E-2,6.3022943E-3,-1.8815909E-2,5.6735235E-3,-4.102707E-2,-1.8206008E-2,-1.5383596E-2,1.6392507E-2,-7.852063E-3,1.2253015E-2,1.8381545E-2,4.141149E-2,-8.974603E-3,1.5440658E-2,1.7983656E-2,4.1398015E-2,2.0667745E-2,4.1761357E-2,-2.0668982E-2,5.5980474E-2],"split_indices":[2,7,7,0,0,0,0,6,9,9,6,6,9,9,9,9,8,2,1,0,0,2,9,8,9,6,6,6,6,8,1,0,0,0,0,0,0,0,0,0,0,0,0,0,0,0,0,0,0,0,0,0,0,0,0,0,0,0,0,0,0,0,0],"split_type":[0,0,0,0,0,0,0,0,0,0,0,0,0,0,0,0,0,0,0,0,0,0,0,0,0,0,0,0,0,0,0,0,0,0,0,0,0,0,0,0,0,0,0,0,0,0,0,0,0,0,0,0,0,0,0,0,0,0,0,0,0,0,0],"sum_hessian":[6.8573555E3,1.5131653E3,5.34419E3,7.911587E2,7.2200665E2,2.742229E3,2.6019612E3,3.1844275E2,4.727159E2,3.0331137E2,4.186953E2,1.1221703E3,1.6200587E3,1.1475264E3,1.4544347E3,1.616364E2,1.5680637E2,3.2619156E2,1.4652434E2,2.1145576E2,9.185559E1,2.192694E2,1.9942592E2,5.541444E2,5.680259E2,1.0976603E3,5.223984E2,7.6386615E2,3.8366025E2,9.67637E2,4.8679767E2,1.0788018E2,5.375621E1,7.98969E1,7.690947E1,2.4745015E2,7.8741425E1,1.4677463E1,1.3184688E2,8.272415E1,1.2873163E2,2.434131E1,6.751428E1,1.9549721E2,2.3772184E1,1.3997627E2,5.9449646E1,2.7043262E2,2.837118E2,3.819128E2,1.8611305E2,5.4709E2,5.505703E2,2.7291443E2,2.4948395E2,3.7298682E2,3.9087933E2,1.9368062E2,1.8997963E2,4.8083377E2,4.8680328E2,9.651851E0,4.771458E2],"tree_param":{"num_deleted":"0","num_feature":"10","num_nodes":"63","size_leaf_vector":"1"}},{"base_weights":[3.1315011E-3,-8.5463816E-1,2.593457E-1,-1.1381836E0,-6.58375E-1,-8.422189E-3,5.395019E-1,-1.3318756E0,-9.289248E-1,-9.0381694E-1,-3.8796806E-1,-3.1347436E-1,2.1639603E-1,2.2483306E-1,7.6105076E-1,-1.4043785E0,-8.177608E-1,-1.0495441E0,-6.357588E-1,-1.0749079E0,-7.179049E-1,-5.9800845E-1,-1.6699156E-1,-4.761061E-1,1.7888796E-2,3.3474278E-2,5.8960897E-1,-3.775456E-2,4.8287034E-1,6.084746E-1,1.073787E0,-7.911943E-2,-5.954891E-2,-2.064514E-2,-4.8768386E-2,-6.0970336E-2,-4.308514E-2,-3.7423503E-2,-1.668123E-2,-5.7865854E-2,-1.2443379E-2,-4.3824505E-2,-1.8168041E-2,-3.9076384E-2,-2.115263E-2,-2.170214E-2,7.0261857E-3,-3.467221E-2,-1.3307974E-2,-1.0944202E-2,1.209858E-2,-7.511291E-3,1.1000605E-2,1.8650884E-2,4.1347865E-2,-1.07405335E-2,1.5757542E-2,1.1297844E-2,3.655808E-2,1.9974617E-2,4.0361103E-2,4.6088584E-2,6.0917735E-2],"categories":[],"categories_nodes":[],"categories_segments":[],"categories_sizes":[],"default_left":[0,0,0,0,0,0,0,0,0,0,0,0,0,0,0,0,0,0,0,0,0,0,0,0,0,0,0,0,0,0,0,0,0,0,0,0,0,0,0,0,0,0,0,0,0,0,0,0,0,0,0,0,0,0,0,0,0,0,0,0,0,0,0],"id":6,"left_children":[1,3,5,7,9,11,13,15,17,19,21,23,25,27,29,31,33,35,37,39,41,43,45,47,49,51,53,55,57,59,61,-1,-1,-1,-1,-1,-1,-1,-1,-1,-1,-1,-1,-1,-1,-1,-1,-1,-1,-1,-1,-1,-1,-1,-1,-1,-1,-1,-1,-1,-1,-1,-1],"loss_changes":[1.5001926E3,8.661987E1,3.9430096E2,2.4736572E1,6.138388E1,1.8444562E2,1.78901E2,1.1170349E1,1.0342163E1,1.4713654E1,2.0523155E1,6.1502098E1,1.0568526E2,7.2024506E1,7.125189E1,9.0651245E0,2.3563652E0,5.938385E0,2.9272652E0,1.6833435E1,1.2969017E1,6.9711075E0,1.7956635E1,3.474295E1,2.003576E1,3.5675648E1,2.5869415E1,3.3036594E1,3.4030365E1,4.1840332E1,9.7074585E0,0E0,0E0,0E0,0E0,0E0,0E0,0E0,0E0,0E0,0E0,0E0,0E0,0E0,0E0,0E0,0E0,0E0,0E0,0E0,0E0,0E0,0E0,0E0,0E0,0E0,0E0,0E0,0E0,0E0,0E0,0E0,0E0],"parents":[2147483647,0,0,1,1,2,2,3,3,4,4,5,5,6,6,7,7,8,8,9,9,10,10,11,11,12,12,13,13,14,14,15,15,16,16,17,17,18,18,19,19,20,20,21,21,22,22,23,23,24,24,25,25,26,26,27,27,28,28,29,29,30,30],"right_children":[2,4,6,8,10,12,14,16,18,20,22,24,26,28,30,32,34,36,38,40,42,44,46,48,50,52,54,56,58,60,62,-1,-1,-1,-1,-1,-1,-1,-1,-1,-1,-1,-1,-1,-1,-1,-1,-1,-1,-1,-1,-1,-1,-1,-1,-1,-1,-1,-1,-1,-1,-1,-1],"split_conditions":[2.3829454E1,5.1E1,1E0,1E0,1E0,5.2E1,5.1E1,2.1254145E1,2E0,1E0,1E0,2E0,2E0,1E0,2E0,1E0,1E0,1E0,4.2E1,2.159768E1,2E0,1E0,1E0,1E0,1E0,1E0,1E0,2E0,1E0,1E0,1E0,-7.911943E-2,-5.954891E-2,-2.064514E-2,-4.8768386E-2,-6.0970336E-2,-4.308514E-2,-3.7423503E-2,-1.668123E-2,-5.7865854E-2,-1.2443379E-2,-4.3824505E-2,-1.8168041E-2,-3.9076384E-2,-2.115263E-2,-2.170214E-2,7.0261857E-3,-3.467221E-2,-1.3307974E-2,-1.0944202E-2,1.209858E-2,-7.511291E-3,1.1000605E-2,1.8650884E-2,4.1347865E-2,-1.07405335E-2,1.5757542E-2,1.1297844E-2,3.655808E-2,1.9974617E-2,4.0361103E-2,4.6088584E-2,6.0917735E-2],"split_indices":[2,0,4,4,4,0,0,2,9,6,8,9,9,6,9,6,9,6,0,2,9,3,6,8,6,8,6,9,8,8,6,0,0,0,0,0,0,0,0,0,0,0,0,0,0,0,0,0,0,0,0,0,0,0,0,0,0,0,0,0,0,0,0],"split_type":[0,0,0,0,0,0,0,0,0,0,0,0,0,0,0,0,0,0,0,0,0,0,0,0,0,0,0,0,0,0,0,0,0,0,0,0,0,0,0,0,0,0,0,0,0,0,0,0,0,0,0,0,0,0,0,0,0,0,0,0,0,0,0],"sum_hessian":[6.8240986E3,1.5689928E3,5.255106E3,6.3982495E2,9.2916785E2,2.6874563E3,2.5676494E3,3.2948535E2,3.103396E2,4.8584006E2,4.4332776E2,1.1400911E3,1.5473654E3,1.0617073E3,1.5059423E3,2.8724503E2,4.2240345E1,2.1804703E2,9.229258E1,2.5051472E2,2.3532533E2,2.2641338E2,2.1691438E2,7.644602E2,3.7563086E2,1.039143E3,5.0822238E2,5.2663696E2,5.3507025E2,1.014123E3,4.9181924E2,1.531109E2,1.3413411E2,1.2850364E1,2.9389982E1,1.11619316E2,1.0642772E2,6.61413E1,2.6151283E1,2.2742484E2,2.308988E1,1.6157968E2,7.374565E1,1.0881028E2,1.17603096E2,1.1587511E2,1.0103928E2,3.7448645E2,3.8997372E2,1.8265506E2,1.9297581E2,5.2365186E2,5.154911E2,2.6707538E2,2.41147E2,3.5095215E2,1.7568483E2,2.6390793E2,2.7116235E2,4.9580038E2,5.1832263E2,2.4332993E2,2.4848932E2],"tree_param":{"num_deleted":"0","num_feature":"10","num_nodes":"63","size_leaf_vector":"1"}},{"base_weights":[4.637686E-4,-8.0936646E-1,2.3966141E-1,-1.0936475E0,-6.112201E-1,-1.9855898E-2,5.1656085E-1,-1.2356604E0,-7.8702056E-1,-8.240451E-1,-3.8836882E-1,-1.705847E-1,3.0333057E-1,2.2053225E-1,7.2729015E-1,-1.4257534E0,-1.0440996E0,-9.777963E-1,-5.8792734E-1,-1.0130854E0,-6.244006E-1,-5.4119617E-1,-7.6813936E-2,-4.0986794E-1,2.277014E-3,4.9963337E-3,5.225976E-1,3.7480753E-2,6.0187936E-1,5.6402606E-1,1.0717138E0,-8.062823E-2,-6.0380537E-2,-4.1002773E-2,-5.7171315E-2,-2.3766903E-2,-5.2500863E-2,-3.9744824E-2,-1.7506085E-2,-5.5804845E-2,-3.7431993E-2,-4.0261086E-2,-1.133417E-2,-3.553039E-2,-1.8080706E-2,-2.4894333E-2,2.1506075E-3,-2.807442E-2,-1.285855E-2,-9.231E-3,9.687635E-3,-1.1275238E-2,1.15136495E-2,1.503834E-2,3.869581E-2,-1.0188553E-2,1.4199594E-2,1.763813E-2,4.2558137E-2,1.8963052E-2,3.764883E-2,4.568982E-2,6.123764E-2],"categories":[],"categories_nodes":[],"categories_segments":[],"categories_sizes":[],"default_left":[0,0,0,0,0,0,0,0,0,0,0,0,0,0,0,0,0,0,0,0,0,0,0,0,0,0,0,0,0,0,0,0,0,0,0,0,0,0,0,0,0,0,0,0,0,0,0,0,0,0,0,0,0,0,0,0,0,0,0,0,0,0,0],"id":7,"left_children":[1,3,5,7,9,11,13,15,17,19,21,23,25,27,29,31,33,35,37,39,41,43,45,47,49,51,53,55,57,59,61,-1,-1,-1,-1,-1,-1,-1,-1,-1,-1,-1,-1,-1,-1,-1,-1,-1,-1,-1,-1,-1,-1,-1,-1,-1,-1,-1,-1,-1,-1,-1,-1],"loss_changes":[1.312792E3,8.637756E1,3.7596912E2,2.6610413E1,4.2976044E1,1.3165782E2,1.577392E2,1.4212219E1,7.145462E0,1.6956543E1,2.1281189E1,7.623356E1,5.6228973E1,7.3552765E1,8.25166E1,6.760437E0,3.9245605E0,3.2128372E0,4.7405357E0,5.641693E0,1.630584E1,8.878555E0,7.516254E0,1.7752167E1,3.8363365E1,1.9013466E1,2.7388885E1,4.247389E1,2.0924255E1,3.4798035E1,1.0342224E1,0E0,0E0,0E0,0E0,0E0,0E0,0E0,0E0,0E0,0E0,0E0,0E0,0E0,0E0,0E0,0E0,0E0,0E0,0E0,0E0,0E0,0E0,0E0,0E0,0E0,0E0,0E0,0E0,0E0,0E0,0E0,0E0],"parents":[2147483647,0,0,1,1,2,2,3,3,4,4,5,5,6,6,7,7,8,8,9,9,10,10,11,11,12,12,13,13,14,14,15,15,16,16,17,17,18,18,19,19,20,20,21,21,22,22,23,23,24,24,25,25,26,26,27,27,28,28,29,29,30,30],"right_children":[2,4,6,8,10,12,14,16,18,20,22,24,26,28,30,32,34,36,38,40,42,44,46,48,50,52,54,56,58,60,62,-1,-1,-1,-1,-1,-1,-1,-1,-1,-1,-1,-1,-1,-1,-1,-1,-1,-1,-1,-1,-1,-1,-1,-1,-1,-1,-1,-1,-1,-1,-1,-1],"split_conditions":[2.016813E1,5.1E1,1E0,2E0,1E0,2E0,5.1E1,1E0,1E0,1E0,2E0,5.1E1,5.1E1,2E0,2E0,1E0,1E0,3.1518867E0,1E0,1.7012394E1,2E0,1E0,6.2E1,1E0,1E0,1E0,1E0,1E0,1E0,1E0,1E0,-8.062823E-2,-6.0380537E-2,-4.1002773E-2,-5.7171315E-2,-2.3766903E-2,-5.2500863E-2,-3.9744824E-2,-1.7506085E-2,-5.5804845E-2,-3.7431993E-2,-4.0261086E-2,-1.133417E-2,-3.553039E-2,-1.8080706E-2,-2.4894333E-2,2.1506075E-3,-2.807442E-2,-1.285855E-2,-9.231E-3,9.687635E-3,-1.1275238E-2,1.15136495E-2,1.503834E-2,3.869581E-2,-1.0188553E-2,1.4199594E-2,1.763813E-2,4.2558137E-2,1.8963052E-2,3.764883E-2,4.568982E-2,6.123764E-2],"split_indices":[1,0,4,9,4,9,0,4,6,6,9,0,0,9,9,6,5,1,4,2,9,6,0,6,6,6,6,6,6,6,6,0,0,0,0,0,0,0,0,0,0,0,0,0,0,0,0,0,0,0,0,0,0,0,0,0,0,0,0,0,0,0,0],"split_type":[0,0,0,0,0,0,0,0,0,0,0,0,0,0,0,0,0,0,0,0,0,0,0,0,0,0,0,0,0,0,0,0,0,0,0,0,0,0,0,0,0,0,0,0,0,0,0,0,0,0,0,0,0,0,0,0,0,0,0,0,0,0,0],"sum_hessian":[6.775117E3,1.5443077E3,5.2308096E3,6.3243396E2,9.118737E2,2.700634E3,2.5301755E3,4.301719E2,2.0226208E2,4.6504944E2,4.4682425E2,1.842019E3,8.586149E2,1.0529946E3,1.4771808E3,2.1267941E2,2.1749248E2,1.0129122E2,1.00970856E2,2.3677576E2,2.282737E2,2.992807E2,1.4754356E2,7.72004E2,1.070015E3,3.64161E2,4.944539E2,7.122188E2,3.4077588E2,1.0039329E3,4.7324786E2,1.11123856E2,1.0155556E2,6.964824E1,1.4784424E2,1.3682258E1,8.760896E1,5.2733093E1,4.8237762E1,1.6808128E2,6.8694466E1,1.5622282E2,7.205087E1,1.5247963E2,1.4680107E2,3.1986586E1,1.1555698E2,3.8602414E2,3.859799E2,5.4149976E2,5.285153E2,1.7999286E2,1.8416814E2,2.6380154E2,2.3065234E2,3.6003677E2,3.52182E2,1.7165285E2,1.6912303E2,5.0910883E2,4.9482413E2,2.3634256E2,2.369053E2],"tree_param":{"num_deleted":"0","num_feature":"10","num_nodes":"63","size_leaf_vector":"1"}},{"base_weights":[3.6576684E-3,-7.517384E-1,2.3058715E-1,-8.9340514E-1,-4.5016292E-1,-4.6501786E-2,4.319156E-1,-1.1493273E0,-7.0936775E-1,-6.5535724E-1,-2.2989902E-1,-1.9597724E-1,2.6897383E-1,2.7277353E-1,7.8006196E-1,-1.3015926E0,-9.8934174E-1,-8.8539845E-1,-5.250541E-1,-2.5238788E-1,-7.831524E-1,-4.3311226E-1,4.4041842E-2,-4.0102702E-1,4.6419105E-3,3.7314803E-3,5.289658E-1,8.124682E-2,4.6972364E-1,5.836937E-1,9.8967415E-1,-6.732525E-2,-2.2313537E-2,-5.6571614E-2,-4.1870523E-2,-6.293925E-2,-4.089586E-2,-3.7693005E-2,-1.38146E-2,-2.4539514E-2,-1.695247E-3,-7.2275296E-2,-3.6443513E-2,-3.3660606E-2,-1.2539196E-2,-1.1125415E-2,1.49686625E-2,-2.8660435E-2,-1.13123385E-2,-6.9342367E-3,7.691136E-3,-1.1172732E-2,1.1313651E-2,1.5789755E-2,3.7564408E-2,-4.8809014E-3,1.3219153E-2,1.3963602E-2,3.3167902E-2,2.0531274E-2,3.7581813E-2,4.0625807E-2,5.7525244E-2],"categories":[],"categories_nodes":[],"categories_segments":[],"categories_sizes":[],"default_left":[0,0,0,0,0,0,0,0,0,0,0,0,0,0,0,0,0,0,0,0,0,0,0,0,0,0,0,0,0,0,0,0,0,0,0,0,0,0,0,0,0,0,0,0,0,0,0,0,0,0,0,0,0,0,0,0,0,0,0,0,0,0,0],"id":8,"left_children":[1,3,5,7,9,11,13,15,17,19,21,23,25,27,29,31,33,35,37,39,41,43,45,47,49,51,53,55,57,59,61,-1,-1,-1,-1,-1,-1,-1,-1,-1,-1,-1,-1,-1,-1,-1,-1,-1,-1,-1,-1,-1,-1,-1,-1,-1,-1,-1,-1,-1,-1,-1,-1],"loss_changes":[1.1573403E3,6.623175E1,2.896464E2,4.911737E1,2.2470718E1,1.0312147E2,1.6639178E2,9.476013E0,1.9628235E1,1.3118423E1,1.3542612E1,6.1032925E1,4.84841E1,7.786514E1,3.822931E1,7.9740906E0,3.7940063E0,6.915146E0,1.71512E1,3.3030934E0,5.987747E0,5.940773E0,7.169772E0,2.1950653E1,1.6076649E1,1.7697481E1,1.658973E1,3.4362785E1,3.7356323E1,1.3910767E1,1.2017517E1,0E0,0E0,0E0,0E0,0E0,0E0,0E0,0E0,0E0,0E0,0E0,0E0,0E0,0E0,0E0,0E0,0E0,0E0,0E0,0E0,0E0,0E0,0E0,0E0,0E0,0E0,0E0,0E0,0E0,0E0,0E0,0E0],"parents":[2147483647,0,0,1,1,2,2,3,3,4,4,5,5,6,6,7,7,8,8,9,9,10,10,11,11,12,12,13,13,14,14,15,15,16,16,17,17,18,18,19,19,20,20,21,21,22,22,23,23,24,24,25,25,26,26,27,27,28,28,29,29,30,30],"right_children":[2,4,6,8,10,12,14,16,18,20,22,24,26,28,30,32,34,36,38,40,42,44,46,48,50,52,54,56,58,60,62,-1,-1,-1,-1,-1,-1,-1,-1,-1,-1,-1,-1,-1,-1,-1,-1,-1,-1,-1,-1,-1,-1,-1,-1,-1,-1,-1,-1,-1,-1,-1,-1],"split_conditions":[2.016813E1,2E0,5.1E1,5.1E1,1E0,2E0,2E0,1E0,1E0,4.738886E0,6.6E1,1E0,1E0,1E0,1E0,2.1999313E1,1E0,5.217997E0,1E0,1E0,9.154185E0,1.3844404E1,1E0,1E0,1E0,1E0,1E0,1E0,1E0,1E0,1E0,-6.732525E-2,-2.2313537E-2,-5.6571614E-2,-4.1870523E-2,-6.293925E-2,-4.089586E-2,-3.7693005E-2,-1.38146E-2,-2.4539514E-2,-1.695247E-3,-7.2275296E-2,-3.6443513E-2,-3.3660606E-2,-1.2539196E-2,-1.1125415E-2,1.49686625E-2,-2.8660435E-2,-1.13123385E-2,-6.9342367E-3,7.691136E-3,-1.1172732E-2,1.1313651E-2,1.5789755E-2,3.7564408E-2,-4.8809014E-3,1.3219153E-2,1.3963602E-2,3.3167902E-2,2.0531274E-2,3.7581813E-2,4.0625807E-2,5.7525244E-2],"split_indices":[1,9,0,0,6,9,9,8,8,1,0,8,6,6,6,2,6,2,6,8,2,2,8,6,6,8,8,8,8,8,8,0,0,0,0,0,0,0,0,0,0,0,0,0,0,0,0,0,0,0,0,0,0,0,0,0,0,0,0,0,0,0,0],"split_type":[0,0,0,0,0,0,0,0,0,0,0,0,0,0,0,0,0,0,0,0,0,0,0,0,0,0,0,0,0,0,0,0,0,0,0,0,0,0,0,0,0,0,0,0,0,0,0,0,0,0,0,0,0,0,0,0,0,0,0,0,0,0,0],"sum_hessian":[6.749414E3,1.5586648E3,5.1907495E3,1.0591575E3,4.9950735E2,2.1847039E3,3.0060454E3,4.4085706E2,6.1830035E2,2.5757718E2,2.4193016E2,1.4826083E3,7.020956E2,2.0642393E3,9.4180615E2,2.222225E2,2.1863455E2,3.1431076E2,3.039896E2,6.2734596E1,1.9484259E2,1.385619E2,1.0336825E2,7.3271375E2,7.4989453E2,3.4804068E2,3.540549E2,1.0472449E3,1.01699445E3,4.882189E2,4.5358725E2,2.1059029E2,1.16322155E1,1.0964466E2,1.0898989E2,4.5407673E1,2.689031E2,1.5728853E2,1.4670107E2,2.940373E1,3.3330868E1,1.2817206E1,1.8202539E2,5.864401E1,7.99179E1,5.0635983E1,5.2732265E1,3.6795236E2,3.6476138E2,3.8248724E2,3.6740732E2,1.7222112E2,1.7581958E2,1.8198328E2,1.7207162E2,5.300371E2,5.1720776E2,5.139422E2,5.0305225E2,2.4213696E2,2.4608195E2,2.1871774E2,2.3486949E2],"tree_param":{"num_deleted":"0","num_feature":"10","num_nodes":"63","size_leaf_vector":"1"}},{"base_weights":[3.2231505E-3,-7.3296005E-1,2.2281615E-1,-9.5469517E-1,-5.0764763E-1,-4.9902983E-2,5.1730824E-1,-1.1669115E0,-7.4081385E-1,-7.1772677E-1,-2.9097748E-1,-2.846186E-1,2.0123881E-1,2.8333607E-1,7.761726E-1,-1.3317635E0,-8.1995326E-1,-1.0844287E0,-5.5012196E-1,-9.501663E-1,-5.264382E-1,-4.4214335E-1,4.1460842E-2,-5.334292E-1,-1.0691897E-1,2.9666172E-2,5.872812E-1,3.5634533E-2,4.6888512E-1,4.9111867E-1,9.8757774E-1,-7.7905476E-2,-5.8447577E-2,-4.3230195E-2,4.250648E-2,-5.58934E-2,1.2911349E-2,-3.539116E-2,-1.8995598E-2,-5.353607E-2,-3.403997E-2,-7.724908E-2,-2.3917723E-2,-3.3527892E-2,-1.3814694E-2,-1.0357237E-2,1.6683524E-2,-3.846709E-2,-1.5270717E-2,-1.2211904E-2,1.004208E-2,-1.0941254E-2,1.03433775E-2,1.0264982E-2,4.2951245E-2,-7.6672616E-3,1.117295E-2,1.569111E-2,4.033402E-2,1.5692566E-2,4.329073E-2,4.054527E-2,5.8256414E-2],"categories":[],"categories_nodes":[],"categories_segments":[],"categories_sizes":[],"default_left":[0,0,0,0,0,0,0,0,0,0,0,0,0,0,0,0,0,0,0,0,0,0,0,0,0,0,0,0,0,0,0,0,0,0,0,0,0,0,0,0,0,0,0,0,0,0,0,0,0,0,0,0,0,0,0,0,0,0,0,0,0,0,0],"id":9,"left_children":[1,3,5,7,9,11,13,15,17,19,21,23,25,27,29,31,33,35,37,39,41,43,45,47,49,51,53,55,57,59,61,-1,-1,-1,-1,-1,-1,-1,-1,-1,-1,-1,-1,-1,-1,-1,-1,-1,-1,-1,-1,-1,-1,-1,-1,-1,-1,-1,-1,-1,-1,-1,-1],"loss_changes":[1.091939E3,7.704639E1,4.178677E2,3.4585022E1,3.4924774E1,1.5933649E2,1.512915E2,2.1231506E1,2.5070572E1,1.689421E1,1.9197662E1,6.1715088E1,8.64812E1,6.0445755E1,7.104724E1,7.8699036E0,1.0303421E1,6.519211E0,6.5475616E0,4.965805E0,9.880966E0,9.756626E0,8.801915E0,3.1063385E1,3.454645E1,3.9902805E1,4.1528244E1,2.0070627E1,3.9138275E1,3.3434128E1,2.0403442E1,0E0,0E0,0E0,0E0,0E0,0E0,0E0,0E0,0E0,0E0,0E0,0E0,0E0,0E0,0E0,0E0,0E0,0E0,0E0,0E0,0E0,0E0,0E0,0E0,0E0,0E0,0E0,0E0,0E0,0E0,0E0,0E0],"parents":[2147483647,0,0,1,1,2,2,3,3,4,4,5,5,6,6,7,7,8,8,9,9,10,10,11,11,12,12,13,13,14,14,15,15,16,16,17,17,18,18,19,19,20,20,21,21,22,22,23,23,24,24,25,25,26,26,27,27,28,28,29,29,30,30],"right_children":[2,4,6,8,10,12,14,16,18,20,22,24,26,28,30,32,34,36,38,40,42,44,46,48,50,52,54,56,58,60,62,-1,-1,-1,-1,-1,-1,-1,-1,-1,-1,-1,-1,-1,-1,-1,-1,-1,-1,-1,-1,-1,-1,-1,-1,-1,-1,-1,-1,-1,-1,-1,-1],"split_conditions":[2.016813E1,1E0,1E0,1E0,1E0,1E0,1E0,2E0,4.7E1,5.4E1,2E0,5.1E1,2E0,5.1E1,5.1E1,5.3E1,2.3125105E1,1.9777464E1,1E0,2E0,3.6024537E0,5.1E1,6.4E1,1E0,2E0,5.1E1,5E1,1E0,2E0,2E0,1E0,-7.7905476E-2,-5.8447577E-2,-4.3230195E-2,4.250648E-2,-5.58934E-2,1.2911349E-2,-3.539116E-2,-1.8995598E-2,-5.353607E-2,-3.403997E-2,-7.724908E-2,-2.3917723E-2,-3.3527892E-2,-1.3814694E-2,-1.0357237E-2,1.6683524E-2,-3.846709E-2,-1.5270717E-2,-1.2211904E-2,1.004208E-2,-1.0941254E-2,1.03433775E-2,1.0264982E-2,4.2951245E-2,-7.6672616E-3,1.117295E-2,1.569111E-2,4.033402E-2,1.5692566E-2,4.329073E-2,4.054527E-2,5.8256414E-2],"split_indices":[1,7,7,4,4,4,4,9,0,0,9,0,9,0,0,0,2,1,8,9,2,0,0,8,9,0,0,8,9,9,8,0,0,0,0,0,0,0,0,0,0,0,0,0,0,0,0,0,0,0,0,0,0,0,0,0,0,0,0,0,0,0,0],"split_type":[0,0,0,0,0,0,0,0,0,0,0,0,0,0,0,0,0,0,0,0,0,0,0,0,0,0,0,0,0,0,0,0,0,0,0,0,0,0,0,0,0,0,0,0,0,0,0,0,0,0,0,0,0,0,0,0,0,0,0,0,0,0,0],"sum_hessian":[6.7525015E3,1.5508741E3,5.201627E3,7.800106E2,7.708636E2,2.7010796E3,2.5005476E3,3.8929272E2,3.9071786E2,3.9021057E2,3.80653E2,1.3961309E3,1.3049487E3,1.3145227E3,1.1860248E3,2.6197888E2,1.2731385E2,1.3777289E2,2.5294496E2,1.7436642E2,2.1584413E2,2.6144098E2,1.19212036E2,5.808447E2,8.152861E2,9.0417444E2,4.0077432E2,5.6348364E2,7.5103906E2,5.0645514E2,6.795697E2,1.0601871E2,1.5596019E2,1.24468414E2,2.8454375E0,1.3458835E2,3.18455E0,1.2965753E2,1.2328743E2,1.1840109E2,5.5965336E1,8.326894E0,2.0751724E2,1.0869658E2,1.5274438E2,6.456914E1,5.46429E1,2.843114E2,2.965333E2,5.63891E2,2.5139508E2,3.7627933E2,5.278951E2,1.6732553E2,2.3344879E2,2.8096948E2,2.8251413E2,5.1606946E2,2.3496959E2,3.4505054E2,1.6140462E2,3.434177E2,3.36152E2],"tree_param":{"num_deleted":"0","num_feature":"10","num_nodes":"63","size_leaf_vector":"1"}},{"base_weights":[4.615214E-3,-6.7848283E-1,2.1377552E-1,-8.992652E-1,-4.481774E-1,-5.613555E-2,5.0829726E-1,-1.1182052E0,-6.7768073E-1,-6.8233716E-1,-2.4673524E-1,-2.8931078E-1,1.951897E-1,2.7133486E-1,7.7228034E-1,-1.2987763E0,-7.3919296E-1,-8.7497896E-1,-5.3274137E-1,-8.809542E-1,-4.801772E-1,-4.6502724E-1,-1.8990554E-2,-5.2909386E-1,-1.1773573E-1,-1.0125358E-1,4.166223E-1,2.8014997E-2,4.8147258E-1,4.9135274E-1,9.8601407E-1,-6.5907344E-2,-1.7251166E-2,-3.898332E-2,5.18112E-2,-5.0125103E-2,-2.8333081E-2,-3.3959422E-2,-1.8975163E-2,-5.2933197E-2,-3.4595635E-2,-3.0656302E-2,-8.934423E-3,-2.9763058E-2,-9.9283215E-3,-1.3577576E-2,1.2372211E-2,-3.3008628E-2,-1.2182189E-2,-1.53691545E-2,4.0824893E-3,-1.6125856E-2,6.5404833E-3,1.2182699E-2,4.101856E-2,-6.4129443E-3,1.7577868E-2,1.6927032E-2,3.9663203E-2,1.6185394E-2,4.2309728E-2,4.0481504E-2,5.787886E-2],"categories":[],"categories_nodes":[],"categories_segments":[],"categories_sizes":[],"default_left":[0,0,0,0,0,0,0,0,0,0,0,0,0,0,0,0,0,0,0,0,0,0,0,0,0,0,0,0,0,0,0,0,0,0,0,0,0,0,0,0,0,0,0,0,0,0,0,0,0,0,0,0,0,0,0,0,0,0,0,0,0,0,0],"id":10,"left_children":[1,3,5,7,9,11,13,15,17,19,21,23,25,27,29,31,33,35,37,39,41,43,45,47,49,51,53,55,57,59,61,-1,-1,-1,-1,-1,-1,-1,-1,-1,-1,-1,-1,-1,-1,-1,-1,-1,-1,-1,-1,-1,-1,-1,-1,-1,-1,-1,-1,-1,-1,-1,-1],"loss_changes":[9.5385297E2,7.917206E1,4.0632983E2,3.795685E1,3.6056183E1,1.5640016E2,1.5268494E2,2.6406036E1,1.094809E1,1.3814026E1,2.0592426E1,5.6888893E1,8.436305E1,6.592256E1,6.8904236E1,4.5243835E0,1.0246536E1,6.017044E0,4.9635468E0,5.235779E0,7.021862E0,7.222805E0,1.3784185E1,2.1432053E1,3.0585619E1,2.8285765E1,5.1164413E1,3.0314024E1,3.0565948E1,2.9548462E1,1.8893188E1,0E0,0E0,0E0,0E0,0E0,0E0,0E0,0E0,0E0,0E0,0E0,0E0,0E0,0E0,0E0,0E0,0E0,0E0,0E0,0E0,0E0,0E0,0E0,0E0,0E0,0E0,0E0,0E0,0E0,0E0,0E0,0E0],"parents":[2147483647,0,0,1,1,2,2,3,3,4,4,5,5,6,6,7,7,8,8,9,9,10,10,11,11,12,12,13,13,14,14,15,15,16,16,17,17,18,18,19,19,20,20,21,21,22,22,23,23,24,24,25,25,26,26,27,27,28,28,29,29,30,30],"right_children":[2,4,6,8,10,12,14,16,18,20,22,24,26,28,30,32,34,36,38,40,42,44,46,48,50,52,54,56,58,60,62,-1,-1,-1,-1,-1,-1,-1,-1,-1,-1,-1,-1,-1,-1,-1,-1,-1,-1,-1,-1,-1,-1,-1,-1,-1,-1,-1,-1,-1,-1,-1,-1],"split_conditions":[2.016813E1,1E0,1E0,1E0,5.5E1,1E0,1E0,2E0,5.1E1,1E0,1E0,5.1E1,5.1E1,5.4E1,5.1E1,9.9E1,2.3125105E1,1.7012394E1,1E0,1E0,2E0,2E0,1E0,2E0,1E0,1E0,2E0,2E0,2E0,2E0,1E0,-6.5907344E-2,-1.7251166E-2,-3.898332E-2,5.18112E-2,-5.0125103E-2,-2.8333081E-2,-3.3959422E-2,-1.8975163E-2,-5.2933197E-2,-3.4595635E-2,-3.0656302E-2,-8.934423E-3,-2.9763058E-2,-9.9283215E-3,-1.3577576E-2,1.2372211E-2,-3.3008628E-2,-1.2182189E-2,-1.53691545E-2,4.0824893E-3,-1.6125856E-2,6.5404833E-3,1.2182699E-2,4.101856E-2,-6.4129443E-3,1.7577868E-2,1.6927032E-2,3.9663203E-2,1.6185394E-2,4.2309728E-2,4.0481504E-2,5.787886E-2],"split_indices":[1,4,7,7,0,4,4,9,0,7,8,0,0,0,0,0,2,2,6,8,9,9,7,9,6,8,9,9,9,9,8,0,0,0,0,0,0,0,0,0,0,0,0,0,0,0,0,0,0,0,0,0,0,0,0,0,0,0,0,0,0,0,0],"split_type":[0,0,0,0,0,0,0,0,0,0,0,0,0,0,0,0,0,0,0,0,0,0,0,0,0,0,0,0,0,0,0,0,0,0,0,0,0,0,0,0,0,0,0,0,0,0,0,0,0,0,0,0,0,0,0,0,0,0,0,0,0,0,0],"sum_hessian":[6.674028E3,1.5639779E3,5.11005E3,7.970148E2,7.669631E2,2.6668525E3,2.443197E3,3.9886432E2,3.9815045E2,3.535747E2,4.1338837E2,1.3832998E3,1.2835529E3,1.2885593E3,1.1546377E3,2.685118E2,1.3035254E2,1.6648557E2,2.3166489E2,1.7665645E2,1.7691824E2,2.1054259E2,2.0284578E2,5.7609705E2,8.072028E2,5.4905164E2,7.3450116E2,5.976591E2,6.909002E2,5.003224E2,6.5431537E2,2.6279245E2,5.719342E0,1.2799553E2,2.357005E0,1.16180595E2,5.0304966E1,1.1670228E2,1.1496261E2,8.868622E1,8.797023E1,1.2205947E2,5.4858776E1,1.4059311E2,6.994948E1,1.0412427E2,9.872151E1,3.9390375E2,1.821933E2,4.1342664E2,3.9377615E2,2.808664E2,2.6818527E2,5.15333E2,2.1916814E2,4.0341138E2,1.9424776E2,4.7516165E2,2.1573856E2,3.4108783E2,1.5923457E2,3.254448E2,3.2887057E2],"tree_param":{"num_deleted":"0","num_feature":"10","num_nodes":"63","size_leaf_vector":"1"}},{"base_weights":[-5.185111E-4,-6.536351E-1,2.0049454E-1,-8.431513E-1,-4.5508283E-1,-1.8718084E-2,4.4569954E-1,-1.0622361E0,-6.954566E-1,-6.923935E-1,-2.6605365E-1,-1.4816754E-1,2.6311973E-1,2.8977093E-1,7.89423E-1,-1.1923554E0,-7.867281E-1,-8.1076115E-1,-4.496782E-1,-8.1986845E-1,-4.2436308E-1,-4.161156E-1,4.633707E-2,-3.3561784E-1,9.290002E-3,2.647702E-2,4.8107755E-1,2.9576741E-2,4.8520485E-1,5.003985E-1,1.0013784E0,-6.6719525E-2,-5.0977763E-2,-4.3374905E-3,-4.4789042E-2,-4.556924E-2,-3.5064097E-2,8.089526E-3,-2.5487429E-2,-4.9943335E-2,-3.2366283E-2,-7.856637E-3,-2.68668E-2,-3.0152345E-2,-1.0253157E-2,-1.5063444E-2,6.20041E-3,-2.5230622E-2,-8.199452E-3,-7.6136566E-3,8.793371E-3,-8.537686E-3,1.1349197E-2,1.410381E-2,3.5185695E-2,-8.418305E-3,1.1685794E-2,1.5214081E-2,3.363247E-2,1.295038E-2,3.7283972E-2,4.3258425E-2,5.681286E-2],"categories":[],"categories_nodes":[],"categories_segments":[],"categories_sizes":[],"default_left":[0,0,0,0,0,0,0,0,0,0,0,0,0,0,0,0,0,0,0,0,0,0,0,0,0,0,0,0,0,0,0,0,0,0,0,0,0,0,0,0,0,0,0,0,0,0,0,0,0,0,0,0,0,0,0,0,0,0,0,0,0,0,0],"id":11,"left_children":[1,3,5,7,9,11,13,15,17,19,21,23,25,27,29,31,33,35,37,39,41,43,45,47,49,51,53,55,57,59,61,-1,-1,-1,-1,-1,-1,-1,-1,-1,-1,-1,-1,-1,-1,-1,-1,-1,-1,-1,-1,-1,-1,-1,-1,-1,-1,-1,-1,-1,-1,-1,-1],"loss_changes":[8.7806525E2,5.8845093E1,2.7490778E2,2.5282227E1,3.4395554E1,9.8588234E1,1.2915448E2,1.06026E1,1.3330154E1,1.1308487E1,2.0209766E1,5.46553E1,4.3856323E1,8.451257E1,4.561432E1,3.9585571E0,8.029678E0,2.9706879E0,5.833048E0,6.4608154E0,3.2977657E0,1.1358688E1,3.8350124E0,2.4435822E1,2.7136126E1,1.6207075E1,1.9414803E1,2.8893023E1,3.1985382E1,1.8782341E1,6.9772644E0,0E0,0E0,0E0,0E0,0E0,0E0,0E0,0E0,0E0,0E0,0E0,0E0,0E0,0E0,0E0,0E0,0E0,0E0,0E0,0E0,0E0,0E0,0E0,0E0,0E0,0E0,0E0,0E0,0E0,0E0,0E0,0E0],"parents":[2147483647,0,0,1,1,2,2,3,3,4,4,5,5,6,6,7,7,8,8,9,9,10,10,11,11,12,12,13,13,14,14,15,15,16,16,17,17,18,18,19,19,20,20,21,21,22,22,23,23,24,24,25,25,26,26,27,27,28,28,29,29,30,30],"right_children":[2,4,6,8,10,12,14,16,18,20,22,24,26,28,30,32,34,36,38,40,42,44,46,48,50,52,54,56,58,60,62,-1,-1,-1,-1,-1,-1,-1,-1,-1,-1,-1,-1,-1,-1,-1,-1,-1,-1,-1,-1,-1,-1,-1,-1,-1,-1,-1,-1,-1,-1,-1,-1],"split_conditions":[2.016813E1,1E0,1E0,5.1E1,5.4E1,2E0,2E0,2E0,2E0,2E0,2E0,5.4E1,5.5E1,5.1E1,5E1,1E0,2.3E1,1E0,1.9235338E0,1E0,1.0601486E1,1E0,6.2E1,1E0,1E0,1E0,1E0,1E0,1E0,1E0,1E0,-6.6719525E-2,-5.0977763E-2,-4.3374905E-3,-4.4789042E-2,-4.556924E-2,-3.5064097E-2,8.089526E-3,-2.5487429E-2,-4.9943335E-2,-3.2366283E-2,-7.856637E-3,-2.68668E-2,-3.0152345E-2,-1.0253157E-2,-1.5063444E-2,6.20041E-3,-2.5230622E-2,-8.199452E-3,-7.6136566E-3,8.793371E-3,-8.537686E-3,1.1349197E-2,1.410381E-2,3.5185695E-2,-8.418305E-3,1.1685794E-2,1.5214081E-2,3.363247E-2,1.295038E-2,3.7283972E-2,4.3258425E-2,5.681286E-2],"split_indices":[1,4,4,0,0,9,9,9,9,9,9,0,0,0,0,6,0,6,1,6,2,6,0,6,6,6,6,6,6,6,6,0,0,0,0,0,0,0,0,0,0,0,0,0,0,0,0,0,0,0,0,0,0,0,0,0,0,0,0,0,0,0,0],"split_type":[0,0,0,0,0,0,0,0,0,0,0,0,0,0,0,0,0,0,0,0,0,0,0,0,0,0,0,0,0,0,0,0,0,0,0,0,0,0,0,0,0,0,0,0,0,0,0,0,0,0,0,0,0,0,0,0,0,0,0,0,0,0,0],"sum_hessian":[6.686241E3,1.5730272E3,5.113214E3,8.031663E2,7.6986096E2,2.700182E3,2.413032E3,3.209253E2,4.82241E2,3.4015778E2,4.2970316E2,1.8506459E3,8.4953613E2,1.6612543E3,7.517776E2,2.1571678E2,1.0520853E2,3.2668243E2,1.5555858E2,2.2912654E2,1.11031235E2,2.9004385E2,1.396593E2,8.4434143E2,1.0063044E3,4.0784705E2,4.4168912E2,7.130606E2,9.481937E2,3.194853E2,4.322923E2,1.1470865E2,1.0100813E2,1.4423528E1,9.0784996E1,1.6640913E2,1.602733E2,1.3763517E1,1.4179506E2,1.1010897E2,1.1901758E2,3.370205E1,7.7329185E1,1.5282654E2,1.3721732E2,2.498112E1,1.14678185E2,4.2445792E2,4.1988348E2,5.108844E2,4.9542E2,2.0567805E2,2.02169E2,2.3442108E2,2.0726804E2,3.621136E2,3.50947E2,4.838247E2,4.6436902E2,1.6205566E2,1.5742964E2,2.1877379E2,2.1351852E2],"tree_param":{"num_deleted":"0","num_feature":"10","num_nodes":"63","size_leaf_vector":"1"}},{"base_weights":[-1.0680084E-2,-6.258688E-1,1.8181197E-1,-8.4840596E-1,-4.7268182E-1,-6.783854E-2,4.619107E-1,-1.0413603E0,-6.547352E-1,-6.6210663E-1,-2.7368096E-1,-2.7796325E-1,1.6366106E-1,2.5150266E-1,7.027088E-1,-1.2710541E0,-7.9846084E-1,-8.437961E-1,-4.5907247E-1,-8.605718E-1,-4.4756547E-1,-4.7986707E-1,-5.5263102E-2,-4.5974877E-1,-9.5242575E-2,6.104809E-3,5.1927316E-1,5.146965E-2,4.608118E-1,4.1777697E-1,9.349561E-1,-7.065314E-2,-4.9130954E-2,-4.689462E-2,-3.238631E-2,-2.8027257E-2,-4.9081188E-2,-3.0863112E-2,-1.4339507E-2,-4.9753573E-2,-2.88074E-2,-1.7838797E-2,-3.594275E-2,-3.9617345E-2,-2.051487E-2,-1.32810315E-2,8.593586E-3,-3.373028E-2,-1.5727535E-2,-1.16332965E-2,1.0258574E-2,-1.2382203E-2,9.689323E-3,9.604265E-3,3.8591485E-2,-7.5952597E-3,1.2572921E-2,1.4404314E-2,4.21732E-2,7.7902377E-3,3.400607E-2,3.7484527E-2,5.6033205E-2],"categories":[],"categories_nodes":[],"categories_segments":[],"categories_sizes":[],"default_left":[0,0,0,0,0,0,0,0,0,0,0,0,0,0,0,0,0,0,0,0,0,0,0,0,0,0,0,0,0,0,0,0,0,0,0,0,0,0,0,0,0,0,0,0,0,0,0,0,0,0,0,0,0,0,0,0,0,0,0,0,0,0,0],"id":12,"left_children":[1,3,5,7,9,11,13,15,17,19,21,23,25,27,29,31,33,35,37,39,41,43,45,47,49,51,53,55,57,59,61,-1,-1,-1,-1,-1,-1,-1,-1,-1,-1,-1,-1,-1,-1,-1,-1,-1,-1,-1,-1,-1,-1,-1,-1,-1,-1,-1,-1,-1,-1,-1,-1],"loss_changes":[7.8939197E2,5.375769E1,3.5507962E2,2.3476685E1,3.537451E1,1.3067853E2,1.210629E2,1.6958252E1,1.16474E1,2.0160797E1,2.0765705E1,4.6728027E1,7.162369E1,5.3509888E1,7.3415405E1,5.324188E0,2.7397003E0,5.8625946E0,4.2398643E0,8.974213E0,5.5060577E0,4.8350334E0,1.0811646E1,2.1800293E1,2.9091423E1,4.228586E1,3.2284363E1,2.6675379E1,4.1045135E1,3.4440308E1,2.027295E1,0E0,0E0,0E0,0E0,0E0,0E0,0E0,0E0,0E0,0E0,0E0,0E0,0E0,0E0,0E0,0E0,0E0,0E0,0E0,0E0,0E0,0E0,0E0,0E0,0E0,0E0,0E0,0E0,0E0,0E0,0E0,0E0],"parents":[2147483647,0,0,1,1,2,2,3,3,4,4,5,5,6,6,7,7,8,8,9,9,10,10,11,11,12,12,13,13,14,14,15,15,16,16,17,17,18,18,19,19,20,20,21,21,22,22,23,23,24,24,25,25,26,26,27,27,28,28,29,29,30,30],"right_children":[2,4,6,8,10,12,14,16,18,20,22,24,26,28,30,32,34,36,38,40,42,44,46,48,50,52,54,56,58,60,62,-1,-1,-1,-1,-1,-1,-1,-1,-1,-1,-1,-1,-1,-1,-1,-1,-1,-1,-1,-1,-1,-1,-1,-1,-1,-1,-1,-1,-1,-1,-1,-1],"split_conditions":[2.016813E1,5.1E1,1E0,1E0,1E0,1E0,1E0,1E0,1E0,1E0,1E0,1E0,2E0,1E0,5.1E1,2E0,1E0,3E1,1E0,2E0,9E1,3.4988065E0,1E0,5E1,2E0,5.1E1,5E1,1E0,2E0,1E0,1E0,-7.065314E-2,-4.9130954E-2,-4.689462E-2,-3.238631E-2,-2.8027257E-2,-4.9081188E-2,-3.0863112E-2,-1.4339507E-2,-4.9753573E-2,-2.88074E-2,-1.7838797E-2,-3.594275E-2,-3.9617345E-2,-2.051487E-2,-1.32810315E-2,8.593586E-3,-3.373028E-2,-1.5727535E-2,-1.16332965E-2,1.0258574E-2,-1.2382203E-2,9.689323E-3,9.604265E-3,3.8591485E-2,-7.5952597E-3,1.2572921E-2,1.4404314E-2,4.21732E-2,7.7902377E-3,3.400607E-2,3.7484527E-2,5.6033205E-2],"split_indices":[1,0,7,7,4,4,4,6,4,7,8,8,9,6,0,9,8,0,8,9,0,1,6,0,9,0,0,8,9,8,8,0,0,0,0,0,0,0,0,0,0,0,0,0,0,0,0,0,0,0,0,0,0,0,0,0,0,0,0,0,0,0,0],"split_type":[0,0,0,0,0,0,0,0,0,0,0,0,0,0,0,0,0,0,0,0,0,0,0,0,0,0,0,0,0,0,0,0,0,0,0,0,0,0,0,0,0,0,0,0,0,0,0,0,0,0,0,0,0,0,0,0,0,0,0,0,0,0,0],"sum_hessian":[6.664135E3,1.5877062E3,5.0764287E3,6.4547534E2,9.422308E2,2.6845032E3,2.3919258E3,3.2114316E2,3.2433218E2,4.815378E2,4.60693E2,1.4071122E3,1.277391E3,1.2776055E3,1.1143202E3,1.6288283E2,1.5826035E2,1.6326418E2,1.6106801E2,2.4857642E2,2.3296138E2,2.3636644E2,2.2432655E2,7.046011E2,7.0251105E2,8.85903E2,3.914879E2,6.539158E2,6.236897E2,5.016597E2,6.126605E2,1.06533066E2,5.634976E1,7.949983E1,7.876051E1,5.5098248E1,1.08165924E2,8.262179E1,7.844622E1,1.670721E2,8.1504326E1,1.7628207E2,5.6679306E1,4.114954E1,1.952169E2,1.1637663E2,1.0794991E2,2.8267172E2,4.2192938E2,4.821697E2,2.2034132E2,3.765208E2,5.0938223E2,1.713125E2,2.2017542E2,3.243324E2,3.2958337E2,4.3092648E2,1.9276323E2,2.5180542E2,2.4985428E2,3.092171E2,3.0344345E2],"tree_param":{"num_deleted":"0","num_feature":"10","num_nodes":"63","size_leaf_vector":"1"}},{"base_weights":[-5.5432005E-4,-5.7704735E-1,1.7881587E-1,-7.637013E-1,-3.8110793E-1,-6.0487986E-2,4.5054674E-1,-9.951504E-1,-5.964448E-1,-5.609827E-1,-1.975322E-1,-2.5767908E-1,1.6163756E-1,2.3633651E-1,6.986329E-1,-1.1524739E0,-8.397222E-1,-7.381259E-1,-3.0655316E-1,-6.8576694E-1,-3.0375877E-1,-4.009964E-1,-4.280637E-2,-4.4288003E-1,-7.177306E-2,1.4814969E-2,4.9556506E-1,1.04492465E-2,4.1929877E-1,4.328268E-1,9.177125E-1,-6.382399E-2,-4.4532176E-2,-4.3613713E-2,1.9199349E-2,-4.555562E-2,-2.737238E-2,1.8201558E-2,-1.9027214E-2,-4.2630307E-2,-2.4144499E-2,-6.7293614E-2,-1.29393665E-2,-2.5809363E-2,-7.540682E-3,-1.257437E-2,8.778269E-3,-3.0710591E-2,-1.6360657E-2,-1.0304212E-2,1.0869841E-2,-9.00381E-3,1.0527337E-2,7.352398E-3,3.853666E-2,-7.5681745E-3,8.647911E-3,1.4205954E-2,3.601302E-2,1.3443673E-2,3.9193325E-2,4.0022325E-2,5.8520425E-2],"categories":[],"categories_nodes":[],"categories_segments":[],"categories_sizes":[],"default_left":[0,0,0,0,0,0,0,0,0,0,0,0,0,0,0,0,0,0,0,0,0,0,0,0,0,0,0,0,0,0,0,0,0,0,0,0,0,0,0,0,0,0,0,0,0,0,0,0,0,0,0,0,0,0,0,0,0,0,0,0,0,0,0],"id":13,"left_children":[1,3,5,7,9,11,13,15,17,19,21,23,25,27,29,31,33,35,37,39,41,43,45,47,49,51,53,55,57,59,61,-1,-1,-1,-1,-1,-1,-1,-1,-1,-1,-1,-1,-1,-1,-1,-1,-1,-1,-1,-1,-1,-1,-1,-1,-1,-1,-1,-1,-1,-1,-1,-1],"loss_changes":[6.9027893E2,5.7644714E1,3.3109747E2,3.0773712E1,2.5474632E1,1.1865871E2,1.2654022E2,7.3074036E0,1.9195435E1,1.2335945E1,1.2103534E1,4.9373238E1,6.246117E1,5.29376E1,6.390674E1,4.2365875E0,7.2628784E0,9.954742E0,7.925871E0,8.468613E0,5.718753E0,4.711645E0,1.0061396E1,1.4040634E1,2.7903889E1,3.3837223E1,3.720115E1,1.5127373E1,2.8588043E1,2.8613235E1,1.6974396E1,0E0,0E0,0E0,0E0,0E0,0E0,0E0,0E0,0E0,0E0,0E0,0E0,0E0,0E0,0E0,0E0,0E0,0E0,0E0,0E0,0E0,0E0,0E0,0E0,0E0,0E0,0E0,0E0,0E0,0E0,0E0,0E0],"parents":[2147483647,0,0,1,1,2,2,3,3,4,4,5,5,6,6,7,7,8,8,9,9,10,10,11,11,12,12,13,13,14,14,15,15,16,16,17,17,18,18,19,19,20,20,21,21,22,22,23,23,24,24,25,25,26,26,27,27,28,28,29,29,30,30],"right_children":[2,4,6,8,10,12,14,16,18,20,22,24,26,28,30,32,34,36,38,40,42,44,46,48,50,52,54,56,58,60,62,-1,-1,-1,-1,-1,-1,-1,-1,-1,-1,-1,-1,-1,-1,-1,-1,-1,-1,-1,-1,-1,-1,-1,-1,-1,-1,-1,-1,-1,-1,-1,-1],"split_conditions":[2.016813E1,1E0,1E0,5.3E1,1E0,1E0,1E0,1E0,2E0,2E0,5.1E1,1E0,2E0,5.2E1,5.1E1,2E0,1.9777464E1,1E0,1.9235338E0,1E0,2E1,2E0,1E0,5E1,2E0,1E0,5E1,1E0,2E0,2E0,2E0,-6.382399E-2,-4.4532176E-2,-4.3613713E-2,1.9199349E-2,-4.555562E-2,-2.737238E-2,1.8201558E-2,-1.9027214E-2,-4.2630307E-2,-2.4144499E-2,-6.7293614E-2,-1.29393665E-2,-2.5809363E-2,-7.540682E-3,-1.257437E-2,8.778269E-3,-3.0710591E-2,-1.6360657E-2,-1.0304212E-2,1.0869841E-2,-9.00381E-3,1.0527337E-2,7.352398E-3,3.853666E-2,-7.5681745E-3,8.647911E-3,1.4205954E-2,3.601302E-2,1.3443673E-2,3.9193325E-2,4.0022325E-2,5.8520425E-2],"split_indices":[1,7,7,0,4,4,4,4,9,9,0,8,9,0,0,9,1,4,1,8,0,9,8,0,9,8,0,8,9,9,9,0,0,0,0,0,0,0,0,0,0,0,0,0,0,0,0,0,0,0,0,0,0,0,0,0,0,0,0,0,0,0,0],"split_type":[0,0,0,0,0,0,0,0,0,0,0,0,0,0,0,0,0,0,0,0,0,0,0,0,0,0,0,0,0,0,0,0,0,0,0,0,0,0,0,0,0,0,0,0,0,0,0,0,0,0,0,0,0,0,0,0,0,0,0,0,0,0,0],"sum_hessian":[6.6734487E3,1.5831173E3,5.0903315E3,8.092855E2,7.738317E2,2.707079E3,2.3832524E3,3.3741788E2,4.7186768E2,3.8981735E2,3.8401434E2,1.4339424E3,1.2731368E3,1.2799934E3,1.1032589E3,1.6449855E2,1.7291933E2,3.159195E2,1.5594817E2,2.6136038E2,1.28457E2,1.6519354E2,2.1882082E2,7.176409E2,7.1630145E2,8.8504224E2,3.8809457E2,5.732767E2,7.0671674E2,4.9981564E2,6.034433E2,1.0899976E2,5.54988E1,1.6871841E2,4.2009044E0,1.6366327E2,1.5225623E2,1.5107589E1,1.4084058E2,1.4166077E2,1.1969961E2,4.1174273E0,1.2433957E2,1.12385155E2,5.2808384E1,1.1181562E2,1.070052E2,2.8748822E2,4.3015268E2,4.893156E2,2.2698581E2,4.435135E2,4.4152875E2,1.7190318E2,2.1619139E2,2.8728806E2,2.8598862E2,4.8901505E2,2.1770166E2,3.4189792E2,1.5791774E2,4.1501794E2,1.8842538E2],"tree_param":{"num_deleted":"0","num_feature":"10","num_nodes":"63","size_leaf_vector":"1"}},{"base_weights":[7.937802E-3,-5.6808645E-1,1.8902571E-1,-7.6675385E-1,-3.649958E-1,-3.3649586E-2,4.4294193E-1,-9.9227834E-1,-6.073733E-1,-5.1840186E-1,-2.0264366E-1,-2.2246203E-1,1.7881556E-1,2.4451214E-1,6.7793393E-1,-1.1550958E0,-8.216642E-1,-7.370902E-1,-3.3688277E-1,-6.5293396E-1,-3.8087848E-1,-3.2669178E-1,6.299341E-2,-4.2770493E-1,-7.443538E-2,4.681262E-2,4.8832875E-1,1.7098568E-2,4.131465E-1,4.1779342E-1,8.929615E-1,-6.8637274E-2,-4.6650525E-2,-4.560503E-2,-3.0424798E-2,-4.585312E-2,-2.7265979E-2,1.6682748E-2,-2.029498E-2,-3.680194E-2,-1.7975586E-2,-2.586552E-2,-4.8256E-3,-3.1777833E-2,-1.0202194E-2,-2.7247833E-3,3.1789754E-2,-3.0004812E-2,-1.298098E-2,-1.1990709E-2,5.031576E-3,-6.35776E-3,1.1182943E-2,1.0038925E-2,4.043371E-2,-9.064874E-3,1.0513956E-2,1.3745296E-2,3.6012035E-2,9.918507E-3,3.1976845E-2,3.489354E-2,5.4602444E-2],"categories":[],"categories_nodes":[],"categories_segments":[],"categories_sizes":[],"default_left":[0,0,0,0,0,0,0,0,0,0,0,0,0,0,0,0,0,0,0,0,0,0,0,0,0,0,0,0,0,0,0,0,0,0,0,0,0,0,0,0,0,0,0,0,0,0,0,0,0,0,0,0,0,0,0,0,0,0,0,0,0,0,0],"id":14,"left_children":[1,3,5,7,9,11,13,15,17,19,21,23,25,27,29,31,33,35,37,39,41,43,45,47,49,51,53,55,57,59,61,-1,-1,-1,-1,-1,-1,-1,-1,-1,-1,-1,-1,-1,-1,-1,-1,-1,-1,-1,-1,-1,-1,-1,-1,-1,-1,-1,-1,-1,-1,-1,-1],"loss_changes":[6.8949786E2,6.3509674E1,2.843581E2,2.809143E1,1.9413795E1,1.0756082E2,1.0940112E2,8.189575E0,1.625383E1,7.1946487E0,1.2621115E1,4.3096466E1,5.152545E1,4.89096E1,5.9770477E1,6.736908E0,2.608673E0,1.04418335E1,7.2754E0,4.660347E0,7.7615986E0,9.75091E0,8.283033E0,1.707396E1,2.3937304E1,2.7273752E1,3.4575165E1,2.089371E1,3.0893692E1,2.363836E1,2.2066528E1,0E0,0E0,0E0,0E0,0E0,0E0,0E0,0E0,0E0,0E0,0E0,0E0,0E0,0E0,0E0,0E0,0E0,0E0,0E0,0E0,0E0,0E0,0E0,0E0,0E0,0E0,0E0,0E0,0E0,0E0,0E0,0E0],"parents":[2147483647,0,0,1,1,2,2,3,3,4,4,5,5,6,6,7,7,8,8,9,9,10,10,11,11,12,12,13,13,14,14,15,15,16,16,17,17,18,18,19,19,20,20,21,21,22,22,23,23,24,24,25,25,26,26,27,27,28,28,29,29,30,30],"right_children":[2,4,6,8,10,12,14,16,18,20,22,24,26,28,30,32,34,36,38,40,42,44,46,48,50,52,54,56,58,60,62,-1,-1,-1,-1,-1,-1,-1,-1,-1,-1,-1,-1,-1,-1,-1,-1,-1,-1,-1,-1,-1,-1,-1,-1,-1,-1,-1,-1,-1,-1,-1,-1],"split_conditions":[2.016813E1,1E0,1E0,5.3E1,1E0,1E0,1E0,1E0,2E0,1E0,2E0,5.1E1,2E0,5E1,5.1E1,1E0,2E0,1E0,1.9235338E0,1.5544117E1,2E0,5.4672894E0,8.9E1,1E0,1E0,5.8E1,1E0,1E0,2E0,1E0,1E0,-6.8637274E-2,-4.6650525E-2,-4.560503E-2,-3.0424798E-2,-4.585312E-2,-2.7265979E-2,1.6682748E-2,-2.029498E-2,-3.680194E-2,-1.7975586E-2,-2.586552E-2,-4.8256E-3,-3.1777833E-2,-1.0202194E-2,-2.7247833E-3,3.1789754E-2,-3.0004812E-2,-1.298098E-2,-1.1990709E-2,5.031576E-3,-6.35776E-3,1.1182943E-2,1.0038925E-2,4.043371E-2,-9.064874E-3,1.0513956E-2,1.3745296E-2,3.6012035E-2,9.918507E-3,3.1976845E-2,3.489354E-2,5.4602444E-2],"split_indices":[1,7,7,0,4,4,4,6,9,6,9,0,9,0,0,4,9,4,1,1,9,1,0,8,6,0,6,6,9,8,8,0,0,0,0,0,0,0,0,0,0,0,0,0,0,0,0,0,0,0,0,0,0,0,0,0,0,0,0,0,0,0,0],"split_type":[0,0,0,0,0,0,0,0,0,0,0,0,0,0,0,0,0,0,0,0,0,0,0,0,0,0,0,0,0,0,0,0,0,0,0,0,0,0,0,0,0,0,0,0,0,0,0,0,0,0,0,0,0,0,0,0,0,0,0,0,0,0,0],"sum_hessian":[6.6079893E3,1.5800035E3,5.0279854E3,7.972965E2,7.827071E2,2.679249E3,2.3487366E3,3.2797876E2,4.6931778E2,4.013138E2,3.8139325E2,1.4185616E3,1.2606873E3,1.2745409E3,1.0741957E3,1.6487138E2,1.6310736E2,3.1603467E2,1.532831E2,2.0096864E2,2.0034518E2,2.5982803E2,1.21565216E2,5.9361255E2,8.249491E2,8.845785E2,3.7610876E2,5.431593E2,7.313816E2,4.8743707E2,5.8675867E2,8.06505E1,8.422089E1,1.1221958E2,5.0887787E1,1.6108147E2,1.549532E2,1.394687E1,1.3933623E2,1.5543651E2,4.553215E1,1.3483537E2,6.55098E1,7.26617E1,1.8716634E2,1.0162539E2,1.9939827E1,2.917838E2,3.0182877E2,4.2402222E2,4.009269E2,4.4605988E2,4.3851862E2,1.9905692E2,1.7705185E2,2.6799277E2,2.7516653E2,5.0565344E2,2.2572815E2,2.4595256E2,2.414845E2,2.9862952E2,2.8812912E2],"tree_param":{"num_deleted":"0","num_feature":"10","num_nodes":"63","size_leaf_vector":"1"}},{"base_weights":[4.1152034E-3,-5.166025E-1,1.6829339E-1,-7.153947E-1,-3.8182774E-1,-5.5808835E-2,4.2526776E-1,-8.880299E-1,-5.4161984E-1,-5.328363E-1,-2.203735E-1,-2.391719E-1,1.5146233E-1,2.2344142E-1,6.640317E-1,-1.0960397E0,-6.765768E-1,-7.150966E-1,-3.516391E-1,-7.235537E-1,-3.405502E-1,-3.8559094E-1,-4.2920817E-2,-4.1135836E-1,-6.372495E-2,-5.5862233E-2,3.6063728E-1,4.763752E-2,4.040432E-1,4.015971E-1,8.837275E-1,-6.407952E-2,-4.5393847E-2,-3.5914194E-2,-1.3835594E-2,-4.30554E-2,-2.8131569E-2,-1.02649275E-2,-2.5267988E-2,-2.0919938E-2,-4.015603E-2,-2.3497203E-2,-9.834128E-3,-2.5799397E-2,-1.25370845E-2,-1.2470584E-2,8.586578E-3,-3.0377436E-2,-1.039925E-2,-1.208607E-2,3.7094522E-3,-1.4078592E-2,5.658143E-3,5.4455977E-3,2.7349172E-2,-7.1420716E-3,1.2270972E-2,9.304913E-3,2.817587E-2,8.49611E-3,3.2171894E-2,3.5485204E-2,5.2879192E-2],"categories":[],"categories_nodes":[],"categories_segments":[],"categories_sizes":[],"default_left":[0,0,0,0,0,0,0,0,0,0,0,0,0,0,0,0,0,0,0,0,0,0,0,0,0,0,0,0,0,0,0,0,0,0,0,0,0,0,0,0,0,0,0,0,0,0,0,0,0,0,0,0,0,0,0,0,0,0,0,0,0,0,0],"id":15,"left_children":[1,3,5,7,9,11,13,15,17,19,21,23,25,27,29,31,33,35,37,39,41,43,45,47,49,51,53,55,57,59,61,-1,-1,-1,-1,-1,-1,-1,-1,-1,-1,-1,-1,-1,-1,-1,-1,-1,-1,-1,-1,-1,-1,-1,-1,-1,-1,-1,-1,-1,-1,-1,-1],"loss_changes":[5.6118823E2,4.1885803E1,2.8743433E2,1.8557922E1,2.2798737E1,1.01389366E2,1.11890076E2,1.3192612E1,1.0256569E1,1.7538391E1,1.3351238E1,4.2731934E1,5.433278E1,4.003275E1,6.102124E1,4.3558655E0,2.4647903E0,3.2040558E0,3.3638859E0,5.5540314E0,4.4382076E0,4.0202827E0,9.836707E0,2.8367973E1,1.7256598E1,2.4060781E1,2.9189857E1,2.4159323E1,2.1517395E1,2.7171661E1,1.6755432E1,0E0,0E0,0E0,0E0,0E0,0E0,0E0,0E0,0E0,0E0,0E0,0E0,0E0,0E0,0E0,0E0,0E0,0E0,0E0,0E0,0E0,0E0,0E0,0E0,0E0,0E0,0E0,0E0,0E0,0E0,0E0,0E0],"parents":[2147483647,0,0,1,1,2,2,3,3,4,4,5,5,6,6,7,7,8,8,9,9,10,10,11,11,12,12,13,13,14,14,15,15,16,16,17,17,18,18,19,19,20,20,21,21,22,22,23,23,24,24,25,25,26,26,27,27,28,28,29,29,30,30],"right_children":[2,4,6,8,10,12,14,16,18,20,22,24,26,28,30,32,34,36,38,40,42,44,46,48,50,52,54,56,58,60,62,-1,-1,-1,-1,-1,-1,-1,-1,-1,-1,-1,-1,-1,-1,-1,-1,-1,-1,-1,-1,-1,-1,-1,-1,-1,-1,-1,-1,-1,-1,-1,-1],"split_conditions":[2.016813E1,5.1E1,1E0,1E0,1E0,1E0,1E0,1E0,1E0,1E0,1E0,1E0,1E0,1E0,5.1E1,1E0,1.8282022E1,1E0,3.5E1,6.2E1,1E0,1E0,1E0,1E0,5.2E1,5.1E1,5.1E1,1E0,5E1,1E0,1E0,-6.407952E-2,-4.5393847E-2,-3.5914194E-2,-1.3835594E-2,-4.30554E-2,-2.8131569E-2,-1.02649275E-2,-2.5267988E-2,-2.0919938E-2,-4.015603E-2,-2.3497203E-2,-9.834128E-3,-2.5799397E-2,-1.25370845E-2,-1.2470584E-2,8.586578E-3,-3.0377436E-2,-1.039925E-2,-1.208607E-2,3.7094522E-3,-1.4078592E-2,5.658143E-3,5.4455977E-3,2.7349172E-2,-7.1420716E-3,1.2270972E-2,9.304913E-3,2.817587E-2,8.49611E-3,3.2171894E-2,3.5485204E-2,5.2879192E-2],"split_indices":[1,0,7,7,7,4,4,6,4,4,6,8,8,8,0,4,1,6,0,0,6,8,8,6,0,0,0,6,0,6,6,0,0,0,0,0,0,0,0,0,0,0,0,0,0,0,0,0,0,0,0,0,0,0,0,0,0,0,0,0,0,0,0],"split_type":[0,0,0,0,0,0,0,0,0,0,0,0,0,0,0,0,0,0,0,0,0,0,0,0,0,0,0,0,0,0,0,0,0,0,0,0,0,0,0,0,0,0,0,0,0,0,0,0,0,0,0,0,0,0,0,0,0,0,0,0,0,0,0],"sum_hessian":[6.5623184E3,1.5725559E3,4.989762E3,6.3363666E2,9.389193E2,2.6657754E3,2.323987E3,3.157987E2,3.1783795E2,4.8396524E2,4.5495407E2,1.4143832E3,1.2513923E3,1.2604602E3,1.0635267E3,1.5708667E2,1.5871205E2,1.6469041E2,1.5314752E2,2.415866E2,2.4237863E2,2.3499182E2,2.1996223E2,7.131458E2,7.0123737E2,6.28844E2,6.225483E2,6.3935455E2,6.2110565E2,4.8591342E2,5.776133E2,7.6166466E1,8.092021E1,1.4300037E2,1.5711679E1,8.175152E1,8.29389E1,7.96536E1,7.349391E1,5.1258484E1,1.9032811E2,1.26415054E2,1.1596358E2,1.18031204E2,1.1696062E2,1.1202995E2,1.0793229E2,3.619715E2,3.5117432E2,3.058039E2,3.954335E2,2.689854E2,3.598586E2,2.654926E2,3.570557E2,3.2583173E2,3.1352283E2,2.6335678E2,3.577489E2,2.490423E2,2.3687112E2,2.9120776E2,2.8640552E2],"tree_param":{"num_deleted":"0","num_feature":"10","num_nodes":"63","size_leaf_vector":"1"}},{"base_weights":[-2.466161E-3,-5.081071E-1,1.6608272E-1,-6.687422E-1,-3.319823E-1,-4.7048513E-2,4.1137424E-1,-8.781817E-1,-5.3601766E-1,-4.9102417E-1,-1.5287319E-1,-1.6990507E-1,2.3455252E-1,2.7394608E-1,7.0829004E-1,-1.0408584E0,-6.974073E-1,-6.892894E-1,-3.6924013E-1,-6.701898E-1,-3.4276816E-1,-3.4604785E-1,5.4003663E-2,-3.292039E-1,-3.6776175E-3,-1.6751433E-2,4.2956245E-1,5.6420762E-2,4.735387E-1,5.044536E-1,9.561105E-1,-5.30604E-2,-1.5092892E-2,-3.774206E-2,-1.7651271E-2,-4.082933E-2,-2.5096843E-2,-2.570391E-2,-1.022677E-2,-3.8698953E-2,-2.211227E-2,-9.387088E-3,-2.4230972E-2,-6.666274E-2,-1.5510352E-2,-3.852492E-3,1.6910098E-2,-2.606777E-2,-9.612428E-3,-9.908872E-3,1.0406526E-2,-1.1382962E-2,1.0240206E-2,1.1322944E-2,3.39704E-2,-8.519686E-3,1.4079593E-2,1.3232762E-2,3.635749E-2,1.4445658E-2,3.5703994E-2,3.7534308E-2,5.5882305E-2],"categories":[],"categories_nodes":[],"categories_segments":[],"categories_sizes":[],"default_left":[0,0,0,0,0,0,0,0,0,0,0,0,0,0,0,0,0,0,0,0,0,0,0,0,0,0,0,0,0,0,0,0,0,0,0,0,0,0,0,0,0,0,0,0,0,0,0,0,0,0,0,0,0,0,0,0,0,0,0,0,0,0,0],"id":16,"left_children":[1,3,5,7,9,11,13,15,17,19,21,23,25,27,29,31,33,35,37,39,41,43,45,47,49,51,53,55,57,59,61,-1,-1,-1,-1,-1,-1,-1,-1,-1,-1,-1,-1,-1,-1,-1,-1,-1,-1,-1,-1,-1,-1,-1,-1,-1,-1,-1,-1,-1,-1,-1,-1],"loss_changes":[5.550235E2,4.5840485E1,2.5536824E2,2.3171753E1,2.210408E1,9.048854E1,9.247055E1,8.930084E0,1.3118927E1,1.07127E1,1.4711236E1,4.8214058E1,3.8945835E1,6.7443886E1,3.578241E1,2.248108E0,2.8695755E0,6.06456E0,5.9231606E0,4.0459366E0,4.9111843E0,6.318125E0,6.6703763E0,2.4368057E1,3.6790653E1,1.6314045E1,2.2550507E1,3.808372E1,4.273262E1,1.768721E1,9.875183E0,0E0,0E0,0E0,0E0,0E0,0E0,0E0,0E0,0E0,0E0,0E0,0E0,0E0,0E0,0E0,0E0,0E0,0E0,0E0,0E0,0E0,0E0,0E0,0E0,0E0,0E0,0E0,0E0,0E0,0E0,0E0,0E0],"parents":[2147483647,0,0,1,1,2,2,3,3,4,4,5,5,6,6,7,7,8,8,9,9,10,10,11,11,12,12,13,13,14,14,15,15,16,16,17,17,18,18,19,19,20,20,21,21,22,22,23,23,24,24,25,25,26,26,27,27,28,28,29,29,30,30],"right_children":[2,4,6,8,10,12,14,16,18,20,22,24,26,28,30,32,34,36,38,40,42,44,46,48,50,52,54,56,58,60,62,-1,-1,-1,-1,-1,-1,-1,-1,-1,-1,-1,-1,-1,-1,-1,-1,-1,-1,-1,-1,-1,-1,-1,-1,-1,-1,-1,-1,-1,-1,-1,-1],"split_conditions":[2.4234703E1,1E0,1E0,5.1E1,1E0,2E0,2E0,1E0,1E0,5.4E1,1E0,1E0,5.1E1,5.4E1,1E0,2.3474014E1,2.1254145E1,1.5363977E1,1E0,2E0,1E0,2E1,2E0,5.1E1,1E0,1E0,1E0,1E0,1E0,1E0,5.1E1,-5.30604E-2,-1.5092892E-2,-3.774206E-2,-1.7651271E-2,-4.082933E-2,-2.5096843E-2,-2.570391E-2,-1.022677E-2,-3.8698953E-2,-2.211227E-2,-9.387088E-3,-2.4230972E-2,-6.666274E-2,-1.5510352E-2,-3.852492E-3,1.6910098E-2,-2.606777E-2,-9.612428E-3,-9.908872E-3,1.0406526E-2,-1.1382962E-2,1.0240206E-2,1.1322944E-2,3.39704E-2,-8.519686E-3,1.4079593E-2,1.3232762E-2,3.635749E-2,1.4445658E-2,3.5703994E-2,3.7534308E-2,5.5882305E-2],"split_indices":[2,7,7,0,4,9,9,6,4,0,8,8,0,0,4,2,2,2,6,9,3,0,9,0,4,6,4,8,4,8,0,0,0,0,0,0,0,0,0,0,0,0,0,0,0,0,0,0,0,0,0,0,0,0,0,0,0,0,0,0,0,0,0],"split_type":[0,0,0,0,0,0,0,0,0,0,0,0,0,0,0,0,0,0,0,0,0,0,0,0,0,0,0,0,0,0,0,0,0,0,0,0,0,0,0,0,0,0,0,0,0,0,0,0,0,0,0,0,0,0,0,0,0,0,0,0,0,0,0],"sum_hessian":[6.5104424E3,1.6271206E3,4.883322E3,8.495185E2,7.776021E2,2.6133862E3,2.2699355E3,3.2734726E2,5.2217126E2,4.1095166E2,3.6665045E2,1.8198297E3,7.9355646E2,1.5530332E3,7.169024E2,1.6979395E2,1.575533E2,2.7047067E2,2.517006E2,1.844842E2,2.2646744E2,1.8925642E2,1.7739401E2,9.287812E2,8.910485E2,3.471316E2,4.4642484E2,7.4374646E2,8.0928674E2,3.9502402E2,3.218784E2,1.6481937E2,4.974586E0,1.3401176E2,2.3541542E1,1.5904707E2,1.114236E2,1.3279878E2,1.18901825E2,1.2511875E2,5.9365456E1,1.0931872E2,1.1714872E2,5.3621044E0,1.8389432E2,1.219073E2,5.5486713E1,3.8533728E2,5.434439E2,4.645367E2,4.265118E2,1.7782507E2,1.6930652E2,2.4729834E2,1.991265E2,3.7064233E2,3.731041E2,4.448968E2,3.6438995E2,1.9593715E2,1.9908687E2,1.4417662E2,1.7770178E2],"tree_param":{"num_deleted":"0","num_feature":"10","num_nodes":"63","size_leaf_vector":"1"}},{"base_weights":[1.4729181E-3,-4.7130424E-1,1.5313402E-1,-6.3563865E-1,-3.046282E-1,-4.034754E-2,3.8384745E-1,-8.050098E-1,-4.6747172E-1,-4.5561412E-1,-1.4179036E-1,-1.5491454E-1,2.2584097E-1,1.8686223E-1,6.2555796E-1,-9.664736E-1,-6.353876E-1,-5.5105644E-1,-2.9688933E-1,-5.508979E-1,-2.6243886E-1,-2.9082346E-1,2.1238036E-2,-2.981522E-1,5.757725E-3,1.306408E-2,4.5574498E-1,6.063006E-2,4.7091338E-1,4.0587655E-1,8.5505325E-1,-2.695098E-2,-5.2564275E-2,-3.935383E-2,-2.3895739E-2,-3.5890277E-2,-1.7959667E-2,-2.4059905E-2,-5.41198E-3,-3.5197902E-2,-1.9438194E-2,-1.4578101E-2,3.540839E-2,-2.0067079E-2,-2.6724727E-3,-7.575594E-3,1.063179E-2,-2.1034881E-2,-8.524732E-3,-8.3791455E-3,9.412549E-3,-9.127235E-3,1.057828E-2,1.1470051E-2,3.684649E-2,-4.556883E-3,1.1033208E-2,1.2006586E-2,3.7161462E-2,1.1815837E-2,3.9355125E-2,3.3854347E-2,5.1862217E-2],"categories":[],"categories_nodes":[],"categories_segments":[],"categories_sizes":[],"default_left":[0,0,0,0,0,0,0,0,0,0,0,0,0,0,0,0,0,0,0,0,0,0,0,0,0,0,0,0,0,0,0,0,0,0,0,0,0,0,0,0,0,0,0,0,0,0,0,0,0,0,0,0,0,0,0,0,0,0,0,0,0,0,0],"id":17,"left_children":[1,3,5,7,9,11,13,15,17,19,21,23,25,27,29,31,33,35,37,39,41,43,45,47,49,51,53,55,57,59,61,-1,-1,-1,-1,-1,-1,-1,-1,-1,-1,-1,-1,-1,-1,-1,-1,-1,-1,-1,-1,-1,-1,-1,-1,-1,-1,-1,-1,-1,-1,-1,-1],"loss_changes":[4.6910886E2,4.3330444E1,2.211323E2,2.2387177E1,1.9378357E1,8.222354E1,1.0746289E2,1.0253235E1,5.5883026E0,7.3999405E0,9.285603E0,4.3376804E1,3.9682552E1,4.4660114E1,5.078067E1,6.73349E0,4.315872E0,8.366859E0,4.6360607E0,6.5155945E0,4.087631E0,5.21471E0,6.093796E0,1.55162735E1,2.8162289E1,1.6439285E1,2.4648285E1,2.1005295E1,2.3910805E1,3.3429848E1,1.5350037E1,0E0,0E0,0E0,0E0,0E0,0E0,0E0,0E0,0E0,0E0,0E0,0E0,0E0,0E0,0E0,0E0,0E0,0E0,0E0,0E0,0E0,0E0,0E0,0E0,0E0,0E0,0E0,0E0,0E0,0E0,0E0,0E0],"parents":[2147483647,0,0,1,1,2,2,3,3,4,4,5,5,6,6,7,7,8,8,9,9,10,10,11,11,12,12,13,13,14,14,15,15,16,16,17,17,18,18,19,19,20,20,21,21,22,22,23,23,24,24,25,25,26,26,27,27,28,28,29,29,30,30],"right_children":[2,4,6,8,10,12,14,16,18,20,22,24,26,28,30,32,34,36,38,40,42,44,46,48,50,52,54,56,58,60,62,-1,-1,-1,-1,-1,-1,-1,-1,-1,-1,-1,-1,-1,-1,-1,-1,-1,-1,-1,-1,-1,-1,-1,-1,-1,-1,-1,-1,-1,-1,-1,-1],"split_conditions":[2.016813E1,1E0,1E0,1E0,1E0,2E0,1E0,1E0,2E0,2E0,1E0,1E0,1E0,2E0,1E0,3.4988065E0,1E0,1E0,1E0,1E0,1.9777464E1,2E0,1E0,1E0,1E0,1E0,1E0,1E0,1E0,2E0,1E0,-2.695098E-2,-5.2564275E-2,-3.935383E-2,-2.3895739E-2,-3.5890277E-2,-1.7959667E-2,-2.4059905E-2,-5.41198E-3,-3.5197902E-2,-1.9438194E-2,-1.4578101E-2,3.540839E-2,-2.0067079E-2,-2.6724727E-3,-7.575594E-3,1.063179E-2,-2.1034881E-2,-8.524732E-3,-8.3791455E-3,9.412549E-3,-9.127235E-3,1.057828E-2,1.1470051E-2,3.684649E-2,-4.556883E-3,1.1033208E-2,1.2006586E-2,3.7161462E-2,1.1815837E-2,3.9355125E-2,3.3854347E-2,5.1862217E-2],"split_indices":[1,4,7,7,7,9,4,6,9,9,6,4,6,9,8,1,8,8,6,8,1,9,8,8,6,8,4,8,6,9,6,0,0,0,0,0,0,0,0,0,0,0,0,0,0,0,0,0,0,0,0,0,0,0,0,0,0,0,0,0,0,0,0],"split_type":[0,0,0,0,0,0,0,0,0,0,0,0,0,0,0,0,0,0,0,0,0,0,0,0,0,0,0,0,0,0,0,0,0,0,0,0,0,0,0,0,0,0,0,0,0,0,0,0,0,0,0,0,0,0,0,0,0,0,0,0,0,0,0],"sum_hessian":[6.5404814E3,1.5880143E3,4.952467E3,7.982074E2,7.8980695E2,2.694023E3,2.2584438E3,3.957932E2,4.0241418E2,4.0888446E2,3.809225E2,1.8837002E3,8.103228E2,1.2453236E3,1.0131203E3,2.0036623E2,1.9542699E2,2.6858038E2,1.3383382E2,2.7258167E2,1.3630281E2,1.9859352E2,1.8232895E2,9.954295E2,8.882707E2,4.2138577E2,3.88937E2,8.630141E2,3.823095E2,5.1904236E2,4.9407794E2,3.439086E1,1.6597536E2,9.750504E1,9.7921936E1,1.4222806E2,1.2635232E2,6.691137E1,6.692244E1,1.3849539E2,1.3408626E2,1.330114E2,3.2914135E0,1.3503316E2,6.356036E1,9.5942505E1,8.638645E1,5.067128E2,4.887167E2,4.5560117E2,4.3266956E2,2.1227985E2,2.0910593E2,2.1648775E2,1.7244928E2,4.4316797E2,4.1984613E2,2.079545E2,1.7435503E2,3.6037598E2,1.5866638E2,2.5232265E2,2.417553E2],"tree_param":{"num_deleted":"0","num_feature":"10","num_nodes":"63","size_leaf_vector":"1"}},{"base_weights":[-8.802433E-3,-4.5794147E-1,1.3694079E-1,-6.471053E-1,-3.2805017E-1,-5.6823578E-2,3.6941186E-1,-8.005242E-1,-4.993419E-1,-4.9480823E-1,-1.5221463E-1,-2.569904E-1,9.4285905E-2,1.7650312E-1,6.103746E-1,-9.851437E-1,-6.1697376E-1,-6.4796305E-1,-3.498275E-1,-6.4700204E-1,-3.3969763E-1,-2.999805E-1,1.04566105E-2,-4.0405717E-1,-1.0628695E-1,-7.39181E-2,2.953959E-1,-2.0213511E-3,3.7004343E-1,3.552031E-1,8.322927E-1,-3.1150544E-2,-5.572645E-2,-3.759784E-2,-2.4023695E-2,-3.4106277E-2,1.7301446E-2,-4.1255802E-2,-1.4000477E-2,-6.052714E-3,-3.4700662E-2,5.157887E-4,-2.1765938E-2,-4.0509447E-2,-1.3486388E-2,-8.159304E-3,9.927022E-3,-2.6855666E-2,-1.36265E-2,-1.2714924E-2,2.7844303E-3,-1.1890668E-2,5.2513336E-3,5.8404687E-3,2.4483567E-2,-9.919204E-3,9.663346E-3,7.056789E-3,2.7667273E-2,7.312794E-3,2.9404594E-2,3.227059E-2,5.1246405E-2],"categories":[],"categories_nodes":[],"categories_segments":[],"categories_sizes":[],"default_left":[0,0,0,0,0,0,0,0,0,0,0,0,0,0,0,0,0,0,0,0,0,0,0,0,0,0,0,0,0,0,0,0,0,0,0,0,0,0,0,0,0,0,0,0,0,0,0,0,0,0,0,0,0,0,0,0,0,0,0,0,0,0,0],"id":18,"left_children":[1,3,5,7,9,11,13,15,17,19,21,23,25,27,29,31,33,35,37,39,41,43,45,47,49,51,53,55,57,59,61,-1,-1,-1,-1,-1,-1,-1,-1,-1,-1,-1,-1,-1,-1,-1,-1,-1,-1,-1,-1,-1,-1,-1,-1,-1,-1,-1,-1,-1,-1,-1,-1],"loss_changes":[4.2789496E2,3.9137512E1,2.2233392E2,1.43573E1,2.7825478E1,8.146931E1,1.0418979E2,1.0158386E1,7.2006607E0,1.1298668E1,1.117094E1,2.5635132E1,5.19498E1,4.3104996E1,5.61734E1,6.64859E0,2.6234283E0,5.8882675E0,5.37027E0,5.978012E0,8.162596E0,3.5397778E0,7.286522E0,1.0109016E1,1.3765073E1,2.4564716E1,2.4206821E1,2.4961554E1,2.5038544E1,2.2570538E1,1.8512512E1,0E0,0E0,0E0,0E0,0E0,0E0,0E0,0E0,0E0,0E0,0E0,0E0,0E0,0E0,0E0,0E0,0E0,0E0,0E0,0E0,0E0,0E0,0E0,0E0,0E0,0E0,0E0,0E0,0E0,0E0,0E0,0E0],"parents":[2147483647,0,0,1,1,2,2,3,3,4,4,5,5,6,6,7,7,8,8,9,9,10,10,11,11,12,12,13,13,14,14,15,15,16,16,17,17,18,18,19,19,20,20,21,21,22,22,23,23,24,24,25,25,26,26,27,27,28,28,29,29,30,30],"right_children":[2,4,6,8,10,12,14,16,18,20,22,24,26,28,30,32,34,36,38,40,42,44,46,48,50,52,54,56,58,60,62,-1,-1,-1,-1,-1,-1,-1,-1,-1,-1,-1,-1,-1,-1,-1,-1,-1,-1,-1,-1,-1,-1,-1,-1,-1,-1,-1,-1,-1,-1,-1,-1],"split_conditions":[2.016813E1,5.1E1,1E0,1E0,1E0,5.1E1,1E0,1E0,1E0,1E0,1E0,1E0,1E0,1E0,5.1E1,2.8E1,1.3430897E1,1.9777464E1,6.432537E0,5.5E1,4.3168297E0,4.2272606E0,1E0,1E0,1E0,1E0,1E0,1E0,5E1,1E0,1E0,-3.1150544E-2,-5.572645E-2,-3.759784E-2,-2.4023695E-2,-3.4106277E-2,1.7301446E-2,-4.1255802E-2,-1.4000477E-2,-6.052714E-3,-3.4700662E-2,5.157887E-4,-2.1765938E-2,-4.0509447E-2,-1.3486388E-2,-8.159304E-3,9.927022E-3,-2.6855666E-2,-1.36265E-2,-1.2714924E-2,2.7844303E-3,-1.1890668E-2,5.2513336E-3,5.8404687E-3,2.4483567E-2,-9.919204E-3,9.663346E-3,7.056789E-3,2.7667273E-2,7.312794E-3,2.9404594E-2,3.227059E-2,5.1246405E-2],"split_indices":[1,0,7,4,7,0,4,6,7,4,6,6,4,6,0,0,2,1,2,0,1,2,8,8,8,8,6,8,0,6,6,0,0,0,0,0,0,0,0,0,0,0,0,0,0,0,0,0,0,0,0,0,0,0,0,0,0,0,0,0,0,0,0],"split_type":[0,0,0,0,0,0,0,0,0,0,0,0,0,0,0,0,0,0,0,0,0,0,0,0,0,0,0,0,0,0,0,0,0,0,0,0,0,0,0,0,0,0,0,0,0,0,0,0,0,0,0,0,0,0,0,0,0,0,0,0,0,0,0],"sum_hessian":[6.5348843E3,1.6004897E3,4.9343945E3,6.499582E2,9.505315E2,2.6916572E3,2.2427375E3,3.1670938E2,3.332488E2,4.8692746E2,4.6360403E2,1.157576E3,1.534081E3,1.2465297E3,9.962079E2,1.557176E2,1.6099179E2,1.6545177E2,1.6779706E2,2.4417389E2,2.4275356E2,2.4248952E2,2.2111453E2,5.850059E2,5.725701E2,8.357285E2,6.983526E2,6.4893335E2,5.9759625E2,4.645954E2,5.316125E2,4.2521248E1,1.1319635E2,7.867863E1,8.231316E1,1.6025763E2,5.194135E0,2.0106073E1,1.4769098E2,2.0327753E1,2.2384613E2,5.2279762E1,1.904738E2,1.2130437E1,2.3035909E2,1.15039856E2,1.0607467E2,2.8927972E2,2.957262E2,2.9888358E2,2.7368658E2,4.3603534E2,3.9969315E2,3.647029E2,3.336497E2,3.2356863E2,3.2536472E2,2.6652707E2,3.310692E2,2.4574323E2,2.1885217E2,2.7204477E2,2.595677E2],"tree_param":{"num_deleted":"0","num_feature":"10","num_nodes":"63","size_leaf_vector":"1"}},{"base_weights":[4.365514E-3,-4.4146487E-1,1.3970247E-1,-6.1260605E-1,-3.250646E-1,-3.8022812E-2,3.5241902E-1,-7.6364046E-1,-4.5555064E-1,-4.6189195E-1,-1.7315899E-1,-1.9221807E-1,1.2144314E-1,1.2180271E-1,5.4398733E-1,-9.286287E-1,-5.887026E-1,-5.9914553E-1,-2.92966E-1,-5.67138E-1,-3.4531975E-1,-3.2633376E-1,-1.183947E-3,-3.6962476E-1,-6.472668E-2,-3.8285866E-2,2.4265097E-1,-5.5581827E-2,3.069177E-1,3.502056E-1,7.502687E-1,-4.7738723E-2,1.0821247E-3,-2.0729525E-2,-3.8121928E-2,-2.6414782E-2,-6.0445614E-2,2.2468972E-3,-1.8445687E-2,-4.4347227E-2,-2.609357E-2,9.207129E-3,-2.0943854E-2,-3.1007746E-2,-1.21814385E-2,1.6618464E-3,-3.6936242E-2,-2.523614E-2,-1.191245E-2,-9.406324E-3,3.3620477E-3,-9.293907E-3,5.708464E-3,5.875492E-3,1.8974556E-2,-1.086923E-2,5.4659E-3,1.0068139E-2,2.6168996E-2,8.769897E-3,2.6785417E-2,4.36636E-3,3.8860153E-2],"categories":[],"categories_nodes":[],"categories_segments":[],"categories_sizes":[],"default_left":[0,0,0,0,0,0,0,0,0,0,0,0,0,0,0,0,0,0,0,0,0,0,0,0,0,0,0,0,1,0,0,0,0,0,0,0,0,0,0,0,0,0,0,0,0,0,0,0,0,0,0,0,0,0,0,0,0,0,0,0,0,0,0],"id":19,"left_children":[1,3,5,7,9,11,13,15,17,19,21,23,25,27,29,31,33,35,37,39,41,43,45,47,49,51,53,55,57,59,61,-1,-1,-1,-1,-1,-1,-1,-1,-1,-1,-1,-1,-1,-1,-1,-1,-1,-1,-1,-1,-1,-1,-1,-1,-1,-1,-1,-1,-1,-1,-1,-1],"loss_changes":[3.901305E2,2.9795807E1,1.8753036E2,1.4083771E1,1.8591202E1,6.6492325E1,9.9684326E1,8.362213E0,6.845459E0,5.595131E0,1.12555895E1,3.1068913E1,2.574908E1,3.3701256E1,4.9027405E1,3.924347E0,4.298374E0,6.218998E0,3.6863146E0,3.1055756E0,8.898798E0,5.340786E0,5.160283E0,1.0078323E1,1.3058261E1,1.2947445E1,1.2902058E1,1.4023197E1,1.1367435E1,2.0584068E1,1.0581299E1,0E0,0E0,0E0,0E0,0E0,0E0,0E0,0E0,0E0,0E0,0E0,0E0,0E0,0E0,0E0,0E0,0E0,0E0,0E0,0E0,0E0,0E0,0E0,0E0,0E0,0E0,0E0,0E0,0E0,0E0,0E0,0E0],"parents":[2147483647,0,0,1,1,2,2,3,3,4,4,5,5,6,6,7,7,8,8,9,9,10,10,11,11,12,12,13,13,14,14,15,15,16,16,17,17,18,18,19,19,20,20,21,21,22,22,23,23,24,24,25,25,26,26,27,27,28,28,29,29,30,30],"right_children":[2,4,6,8,10,12,14,16,18,20,22,24,26,28,30,32,34,36,38,40,42,44,46,48,50,52,54,56,58,60,62,-1,-1,-1,-1,-1,-1,-1,-1,-1,-1,-1,-1,-1,-1,-1,-1,-1,-1,-1,-1,-1,-1,-1,-1,-1,-1,-1,-1,-1,-1,-1,-1],"split_conditions":[2.2331656E1,5.1E1,1E0,1E0,1E0,1E0,5.1E1,1E0,1E0,1E0,1E0,5E1,5.1E1,1E0,1E0,2.1999313E1,1E0,4.8E1,2.4E1,4.7528086E0,2.2936194E0,7.6127057E0,1.7453428E1,1E0,1E0,1E0,1E0,1E0,1E0,1E0,2.016813E1,-4.7738723E-2,1.0821247E-3,-2.0729525E-2,-3.8121928E-2,-2.6414782E-2,-6.0445614E-2,2.2468972E-3,-1.8445687E-2,-4.4347227E-2,-2.609357E-2,9.207129E-3,-2.0943854E-2,-3.1007746E-2,-1.21814385E-2,1.6618464E-3,-3.6936242E-2,-2.523614E-2,-1.191245E-2,-9.406324E-3,3.3620477E-3,-9.293907E-3,5.708464E-3,5.875492E-3,1.8974556E-2,-1.086923E-2,5.4659E-3,1.0068139E-2,2.6168996E-2,8.769897E-3,2.6785417E-2,4.36636E-3,3.8860153E-2],"split_indices":[2,0,7,7,6,8,0,6,8,8,7,0,0,6,6,2,3,0,0,2,1,2,1,6,6,6,6,8,5,8,1,0,0,0,0,0,0,0,0,0,0,0,0,0,0,0,0,0,0,0,0,0,0,0,0,0,0,0,0,0,0,0,0],"split_type":[0,0,0,0,0,0,0,0,0,0,0,0,0,0,0,0,0,0,0,0,0,0,0,0,0,0,0,0,0,0,0,0,0,0,0,0,0,0,0,0,0,0,0,0,0,0,0,0,0,0,0,0,0,0,0,0,0,0,0,0,0,0,0],"sum_hessian":[6.4638003E3,1.5047042E3,4.959096E3,6.073969E2,8.973073E2,2.7022117E3,2.2568845E3,3.076648E2,2.9973212E2,4.7100964E2,4.2629764E2,1.3737052E3,1.3285066E3,1.0248145E3,1.23207E3,1.5611787E2,1.5154694E2,1.5773515E2,1.4199698E2,2.454986E2,2.2551106E2,2.2499843E2,2.0129921E2,5.736128E2,8.000924E2,5.7346814E2,7.5503845E2,5.236919E2,5.0112262E2,6.3667346E2,5.9539655E2,1.5193285E2,4.185022E0,7.738285E1,7.4164085E1,1.4298755E2,1.4747597E1,2.6133417E1,1.1586356E2,2.813467E1,2.1736392E2,2.732483E1,1.9818623E2,4.799412E1,1.770043E2,1.9323587E2,8.063341E0,2.8139908E2,2.922137E2,4.1324826E2,3.8684412E2,2.912698E2,2.8219836E2,3.9534857E2,3.5968988E2,2.6416754E2,2.5952435E2,3.381557E2,1.6296692E2,3.2878754E2,3.0788593E2,2.3411257E1,5.719853E2],"tree_param":{"num_deleted":"0","num_feature":"10","num_nodes":"63","size_leaf_vector":"1"}},{"base_weights":[9.345982E-3,-3.8805476E-1,1.3757034E-1,-4.8393357E-1,-1.9257462E-1,-3.4827713E-2,3.476381E-1,-6.3128257E-1,-3.3848163E-1,-3.0799296E-1,-6.699687E-2,-1.8425459E-1,1.3970287E-1,2.1599264E-1,6.5076333E-1,-7.7881265E-1,-4.8387152E-1,-4.8430017E-1,-1.7716826E-1,4.5942407E-2,-3.8740364E-1,-4.6125028E-1,-4.2592515E-3,-2.688876E-1,1.0334385E-2,-6.2597685E-2,3.5520932E-1,6.178093E-2,4.106358E-1,4.3762967E-1,9.1915995E-1,-4.7388572E-2,-2.9808586E-2,-3.4259215E-2,-1.4402141E-2,-3.5888955E-2,-2.1213204E-2,-1.656887E-2,-8.1007165E-4,-1.412222E-2,1.6138349E-2,-2.7110333E-2,-1.1401688E-2,-5.6712287E-3,-4.95321E-2,1.795031E-2,-2.851819E-3,-1.828344E-2,-8.49216E-3,-7.437417E-3,9.1998605E-3,-8.496745E-3,9.249341E-3,1.052105E-2,3.584673E-2,-3.402533E-3,9.795881E-3,8.618998E-3,3.3601288E-2,1.1324581E-2,3.259202E-2,3.93546E-2,5.246076E-2],"categories":[],"categories_nodes":[],"categories_segments":[],"categories_sizes":[],"default_left":[0,0,0,0,0,0,0,0,0,0,0,0,0,0,0,0,0,0,0,0,0,0,0,0,0,0,0,0,0,0,0,0,0,0,0,0,0,0,0,0,0,0,0,0,0,0,0,0,0,0,0,0,0,0,0,0,0,0,0,0,0,0,0],"id":20,"left_children":[1,3,5,7,9,11,13,15,17,19,21,23,25,27,29,31,33,35,37,39,41,43,45,47,49,51,53,55,57,59,61,-1,-1,-1,-1,-1,-1,-1,-1,-1,-1,-1,-1,-1,-1,-1,-1,-1,-1,-1,-1,-1,-1,-1,-1,-1,-1,-1,-1,-1,-1,-1,-1],"loss_changes":[3.288279E2,2.9411469E1,1.7670093E2,2.2408524E1,7.511839E0,6.99345E1,8.762073E1,1.1001205E1,1.2459614E1,7.6212273E0,6.185928E0,2.379324E1,5.3952076E1,4.6044518E1,3.766272E1,7.4535217E0,1.0223644E1,3.6139069E0,6.319221E0,4.678949E0,5.33004E0,6.2100153E0,4.177696E0,9.588394E0,1.2150613E1,1.7010288E1,3.1226349E1,1.4947445E1,4.21269E1,1.6713509E1,4.2173767E0,0E0,0E0,0E0,0E0,0E0,0E0,0E0,0E0,0E0,0E0,0E0,0E0,0E0,0E0,0E0,0E0,0E0,0E0,0E0,0E0,0E0,0E0,0E0,0E0,0E0,0E0,0E0,0E0,0E0,0E0,0E0,0E0],"parents":[2147483647,0,0,1,1,2,2,3,3,4,4,5,5,6,6,7,7,8,8,9,9,10,10,11,11,12,12,13,13,14,14,15,15,16,16,17,17,18,18,19,19,20,20,21,21,22,22,23,23,24,24,25,25,26,26,27,27,28,28,29,29,30,30],"right_children":[2,4,6,8,10,12,14,16,18,20,22,24,26,28,30,32,34,36,38,40,42,44,46,48,50,52,54,56,58,60,62,-1,-1,-1,-1,-1,-1,-1,-1,-1,-1,-1,-1,-1,-1,-1,-1,-1,-1,-1,-1,-1,-1,-1,-1,-1,-1,-1,-1,-1,-1,-1,-1],"split_conditions":[2.016813E1,2E0,1E0,1E0,1E0,1E0,2E0,1E0,1E0,3.4988065E0,7.6127057E0,2E0,1E0,1E0,1E0,1E0,1E0,3.9134998E0,1E0,1E0,1E0,1.9235338E0,9.89702E0,1E0,1E0,2E0,2E0,1E0,1E0,1E0,1E0,-4.7388572E-2,-2.9808586E-2,-3.4259215E-2,-1.4402141E-2,-3.5888955E-2,-2.1213204E-2,-1.656887E-2,-8.1007165E-4,-1.412222E-2,1.6138349E-2,-2.7110333E-2,-1.1401688E-2,-5.6712287E-3,-4.95321E-2,1.795031E-2,-2.851819E-3,-1.828344E-2,-8.49216E-3,-7.437417E-3,9.1998605E-3,-8.496745E-3,9.249341E-3,1.052105E-2,3.584673E-2,-3.402533E-3,9.795881E-3,8.618998E-3,3.3601288E-2,1.1324581E-2,3.259202E-2,3.93546E-2,5.246076E-2],"split_indices":[1,9,7,7,6,4,9,6,8,1,2,9,8,4,4,4,8,1,6,8,4,1,2,6,6,9,9,6,8,8,8,0,0,0,0,0,0,0,0,0,0,0,0,0,0,0,0,0,0,0,0,0,0,0,0,0,0,0,0,0,0,0,0],"split_type":[0,0,0,0,0,0,0,0,0,0,0,0,0,0,0,0,0,0,0,0,0,0,0,0,0,0,0,0,0,0,0,0,0,0,0,0,0,0,0,0,0,0,0,0,0,0,0,0,0,0,0,0,0,0,0,0,0,0,0,0,0,0,0],"sum_hessian":[6.4510684E3,1.5732207E3,4.8778477E3,1.0545238E3,5.1869684E2,2.679596E3,2.198252E3,5.221865E2,5.323373E2,2.6952457E2,2.491723E2,1.44359E3,1.236006E3,1.5338309E3,6.64421E2,2.5884708E2,2.6333945E2,2.7854526E2,2.5379205E2,4.946761E1,2.2005695E2,3.3335365E1,2.1583693E2,1.0057674E3,4.378226E2,6.379026E2,5.981034E2,8.565342E2,6.772967E2,3.7180298E2,2.9261804E2,1.3228377E2,1.2656331E2,1.2861931E2,1.3472012E2,5.4733242E1,2.2381201E2,1.2907613E2,1.2471593E2,2.2617271E1,2.685034E1,1.1040932E2,1.0964764E2,2.0850342E1,1.2485024E1,2.6643969E1,1.8919296E2,5.0733423E2,4.984332E2,2.2857834E2,2.0924426E2,4.4520367E2,1.9269891E2,4.2826343E2,1.6983997E2,4.355021E2,4.2103204E2,3.5519626E2,3.2210043E2,1.8828052E2,1.8352246E2,1.4868452E2,1.4393352E2],"tree_param":{"num_deleted":"0","num_feature":"10","num_nodes":"63","size_leaf_vector":"1"}},{"base_weights":[-2.7761667E-3,-3.961648E-1,1.2233064E-1,-5.5866766E-1,-2.774414E-1,5.2773454E-3,3.9628527E-1,-6.5634227E-1,-3.5763633E-1,-4.1511548E-1,-1.2875478E-1,-1.3769825E-1,1.8168485E-1,2.0385884E-1,6.3977265E-1,-8.081833E-1,-5.170019E-1,3.618695E-1,-3.8474622E-1,-5.7702106E-1,-2.5743455E-1,-2.7073812E-1,2.9278284E-2,-2.683088E-1,1.0757651E-2,-1.2694339E-2,3.5520682E-1,-3.2307396E-3,3.6812133E-1,3.6950228E-1,8.6793035E-1,-4.8221525E-2,-3.3352382E-2,-5.0728876E-2,-2.439579E-2,3.8174942E-2,-2.175527E-2,-2.6161065E-2,-1.228446E-2,-3.3866134E-2,-1.7953163E-2,1.2125971E-2,-1.5400547E-2,-1.8418562E-2,-2.9069502E-3,-6.966079E-3,9.87511E-3,-2.1180388E-2,-7.815267E-3,-6.3931323E-3,8.0565885E-3,-8.284475E-3,7.4626803E-3,7.8463685E-3,3.126271E-2,-7.3472396E-3,7.7621476E-3,8.439879E-3,2.852949E-2,7.2383448E-3,3.0894494E-2,3.459403E-2,5.4280933E-2],"categories":[],"categories_nodes":[],"categories_segments":[],"categories_sizes":[],"default_left":[0,0,0,0,0,0,0,0,0,0,0,0,0,0,0,0,0,0,0,0,0,0,0,0,0,0,0,0,0,0,0,0,0,0,0,0,0,0,0,0,0,0,0,0,0,0,0,0,0,0,0,0,0,0,0,0,0,0,0,0,0,0,0],"id":21,"left_children":[1,3,5,7,9,11,13,15,17,19,21,23,25,27,29,31,33,35,37,39,41,43,45,47,49,51,53,55,57,59,61,-1,-1,-1,-1,-1,-1,-1,-1,-1,-1,-1,-1,-1,-1,-1,-1,-1,-1,-1,-1,-1,-1,-1,-1,-1,-1,-1,-1,-1,-1,-1,-1],"loss_changes":[3.1703775E2,2.983255E1,1.5672673E2,1.2630447E1,1.8372627E1,8.641974E1,6.8421875E1,8.886276E0,4.3610687E0,1.1771828E1,9.7507515E0,3.669895E1,5.1739517E1,2.7851662E1,3.947751E1,3.9581146E0,2.8639412E0,3.012745E0,3.8972301E0,4.7755814E0,6.101715E0,4.7280674E0,5.881344E0,1.744638E1,1.850416E1,1.797355E1,4.3296417E1,8.293316E0,1.8329765E1,1.6499401E1,1.2632568E1,0E0,0E0,0E0,0E0,0E0,0E0,0E0,0E0,0E0,0E0,0E0,0E0,0E0,0E0,0E0,0E0,0E0,0E0,0E0,0E0,0E0,0E0,0E0,0E0,0E0,0E0,0E0,0E0,0E0,0E0,0E0,0E0],"parents":[2147483647,0,0,1,1,2,2,3,3,4,4,5,5,6,6,7,7,8,8,9,9,10,10,11,11,12,12,13,13,14,14,15,15,16,16,17,17,18,18,19,19,20,20,21,21,22,22,23,23,24,24,25,25,26,26,27,27,28,28,29,29,30,30],"right_children":[2,4,6,8,10,12,14,16,18,20,22,24,26,28,30,32,34,36,38,40,42,44,46,48,50,52,54,56,58,60,62,-1,-1,-1,-1,-1,-1,-1,-1,-1,-1,-1,-1,-1,-1,-1,-1,-1,-1,-1,-1,-1,-1,-1,-1,-1,-1,-1,-1,-1,-1,-1,-1],"split_conditions":[1.9777464E1,5.3E1,2E0,2E0,1E0,1E0,1E0,1E0,1.9E1,1E0,1E0,1E0,5.2E1,5.1E1,5E1,1E0,2E1,1.2105371E1,1E0,2E0,1.9235338E0,2E0,1E0,5.1E1,5.8E1,1E0,1E0,1E0,1E0,1E0,1E0,-4.8221525E-2,-3.3352382E-2,-5.0728876E-2,-2.439579E-2,3.8174942E-2,-2.175527E-2,-2.6161065E-2,-1.228446E-2,-3.3866134E-2,-1.7953163E-2,1.2125971E-2,-1.5400547E-2,-1.8418562E-2,-2.9069502E-3,-6.966079E-3,9.87511E-3,-2.1180388E-2,-7.815267E-3,-6.3931323E-3,8.0565885E-3,-8.284475E-3,7.4626803E-3,7.8463685E-3,3.126271E-2,-7.3472396E-3,7.7621476E-3,8.439879E-3,2.852949E-2,7.2383448E-3,3.0894494E-2,3.459403E-2,5.4280933E-2],"split_indices":[1,0,9,9,7,7,4,7,0,4,8,4,0,0,0,4,0,1,4,9,1,9,4,0,0,8,4,7,8,8,7,0,0,0,0,0,0,0,0,0,0,0,0,0,0,0,0,0,0,0,0,0,0,0,0,0,0,0,0,0,0,0,0],"split_type":[0,0,0,0,0,0,0,0,0,0,0,0,0,0,0,0,0,0,0,0,0,0,0,0,0,0,0,0,0,0,0,0,0,0,0,0,0,0,0,0,0,0,0,0,0,0,0,0,0,0,0,0,0,0,0,0,0,0,0,0,0,0,0],"sum_hessian":[6.4398306E3,1.553332E3,4.8864985E3,6.5419525E2,8.991368E2,3.4243757E3,1.4621227E3,4.38754E2,2.1544125E2,4.6592703E2,4.3320972E2,1.8915349E3,1.5328408E3,8.177208E2,6.444018E2,2.0766197E2,2.3109204E2,7.374379E0,2.0806688E2,2.2857182E2,2.3735522E2,2.2781673E2,2.05393E2,1.00581665E3,8.8571826E2,7.234073E2,8.0943353E2,3.621412E2,4.555796E2,2.9617688E2,3.4822495E2,9.5786354E1,1.1187561E2,1.0891412E1,2.2020064E2,4.9312954E0,2.443084E0,1.02867355E2,1.0519952E2,1.5509251E2,7.347931E1,2.1456812E1,2.158984E2,1.5561847E2,7.219826E1,1.0266768E2,1.0272532E2,4.202855E2,5.855311E2,4.6094876E2,4.2476953E2,3.7197382E2,3.514335E2,4.676486E2,3.417849E2,1.8995273E2,1.7218849E2,2.3049666E2,2.2508295E2,1.563226E2,1.3985426E2,1.9483528E2,1.5338966E2],"tree_param":{"num_deleted":"0","num_feature":"10","num_nodes":"63","size_leaf_vector":"1"}},{"base_weights":[9.641039E-4,-3.7744892E-1,1.22301675E-1,-5.2337843E-1,-2.224993E-1,9.51786E-3,3.8465613E-1,-6.8801165E-1,-4.053261E-1,-3.515259E-1,-7.810788E-2,-1.444248E-1,1.7222546E-1,2.097239E-1,5.78423E-1,-8.1451267E-1,-4.2030686E-1,-5.159335E-1,-2.8164464E-1,-5.4620415E-1,-1.4027593E-1,-2.1540593E-1,7.618595E-2,-3.069526E-1,2.0941699E-2,1.4016534E-2,3.647337E-1,6.046103E-2,3.992021E-1,3.6300924E-1,7.6534677E-1,-4.7472723E-2,-3.2815896E-2,1.9768035E-2,-2.6766032E-2,-2.7585892E-2,1.0704483E-2,-3.2603197E-2,-9.138367E-3,-1.6272198E-2,-3.3422206E-2,-1.3404663E-2,7.6519544E-3,-1.9132724E-2,-3.6192876E-3,-2.5986476E-2,6.477402E-3,-2.1884518E-2,-7.900607E-3,-6.7654843E-3,9.640618E-3,-7.2332034E-3,6.996963E-3,7.133213E-3,3.0020893E-2,-6.849659E-3,1.2628165E-2,6.858176E-3,3.097615E-2,1.0028369E-2,2.6959732E-2,2.8940529E-2,4.950872E-2],"categories":[],"categories_nodes":[],"categories_segments":[],"categories_sizes":[],"default_left":[0,0,0,0,0,0,0,0,0,0,0,0,0,0,0,0,0,0,0,0,0,0,0,0,0,0,0,0,0,0,0,0,0,0,0,0,0,0,0,0,0,0,0,0,0,0,0,0,0,0,0,0,0,0,0,0,0,0,0,0,0,0,0],"id":22,"left_children":[1,3,5,7,9,11,13,15,17,19,21,23,25,27,29,31,33,35,37,39,41,43,45,47,49,51,53,55,57,59,61,-1,-1,-1,-1,-1,-1,-1,-1,-1,-1,-1,-1,-1,-1,-1,-1,-1,-1,-1,-1,-1,-1,-1,-1,-1,-1,-1,-1,-1,-1,-1,-1],"loss_changes":[2.9134677E2,3.471927E1,1.4216254E2,1.5126648E1,1.3925701E1,8.421429E1,4.8840576E1,1.0819092E1,6.203186E0,1.6177616E1,7.530802E0,4.643984E1,4.9776768E1,2.1490013E1,2.7295166E1,4.132065E0,1.0327593E1,6.486473E0,7.985733E0,5.3236504E0,7.197793E0,4.468213E0,5.4019566E0,1.6898209E1,2.304842E1,1.7968174E1,3.8503075E1,1.6219292E1,1.9256351E1,9.05146E0,1.4764984E1,0E0,0E0,0E0,0E0,0E0,0E0,0E0,0E0,0E0,0E0,0E0,0E0,0E0,0E0,0E0,0E0,0E0,0E0,0E0,0E0,0E0,0E0,0E0,0E0,0E0,0E0,0E0,0E0,0E0,0E0,0E0,0E0],"parents":[2147483647,0,0,1,1,2,2,3,3,4,4,5,5,6,6,7,7,8,8,9,9,10,10,11,11,12,12,13,13,14,14,15,15,16,16,17,17,18,18,19,19,20,20,21,21,22,22,23,23,24,24,25,25,26,26,27,27,28,28,29,29,30,30],"right_children":[2,4,6,8,10,12,14,16,18,20,22,24,26,28,30,32,34,36,38,40,42,44,46,48,50,52,54,56,58,60,62,-1,-1,-1,-1,-1,-1,-1,-1,-1,-1,-1,-1,-1,-1,-1,-1,-1,-1,-1,-1,-1,-1,-1,-1,-1,-1,-1,-1,-1,-1,-1,-1],"split_conditions":[2.3125105E1,1E0,2E0,5.3E1,1E0,1E0,1E0,2E0,1E0,6.1E1,1E0,1E0,1E0,1E0,5.1E1,1E0,2.3E1,2.1999313E1,7.6127057E0,1E0,2E0,1E0,2.4E1,1E0,5.8E1,5.1E1,1E0,1E0,5E1,1E0,1E0,-4.7472723E-2,-3.2815896E-2,1.9768035E-2,-2.6766032E-2,-2.7585892E-2,1.0704483E-2,-3.2603197E-2,-9.138367E-3,-1.6272198E-2,-3.3422206E-2,-1.3404663E-2,7.6519544E-3,-1.9132724E-2,-3.6192876E-3,-2.5986476E-2,6.477402E-3,-2.1884518E-2,-7.900607E-3,-6.7654843E-3,9.640618E-3,-7.2332034E-3,6.996963E-3,7.133213E-3,3.0020893E-2,-6.849659E-3,1.2628165E-2,6.858176E-3,3.097615E-2,1.0028369E-2,2.6959732E-2,2.8940529E-2,4.950872E-2],"split_indices":[2,4,9,0,6,6,6,9,6,0,8,8,4,4,0,6,0,2,2,5,9,3,0,4,0,0,8,8,0,8,4,0,0,0,0,0,0,0,0,0,0,0,0,0,0,0,0,0,0,0,0,0,0,0,0,0,0,0,0,0,0,0,0],"split_type":[0,0,0,0,0,0,0,0,0,0,0,0,0,0,0,0,0,0,0,0,0,0,0,0,0,0,0,0,0,0,0,0,0,0,0,0,0,0,0,0,0,0,0,0,0,0,0,0,0,0,0,0,0,0,0,0,0,0,0,0,0,0,0],"sum_hessian":[6.343246E3,1.5396039E3,4.8036426E3,7.916556E2,7.4794836E2,3.3601714E3,1.4434711E3,3.2858704E2,4.630685E2,3.942322E2,3.5371613E2,1.7266484E3,1.6335228E3,7.596992E2,6.837719E2,2.2175604E2,1.0683099E2,2.4278036E2,2.2028815E2,2.0433807E2,1.8989415E2,1.8695686E2,1.6675926E2,8.703666E2,8.562819E2,8.972276E2,7.362952E2,4.256832E2,3.34016E2,3.1904337E2,3.6472852E2,1.1697408E2,1.0478196E2,1.2900966E1,9.393003E1,2.3166867E2,1.1111697E1,4.5234318E1,1.7505383E2,7.4128136E1,1.3020995E2,1.323195E2,5.7574642E1,8.540651E1,1.0155035E2,1.2987138E1,1.5377213E2,4.6247452E2,4.0789203E2,4.4863275E2,4.0764917E2,3.9691245E2,5.0031512E2,3.799238E2,3.5637146E2,2.1005893E2,2.1562427E2,1.5330513E2,1.8071086E2,1.6710864E2,1.5193474E2,2.0129305E2,1.6343547E2],"tree_param":{"num_deleted":"0","num_feature":"10","num_nodes":"63","size_leaf_vector":"1"}},{"base_weights":[1.4917367E-2,-3.5748047E-1,1.3645142E-1,-4.859798E-1,-2.3076083E-1,3.231884E-2,3.8660955E-1,-6.3557386E-1,-3.8946378E-1,-4.1847822E-1,-1.2797594E-1,-9.4262786E-2,1.8380891E-1,2.1593642E-1,6.0498995E-1,-7.884477E-1,-4.838493E-1,-4.6621847E-1,-2.3197366E-1,-5.122586E-1,-2.1990985E-1,-2.6227418E-1,2.2572437E-2,-2.3246136E-1,1.2649729E-2,2.6347645E-2,3.5831544E-1,6.2354613E-2,3.9707273E-1,3.6567232E-1,8.177429E-1,-2.3464547E-2,-4.518495E-2,-3.204977E-2,-1.6018556E-2,-4.5567494E-2,-2.1348933E-2,-1.9356959E-2,-3.0213192E-3,-2.0683056E-2,-4.5503072E-2,-1.7824406E-2,8.8100147E-4,-1.8203074E-2,-2.8908325E-3,-7.0427507E-3,6.568095E-3,-8.206177E-3,-1.8698595E-2,-5.6565064E-3,7.351567E-3,-9.078781E-3,7.169021E-3,8.278038E-3,2.8960738E-2,-4.396563E-3,1.3840507E-2,1.0061239E-2,2.8447239E-2,9.079078E-3,2.8616577E-2,3.29816E-2,4.972771E-2],"categories":[],"categories_nodes":[],"categories_segments":[],"categories_sizes":[],"default_left":[0,0,0,0,0,0,0,0,0,0,0,0,0,0,0,0,0,0,0,0,0,0,0,0,0,0,0,0,0,0,0,0,0,0,0,0,0,0,0,0,0,0,0,0,0,0,0,0,0,0,0,0,0,0,0,0,0,0,0,0,0,0,0],"id":23,"left_children":[1,3,5,7,9,11,13,15,17,19,21,23,25,27,29,31,33,35,37,39,41,43,45,47,49,51,53,55,57,59,61,-1,-1,-1,-1,-1,-1,-1,-1,-1,-1,-1,-1,-1,-1,-1,-1,-1,-1,-1,-1,-1,-1,-1,-1,-1,-1,-1,-1,-1,-1,-1,-1],"loss_changes":[2.8726587E2,2.5318512E1,1.2464322E2,1.0935272E1,1.5154896E1,6.483013E1,5.2288284E1,6.627037E0,5.6139603E0,5.0725594E0,1.03330345E1,2.7218754E1,4.2276985E1,2.1979855E1,3.1086166E1,5.0537415E0,3.757042E0,5.1525726E0,4.1582737E0,7.012039E0,2.960835E0,5.5987663E0,4.3164506E0,7.708832E0,1.7586855E1,1.9737595E1,3.0981552E1,1.3858478E1,1.2095928E1,1.1001381E1,8.443863E0,0E0,0E0,0E0,0E0,0E0,0E0,0E0,0E0,0E0,0E0,0E0,0E0,0E0,0E0,0E0,0E0,0E0,0E0,0E0,0E0,0E0,0E0,0E0,0E0,0E0,0E0,0E0,0E0,0E0,0E0,0E0,0E0],"parents":[2147483647,0,0,1,1,2,2,3,3,4,4,5,5,6,6,7,7,8,8,9,9,10,10,11,11,12,12,13,13,14,14,15,15,16,16,17,17,18,18,19,19,20,20,21,21,22,22,23,23,24,24,25,25,26,26,27,27,28,28,29,29,30,30],"right_children":[2,4,6,8,10,12,14,16,18,20,22,24,26,28,30,32,34,36,38,40,42,44,46,48,50,52,54,56,58,60,62,-1,-1,-1,-1,-1,-1,-1,-1,-1,-1,-1,-1,-1,-1,-1,-1,-1,-1,-1,-1,-1,-1,-1,-1,-1,-1,-1,-1,-1,-1,-1,-1],"split_conditions":[2.016813E1,1E0,2E0,5.1E1,4.7E1,1E0,1E0,1E0,2E0,2E0,1E0,5.2E1,1E0,1E0,5E1,2.8E1,1.3430897E1,3.6024537E0,1E0,4.2E1,1.7770803E1,2E0,1.2194552E1,2.00001E0,1E0,4.5E1,5.8E1,6.4E1,5.1E1,1E0,1E0,-2.3464547E-2,-4.518495E-2,-3.204977E-2,-1.6018556E-2,-4.5567494E-2,-2.1348933E-2,-1.9356959E-2,-3.0213192E-3,-2.0683056E-2,-4.5503072E-2,-1.7824406E-2,8.8100147E-4,-1.8203074E-2,-2.8908325E-3,-7.0427507E-3,6.568095E-3,-8.206177E-3,-1.8698595E-2,-5.6565064E-3,7.351567E-3,-9.078781E-3,7.169021E-3,8.278038E-3,2.8960738E-2,-4.396563E-3,1.3840507E-2,1.0061239E-2,2.8447239E-2,9.079078E-3,2.8616577E-2,3.29816E-2,4.972771E-2],"split_indices":[1,4,9,0,0,4,4,6,9,9,6,0,6,6,0,0,2,2,6,0,2,9,2,5,6,0,0,0,0,6,6,0,0,0,0,0,0,0,0,0,0,0,0,0,0,0,0,0,0,0,0,0,0,0,0,0,0,0,0,0,0,0,0],"split_type":[0,0,0,0,0,0,0,0,0,0,0,0,0,0,0,0,0,0,0,0,0,0,0,0,0,0,0,0,0,0,0,0,0,0,0,0,0,0,0,0,0,0,0,0,0,0,0,0,0,0,0,0,0,0,0,0,0,0,0,0,0,0,0],"sum_hessian":[6.345074E3,1.5607549E3,4.7843193E3,7.7352814E2,7.8722675E2,3.378917E3,1.4054023E3,3.0116113E2,4.72367E2,2.7744815E2,5.097786E2,1.8409985E3,1.5379185E3,7.899855E2,6.1541693E2,1.4792206E2,1.5323909E2,3.1626913E2,1.5609787E2,1.8737465E2,9.00735E1,2.690382E2,2.4074042E2,8.024942E2,1.0385043E3,8.0904736E2,7.288711E2,4.2823657E2,3.6174893E2,2.9090634E2,3.2451056E2,4.0590305E1,1.0733175E2,7.664338E1,7.659571E1,2.3821056E1,2.9244806E2,8.130251E1,7.479535E1,1.5179208E2,3.558257E1,5.6871765E1,3.3201736E1,1.7909618E2,8.9942024E1,9.609232E1,1.4464809E2,5.426157E2,2.5987848E2,5.3650195E2,5.0200235E2,2.911794E2,5.178679E2,3.9016568E2,3.387054E2,2.521354E2,1.7610115E2,1.7009578E2,1.9165314E2,1.5484766E2,1.3605869E2,1.7381229E2,1.5069827E2],"tree_param":{"num_deleted":"0","num_feature":"10","num_nodes":"63","size_leaf_vector":"1"}},{"base_weights":[1.0528284E-3,-3.388766E-1,1.12115055E-1,-4.417693E-1,-1.3022089E-1,-4.7394402E-2,3.0978715E-1,-5.822398E-1,-3.0140147E-1,-2.515653E-1,-3.5897065E-3,-1.7537911E-1,1.03579186E-1,1.8817478E-1,6.0219634E-1,-7.1684486E-1,-4.5044237E-1,-4.332383E-1,-1.6223976E-1,-3.6793935E-1,-1.3018405E-1,-1.2547359E-1,1.3511622E-1,-2.8072083E-1,-6.8571806E-2,-6.521215E-3,3.871197E-1,2.6301093E-2,3.651372E-1,4.1601068E-1,8.5301155E-1,-4.2988863E-2,-2.8954167E-2,-3.0201921E-2,-1.499826E-2,-2.7013669E-2,-1.5659897E-2,-1.5542659E-2,-4.301203E-4,4.9377913E-3,-2.4602959E-2,-2.1229012E-2,-2.742794E-3,1.998472E-2,-9.476919E-3,1.2187872E-2,-8.6144535E-3,-1.9995028E-2,-7.894578E-3,-7.872041E-3,5.1078903E-3,-6.937065E-3,6.9195754E-3,8.719295E-3,3.150252E-2,-6.17741E-3,9.560424E-3,9.598002E-3,2.9928854E-2,1.0961983E-2,3.2898862E-2,3.4807272E-2,5.0611176E-2],"categories":[],"categories_nodes":[],"categories_segments":[],"categories_sizes":[],"default_left":[0,0,0,0,0,0,0,0,0,0,0,0,0,0,0,0,0,0,0,0,0,0,0,0,1,0,0,0,0,0,0,0,0,0,0,0,0,0,0,0,0,0,0,0,0,0,0,0,0,0,0,0,0,0,0,0,0,0,0,0,0,0,0],"id":24,"left_children":[1,3,5,7,9,11,13,15,17,19,21,23,25,27,29,31,33,35,37,39,41,43,45,47,49,51,53,55,57,59,61,-1,-1,-1,-1,-1,-1,-1,-1,-1,-1,-1,-1,-1,-1,-1,-1,-1,-1,-1,-1,-1,-1,-1,-1,-1,-1,-1,-1,-1,-1,-1,-1],"loss_changes":[2.3887575E2,3.339508E1,1.5038716E2,2.0392838E1,7.928301E0,5.103278E1,7.562747E1,8.907684E0,9.540371E0,3.6741734E0,4.3030562E0,1.6061691E1,3.783665E1,4.312304E1,2.8839584E1,4.537445E0,5.9572525E0,3.2793312E0,5.852468E0,7.809305E0,2.8712022E0,4.633419E0,4.0182686E0,1.0465672E1,1.0804005E1,1.6764292E1,1.7409096E1,1.9483034E1,2.896241E1,1.7032627E1,5.923828E0,0E0,0E0,0E0,0E0,0E0,0E0,0E0,0E0,0E0,0E0,0E0,0E0,0E0,0E0,0E0,0E0,0E0,0E0,0E0,0E0,0E0,0E0,0E0,0E0,0E0,0E0,0E0,0E0,0E0,0E0,0E0,0E0],"parents":[2147483647,0,0,1,1,2,2,3,3,4,4,5,5,6,6,7,7,8,8,9,9,10,10,11,11,12,12,13,13,14,14,15,15,16,16,17,17,18,18,19,19,20,20,21,21,22,22,23,23,24,24,25,25,26,26,27,27,28,28,29,29,30,30],"right_children":[2,4,6,8,10,12,14,16,18,20,22,24,26,28,30,32,34,36,38,40,42,44,46,48,50,52,54,56,58,60,62,-1,-1,-1,-1,-1,-1,-1,-1,-1,-1,-1,-1,-1,-1,-1,-1,-1,-1,-1,-1,-1,-1,-1,-1,-1,-1,-1,-1,-1,-1,-1,-1],"split_conditions":[2.016813E1,2E0,1E0,1E0,1E0,1E0,2E0,1E0,1E0,1E0,1E0,1E0,2E0,1E0,1E0,1E0,1E0,1E0,1E0,3.9134998E0,8.364033E0,1.9235338E0,1.5137203E1,1E0,1E0,1E0,1E0,1E0,1E0,1E0,1E0,-4.2988863E-2,-2.8954167E-2,-3.0201921E-2,-1.499826E-2,-2.7013669E-2,-1.5659897E-2,-1.5542659E-2,-4.301203E-4,4.9377913E-3,-2.4602959E-2,-2.1229012E-2,-2.742794E-3,1.998472E-2,-9.476919E-3,1.2187872E-2,-8.6144535E-3,-1.9995028E-2,-7.894578E-3,-7.872041E-3,5.1078903E-3,-6.937065E-3,6.9195754E-3,8.719295E-3,3.150252E-2,-6.17741E-3,9.560424E-3,9.598002E-3,2.9928854E-2,1.0961983E-2,3.2898862E-2,3.4807272E-2,5.0611176E-2],"split_indices":[1,9,7,7,4,4,9,6,4,6,6,8,9,6,4,4,8,8,8,1,2,1,1,6,5,6,8,8,4,6,8,0,0,0,0,0,0,0,0,0,0,0,0,0,0,0,0,0,0,0,0,0,0,0,0,0,0,0,0,0,0,0,0],"split_type":[0,0,0,0,0,0,0,0,0,0,0,0,0,0,0,0,0,0,0,0,0,0,0,0,0,0,0,0,0,0,0,0,0,0,0,0,0,0,0,0,0,0,0,0,0,0,0,0,0,0,0,0,0,0,0,0,0,0,0,0,0,0,0],"sum_hessian":[6.325272E3,1.5571707E3,4.768101E3,1.0421476E3,5.150231E2,2.6391924E3,2.128909E3,5.193099E2,5.228377E2,2.6249777E2,2.525253E2,1.4282562E3,1.210936E3,1.504736E3,6.241729E2,2.5472238E2,2.6458752E2,2.6739963E2,2.554381E2,1.3297601E2,1.2952174E2,1.3446416E2,1.1806114E2,7.182417E2,7.100145E2,8.72944E2,3.379921E2,7.8647156E2,7.182644E2,3.5976788E2,2.6440503E2,1.2244274E2,1.3227965E2,1.2944519E2,1.3514232E2,1.3950656E2,1.2789305E2,1.2932181E2,1.2611629E2,2.7978851E1,1.0499716E2,2.5444317E1,1.0407743E2,1.4050117E1,1.2041404E2,8.73851E1,3.0676035E1,3.6339157E2,3.5485016E2,4.6700473E2,2.4300978E2,4.564846E2,4.1645935E2,1.8111122E2,1.5688086E2,4.1217975E2,3.7429184E2,4.1340366E2,3.0486075E2,1.9946548E2,1.603024E2,1.3588983E2,1.2851521E2],"tree_param":{"num_deleted":"0","num_feature":"10","num_nodes":"63","size_leaf_vector":"1"}},{"base_weights":[-2.861043E-3,-3.3121437E-1,1.0581391E-1,-4.5813826E-1,-2.053696E-1,-4.4549275E-2,2.9222748E-1,-5.4508406E-1,-2.8591314E-1,-2.9639414E-1,-1.3008983E-2,-1.7778634E-1,9.58877E-2,1.783228E-1,5.716219E-1,-6.798442E-1,-4.1174728E-1,-3.8687354E-1,-6.1120022E-2,-4.046602E-1,-1.787767E-1,