{"learner":{"attributes":{"scikit_learn":"{\"_estimator_type\": \"classifier\"}"},"feature_names":["age","pack_years","gender","copd_diagnosis","alcohol_consumption","family_history","asbestos_exposure","secondhand_smoke_exposure","radon_exposure"],"feature_types":["int","float","int","int","float","int","int","int","int"],"gradient_booster":{"model":{"gbtree_model_param":{"num_parallel_tree":"1","num_trees":"202"},"iteration_indptr":[0,1,2,3,4,5,6,7,8,9,10,11,12,13,14,15,16,17,18,19,20,21,22,23,24,25,26,27,28,29,30,31,32,33,34,35,36,37,38,39,40,41,42,43,44,45,46,47,48,49,50,51,52,53,54,55,56,57,58,59,60,61,62,63,64,65,66,67,68,69,70,71,72,73,74,75,76,77,78,79,80,81,82,83,84,85,86,87,88,89,90,91,92,93,94,95,96,97,98,99,100,101,102,103,104,105,106,107,108,109,110,111,112,113,114,115,116,117,118,119,120,121,122,123,124,125,126,127,128,129,130,131,132,133,134,135,136,137,138,139,140,141,142,143,144,145,146,147,148,149,150,151,152,153,154,155,156,157,158,159,160,161,162,163,164,165,166,167,168,169,170,171,172,173,174,175,176,177,178,179,180,181,182,183,184,185,186,187,188,189,190,191,192,193,194,195,196,197,198,199,200,201,202],"tree_info":[0,0,0,0,0,0,0,0,0,0,0,0,0,0,0,0,0,0,0,0,0,0,0,0,0,0,0,0,0,0,0,0,0,0,0,0,0,0,0,0,0,0,0,0,0,0,0,0,0,0,0,0,0,0,0,0,0,0,0,0,0,0,0,0,0,0,0,0,0,0,0,0,0,0,0,0,0,0,0,0,0,0,0,0,0,0,0,0,0,0,0,0,0,0,0,0,0,0,0,0,0,0,0,0,0,0,0,0,0,0,0,0,0,0,0,0,0,0,0,0,0,0,0,0,0,0,0,0,0,0,0,0,0,0,0,0,0,0,0,0,0,0,0,0,0,0,0,0,0,0,0,0,0,0,0,0,0,0,0,0,0,0,0,0,0,0,0,0,0,0,0,0,0,0,0,0,0,0,0,0,0,0,0,0,0,0,0,0,0,0,0,0,0,0,0,0,0,0,0,0,0,0],"trees":[{"base_weights":[5.143275E-3,-1.0302466E0,3.5088283E-1,-1.2927489E0,-8.3241826E-1,-3.2903247E-3,7.668503E-1,-1.493039E0,-1.0731921E0,-1.0841258E0,-5.4679304E-1,-3.398601E-1,3.685204E-1,3.289792E-1,1.103781E0,-1.6023599E0,-1.25193E0,-1.2371746E0,-6.638273E-1,-1.2897501E0,-8.495228E-1,-7.2417486E-1,-1.5049E-1,-5.2554995E-1,8.999788E-2,-7.972004E-2,7.086803E-1,9.920922E-2,8.30888E-1,7.078184E-1,1.553476E0,-8.7635905E-2,-7.175349E-2,2.1313746E-3,-6.374479E-2,-7.099306E-2,-5.1416226E-2,-4.7395624E-2,-1.6643176E-2,-7.029112E-2,-5.0418574E-2,-4.9502052E-2,-3.420901E-2,-4.671448E-2,-2.4340263E-2,-2.0081585E-2,7.4552805E-3,-4.1041862E-2,-1.5562864E-2,-1.3741955E-2,1.9652648E-2,-1.4232852E-2,1.9547785E-2,2.140651E-2,6.853735E-2,-9.0786135E-3,2.0941216E-2,2.2570722E-2,6.329951E-2,2.2483936E-2,6.344364E-2,6.391656E-2,9.168708E-2],"categories":[],"categories_nodes":[],"categories_segments":[],"categories_sizes":[],"default_left":[0,0,0,0,0,0,0,0,0,0,0,0,0,0,0,0,0,0,0,0,0,0,0,0,0,0,0,0,0,0,0,0,0,0,0,0,0,0,0,0,0,0,0,0,0,0,0,0,0,0,0,0,0,0,0,0,0,0,0,0,0,0,0],"id":0,"left_children":[1,3,5,7,9,11,13,15,17,19,21,23,25,27,29,31,33,35,37,39,41,43,45,47,49,51,53,55,57,59,61,-1,-1,-1,-1,-1,-1,-1,-1,-1,-1,-1,-1,-1,-1,-1,-1,-1,-1,-1,-1,-1,-1,-1,-1,-1,-1,-1,-1,-1,-1,-1,-1],"loss_changes":[2.859798E3,1.027771E2,8.823225E2,3.6112183E1,8.159772E1,4.0504706E2,4.0597205E2,9.748047E0,2.6882324E1,2.8170166E1,3.7678772E1,1.356523E2,2.3454E2,1.3820467E2,2.7598132E2,5.112549E0,4.3262787E0,9.738251E0,1.0985161E1,9.078613E0,5.9743958E0,1.8052505E1,1.2660472E1,7.4825714E1,5.686669E1,6.420045E1,1.6183511E2,7.39962E1,6.158014E1,1.1953992E2,5.37771E1,0E0,0E0,0E0,0E0,0E0,0E0,0E0,0E0,0E0,0E0,0E0,0E0,0E0,0E0,0E0,0E0,0E0,0E0,0E0,0E0,0E0,0E0,0E0,0E0,0E0,0E0,0E0,0E0,0E0,0E0,0E0,0E0],"parents":[2147483647,0,0,1,1,2,2,3,3,4,4,5,5,6,6,7,7,8,8,9,9,10,10,11,11,12,12,13,13,14,14,15,15,16,16,17,17,18,18,19,19,20,20,21,21,22,22,23,23,24,24,25,25,26,26,27,27,28,28,29,29,30,30],"right_children":[2,4,6,8,10,12,14,16,18,20,22,24,26,28,30,32,34,36,38,40,42,44,46,48,50,52,54,56,58,60,62,-1,-1,-1,-1,-1,-1,-1,-1,-1,-1,-1,-1,-1,-1,-1,-1,-1,-1,-1,-1,-1,-1,-1,-1,-1,-1,-1,-1,-1,-1,-1,-1],"split_conditions":[2.004412E1,5.1E1,1E0,1E0,1E0,1E0,5.1E1,2E0,2E0,1E0,2E0,2E0,5.1E1,2E0,1E0,1E0,1.9E1,1E0,1E0,2E0,1E0,1E0,1E0,5.1E1,5.3E1,2E0,2E0,1E0,1E0,2E0,1E0,-8.7635905E-2,-7.175349E-2,2.1313746E-3,-6.374479E-2,-7.099306E-2,-5.1416226E-2,-4.7395624E-2,-1.6643176E-2,-7.029112E-2,-5.0418574E-2,-4.9502052E-2,-3.420901E-2,-4.671448E-2,-2.4340263E-2,-2.0081585E-2,7.4552805E-3,-4.1041862E-2,-1.5562864E-2,-1.3741955E-2,1.9652648E-2,-1.4232852E-2,1.9547785E-2,2.140651E-2,6.853735E-2,-9.0786135E-3,2.0941216E-2,2.2570722E-2,6.329951E-2,2.2483936E-2,6.344364E-2,6.391656E-2,9.168708E-2],"split_indices":[1,0,6,6,3,3,0,8,8,6,8,8,0,8,3,5,0,3,3,8,5,6,6,0,0,8,8,3,3,8,7,0,0,0,0,0,0,0,0,0,0,0,0,0,0,0,0,0,0,0,0,0,0,0,0,0,0,0,0,0,0,0,0],"split_type":[0,0,0,0,0,0,0,0,0,0,0,0,0,0,0,0,0,0,0,0,0,0,0,0,0,0,0,0,0,0,0,0,0,0,0,0,0,0,0,0,0,0,0,0,0,0,0,0,0,0,0,0,0,0,0,0,0,0,0,0,0,0,0],"sum_hessian":[7.986806E3,1.9988499E3,5.987956E3,8.566324E2,1.1422174E3,3.234744E3,2.7532124E3,4.449383E2,4.116941E2,6.056725E2,5.36545E2,1.697879E3,1.5368647E3,1.1981226E3,1.5550897E3,3.022498E2,1.4268852E2,2.9250204E2,1.1919207E2,3.2037402E2,2.852985E2,3.7007516E2,1.664698E2,1.1855312E3,5.1234784E2,6.634195E2,8.7344525E2,8.226962E2,3.7542633E2,8.283183E2,7.267715E2,1.5418942E2,1.4806038E2,2.4722805E0,1.4021623E2,1.5293092E2,1.395711E2,6.3135323E1,5.6056747E1,2.239823E2,9.639172E1,1.515307E2,1.3376778E2,1.9475024E2,1.7532492E2,9.037264E1,7.609716E1,4.9735886E2,6.8817236E2,2.3251935E2,2.798285E2,4.6245645E2,2.0096303E2,6.146392E2,2.5880606E2,4.38184E2,3.845122E2,2.0162071E2,1.7380563E2,5.6853723E2,2.5978107E2,3.6954236E2,3.572291E2],"tree_param":{"num_deleted":"0","num_feature":"9","num_nodes":"63","size_leaf_vector":"1"}},{"base_weights":[-1.333271E-4,-9.777637E-1,3.2698557E-1,-1.252032E0,-7.7206945E-1,-6.4303568E-3,7.1431696E-1,-1.4278506E0,-1.0612007E0,-9.8209304E-1,-5.2714616E-1,-3.552697E-1,2.5350222E-1,2.9821137E-1,1.0431275E0,-1.5775943E0,-1.2564799E0,-1.1949568E0,-7.311752E-1,-1.1176889E0,-6.75922E-1,-7.005265E-1,-3.2815924E-1,-5.231026E-1,2.6020687E-2,3.745849E-2,7.4650073E-1,9.344543E-2,7.43312E-1,8.348634E-1,1.5027157E0,-8.369365E-2,-6.774489E-2,-6.818167E-2,-4.825681E-2,-5.2471757E-2,-6.386E-2,-4.2162385E-2,-2.048076E-2,-6.219692E-2,-4.8591476E-2,2.3057435E-3,-3.7481E-2,-4.0633187E-2,-2.2871427E-2,-2.6115743E-2,-4.901768E-3,-3.6124047E-2,-1.5522832E-2,-1.4498191E-2,1.9133741E-2,-8.00824E-3,1.2172771E-2,2.172559E-2,5.6379505E-2,-7.8067766E-3,1.7637186E-2,2.072019E-2,5.4965194E-2,2.8230071E-2,5.7077218E-2,6.3090116E-2,8.786776E-2],"categories":[],"categories_nodes":[],"categories_segments":[],"categories_sizes":[],"default_left":[0,0,0,0,0,0,0,0,0,0,0,0,0,0,0,0,0,0,0,0,0,0,0,0,0,0,0,0,0,0,0,0,0,0,0,0,0,0,0,0,0,0,0,0,0,0,0,0,0,0,0,0,0,0,0,0,0,0,0,0,0,0,0],"id":1,"left_children":[1,3,5,7,9,11,13,15,17,19,21,23,25,27,29,31,33,35,37,39,41,43,45,47,49,51,53,55,57,59,61,-1,-1,-1,-1,-1,-1,-1,-1,-1,-1,-1,-1,-1,-1,-1,-1,-1,-1,-1,-1,-1,-1,-1,-1,-1,-1,-1,-1,-1,-1,-1,-1],"loss_changes":[2.554776E3,1.1202551E2,7.730217E2,2.7230103E1,5.8489624E1,2.9185944E2,3.7854504E2,9.386414E0,1.7433502E1,2.4834595E1,1.811464E1,8.796126E1,1.9642075E2,1.1145661E2,1.4675574E2,2.7173462E0,5.286743E0,2.1728516E0,4.057892E0,6.6296997E0,1.0236908E1,7.350052E0,1.1094561E1,4.023642E1,4.7556496E1,5.2289505E1,6.632236E1,5.4367348E1,4.4672516E1,8.774194E1,2.7287964E1,0E0,0E0,0E0,0E0,0E0,0E0,0E0,0E0,0E0,0E0,0E0,0E0,0E0,0E0,0E0,0E0,0E0,0E0,0E0,0E0,0E0,0E0,0E0,0E0,0E0,0E0,0E0,0E0,0E0,0E0,0E0,0E0],"parents":[2147483647,0,0,1,1,2,2,3,3,4,4,5,5,6,6,7,7,8,8,9,9,10,10,11,11,12,12,13,13,14,14,15,15,16,16,17,17,18,18,19,19,20,20,21,21,22,22,23,23,24,24,25,25,26,26,27,27,28,28,29,29,30,30],"right_children":[2,4,6,8,10,12,14,16,18,20,22,24,26,28,30,32,34,36,38,40,42,44,46,48,50,52,54,56,58,60,62,-1,-1,-1,-1,-1,-1,-1,-1,-1,-1,-1,-1,-1,-1,-1,-1,-1,-1,-1,-1,-1,-1,-1,-1,-1,-1,-1,-1,-1,-1,-1,-1],"split_conditions":[2.004412E1,5.1E1,1E0,1E0,1E0,5.1E1,5.1E1,1E0,2E0,2E0,1E0,2E0,2E0,2E0,2E0,2E0,2E0,3.1E1,4.2E1,1E0,2.147766E0,2E0,1E0,1E0,1E0,1E0,1E0,1E0,1E0,1E0,1E0,-8.369365E-2,-6.774489E-2,-6.818167E-2,-4.825681E-2,-5.2471757E-2,-6.386E-2,-4.2162385E-2,-2.048076E-2,-6.219692E-2,-4.8591476E-2,2.3057435E-3,-3.7481E-2,-4.0633187E-2,-2.2871427E-2,-2.6115743E-2,-4.901768E-3,-3.6124047E-2,-1.5522832E-2,-1.4498191E-2,1.9133741E-2,-8.00824E-3,1.2172771E-2,2.172559E-2,5.6379505E-2,-7.8067766E-3,1.7637186E-2,2.072019E-2,5.4965194E-2,2.8230071E-2,5.7077218E-2,6.3090116E-2,8.786776E-2],"split_indices":[1,0,6,6,6,0,0,5,8,8,5,8,8,8,8,8,8,0,0,5,1,8,7,7,5,5,5,5,5,5,5,0,0,0,0,0,0,0,0,0,0,0,0,0,0,0,0,0,0,0,0,0,0,0,0,0,0,0,0,0,0,0,0],"split_type":[0,0,0,0,0,0,0,0,0,0,0,0,0,0,0,0,0,0,0,0,0,0,0,0,0,0,0,0,0,0,0,0,0,0,0,0,0,0,0,0,0,0,0,0,0,0,0,0,0,0,0,0,0,0,0,0,0,0,0,0,0,0,0],"sum_hessian":[7.9866333E3,2.001862E3,5.9847715E3,8.557441E2,1.146118E3,3.2167593E3,2.7680122E3,4.420178E2,4.1372626E2,6.15399E2,5.3071906E2,1.3733308E3,1.8434286E3,1.2226593E3,1.5453528E3,2.3151463E2,2.1050314E2,2.9254144E2,1.2118482E2,4.2467163E2,1.9072739E2,2.8226065E2,2.484584E2,9.5333057E2,4.200002E2,1.2824877E3,5.609408E2,8.3824133E2,3.8441803E2,1.0653857E3,4.79967E2,1.5708531E2,7.442933E1,1.5120927E2,5.929387E1,1.10601974E2,1.8193947E2,8.866149E1,3.252333E1,2.2360252E2,2.010691E2,1.7699133E1,1.7302824E2,1.9155594E2,9.0704704E1,1.3407205E2,1.14386345E2,4.90777E2,4.6255356E2,2.2279645E2,1.9720375E2,6.546609E2,6.2782684E2,3.0961026E2,2.5133055E2,4.2732672E2,4.1091458E2,2.009345E2,1.8348352E2,5.6782874E2,4.97557E2,2.496908E2,2.302762E2],"tree_param":{"num_deleted":"0","num_feature":"9","num_nodes":"63","size_leaf_vector":"1"}},{"base_weights":[-4.021906E-3,-9.302974E-1,3.0321646E-1,-1.1396263E0,-6.992757E-1,-2.5315454E-2,6.7599887E-1,-1.3328209E0,-9.9862605E-1,-9.7190744E-1,-4.801307E-1,-3.479269E-1,2.2198653E-1,3.0125692E-1,9.6093976E-1,-1.4838442E0,-1.1623713E0,-1.1214211E0,-8.560352E-1,-1.0837725E0,-8.4838E-1,-6.696697E-1,-2.5562793E-1,-5.5372953E-1,-1.2732722E-1,-2.5771882E-3,4.6460778E-1,5.1626183E-2,5.72753E-1,7.0296854E-1,1.2318777E0,-7.977503E-2,-6.766708E-2,-5.9859343E-2,-3.8568076E-2,-4.2973142E-2,-5.712977E-2,-3.7573855E-2,-4.702986E-2,-5.916769E-2,-4.8736777E-2,-4.918722E-2,-3.4275454E-2,-1.09790275E-2,-3.6006585E-2,-2.4310064E-2,4.927592E-4,-3.92595E-2,-1.6293794E-2,-1.4625954E-2,2.6489885E-3,-1.2445266E-2,1.3813907E-2,1.3875968E-2,3.3653405E-2,-8.029399E-3,1.3974686E-2,1.4523749E-2,4.411138E-2,2.5432587E-2,4.5889497E-2,4.7958042E-2,7.5784184E-2],"categories":[],"categories_nodes":[],"categories_segments":[],"categories_sizes":[],"default_left":[0,0,0,0,0,0,0,0,0,0,0,0,0,0,0,0,0,0,0,0,0,0,0,0,0,0,0,0,0,0,0,0,0,0,0,0,0,0,0,0,0,0,0,0,0,0,0,0,0,0,0,0,0,0,0,0,0,0,0,0,0,0,0],"id":2,"left_children":[1,3,5,7,9,11,13,15,17,19,21,23,25,27,29,31,33,35,37,39,41,43,45,47,49,51,53,55,57,59,61,-1,-1,-1,-1,-1,-1,-1,-1,-1,-1,-1,-1,-1,-1,-1,-1,-1,-1,-1,-1,-1,-1,-1,-1,-1,-1,-1,-1,-1,-1,-1,-1],"loss_changes":[2.2791216E3,9.5667114E1,7.365322E2,2.713269E1,5.634082E1,2.5518855E2,3.0053015E2,9.546814E0,9.686401E0,4.921936E0,2.234275E1,6.294084E1,9.865372E1,8.254001E1,1.1095752E2,1.171051E0,1.9396973E0,8.1222534E-1,1.818039E0,1.2161255E0,3.8561707E0,6.343704E0,1.4930052E1,3.7597153E1,2.0006596E1,6.472817E1,3.3757248E1,3.0790749E1,5.0716858E1,3.3841675E1,5.8840576E1,0E0,0E0,0E0,0E0,0E0,0E0,0E0,0E0,0E0,0E0,0E0,0E0,0E0,0E0,0E0,0E0,0E0,0E0,0E0,0E0,0E0,0E0,0E0,0E0,0E0,0E0,0E0,0E0,0E0,0E0,0E0,0E0],"parents":[2147483647,0,0,1,1,2,2,3,3,4,4,5,5,6,6,7,7,8,8,9,9,10,10,11,11,12,12,13,13,14,14,15,15,16,16,17,17,18,18,19,19,20,20,21,21,22,22,23,23,24,24,25,25,26,26,27,27,28,28,29,29,30,30],"right_children":[2,4,6,8,10,12,14,16,18,20,22,24,26,28,30,32,34,36,38,40,42,44,46,48,50,52,54,56,58,60,62,-1,-1,-1,-1,-1,-1,-1,-1,-1,-1,-1,-1,-1,-1,-1,-1,-1,-1,-1,-1,-1,-1,-1,-1,-1,-1,-1,-1,-1,-1,-1,-1],"split_conditions":[2.004412E1,1E0,1E0,5.1E1,5.2E1,5.1E1,5.1E1,1E0,1E0,1E0,1E0,1E0,1E0,1E0,1E0,1E0,1.8217789E1,5.6E1,7.6E1,9.368231E0,1E0,1.8655168E0,1E0,1E0,1E0,1E0,1E0,1E0,1E0,1E0,1E0,-7.977503E-2,-6.766708E-2,-5.9859343E-2,-3.8568076E-2,-4.2973142E-2,-5.712977E-2,-3.7573855E-2,-4.702986E-2,-5.916769E-2,-4.8736777E-2,-4.918722E-2,-3.4275454E-2,-1.09790275E-2,-3.6006585E-2,-2.4310064E-2,4.927592E-4,-3.92595E-2,-1.6293794E-2,-1.4625954E-2,2.6489885E-3,-1.2445266E-2,1.3813907E-2,1.3875968E-2,3.3653405E-2,-8.029399E-3,1.3974686E-2,1.4523749E-2,4.411138E-2,2.5432587E-2,4.5889497E-2,4.7958042E-2,7.5784184E-2],"split_indices":[1,3,3,0,0,0,0,5,5,5,5,5,7,5,7,7,1,0,0,1,7,1,7,7,7,5,5,7,7,5,5,0,0,0,0,0,0,0,0,0,0,0,0,0,0,0,0,0,0,0,0,0,0,0,0,0,0,0,0,0,0,0,0],"split_type":[0,0,0,0,0,0,0,0,0,0,0,0,0,0,0,0,0,0,0,0,0,0,0,0,0,0,0,0,0,0,0,0,0,0,0,0,0,0,0,0,0,0,0,0,0,0,0,0,0,0,0,0,0,0,0,0,0,0,0,0,0,0,0],"sum_hessian":[8.0065215E3,1.9937251E3,6.0127964E3,1.0439075E3,9.498177E2,3.1965867E3,2.8162097E3,4.3686887E2,6.070386E2,4.2172595E2,5.2809174E2,1.3869153E3,1.8096715E3,1.2173116E3,1.5988981E3,2.2754865E2,2.0932022E2,3.224713E2,2.845673E2,2.1723071E2,2.0449522E2,2.8526804E2,2.428237E2,7.1674084E2,6.7017444E2,9.4032306E2,8.6934845E2,6.348137E2,5.8249786E2,8.208898E2,7.7800836E2,1.1657917E2,1.1096948E2,1.9031293E2,1.9007294E1,2.7226671E1,2.9524463E2,1.3166035E2,1.5290694E2,1.08388664E2,1.0884206E2,1.089256E2,9.5569626E1,2.9298178E1,2.5596986E2,1.2951122E2,1.13312485E2,3.5434286E2,3.6239795E2,3.4942206E2,3.2075238E2,4.9933795E2,4.4098508E2,4.5938873E2,4.0995972E2,3.2884967E2,3.0596405E2,3.0564835E2,2.7684955E2,4.3278326E2,3.8810648E2,3.989888E2,3.7901956E2],"tree_param":{"num_deleted":"0","num_feature":"9","num_nodes":"63","size_leaf_vector":"1"}},{"base_weights":[-5.5134217E-3,-2.9413632E-1,3.2687584E-1,-5.694753E-1,1.3431278E-2,2.0568337E-2,6.761539E-1,-7.257762E-1,-2.050389E-1,-1.6172275E-1,4.1196597E-1,-1.628659E-1,4.2412162E-1,4.6837336E-1,1.1368374E0,-8.7655157E-1,-5.6203145E-1,-4.2864776E-1,4.4499084E-2,-3.468907E-1,3.5264634E-2,1.5594852E-1,7.18717E-1,-3.355284E-1,2.737914E-2,1.6264096E-1,7.3581827E-1,2.0327458E-1,7.5330037E-1,9.4497865E-1,1.3269178E0,-5.0278496E-2,-3.6984827E-2,-3.150399E-2,-2.4436224E-2,-3.0352075E-2,-1.2495474E-2,-7.948856E-3,1.3159195E-2,-2.1531094E-2,-8.59877E-3,-1.0765435E-2,1.5478502E-2,-1.8620718E-3,1.8498098E-2,2.1532094E-2,5.185019E-2,-2.538808E-2,-7.313367E-3,-6.4095827E-3,9.764343E-3,-3.6044456E-3,1.9816807E-2,2.5602689E-2,4.870851E-2,-2.1769092E-3,2.392363E-2,2.423527E-2,5.2583218E-2,3.9177295E-2,5.5797692E-2,5.930078E-2,7.2568074E-2],"categories":[],"categories_nodes":[],"categories_segments":[],"categories_sizes":[],"default_left":[0,0,0,0,0,0,0,0,0,0,0,0,0,0,0,0,0,0,0,1,0,0,0,0,0,0,0,0,0,0,0,0,0,0,0,0,0,0,0,0,0,0,0,0,0,0,0,0,0,0,0,0,0,0,0,0,0,0,0,0,0,0,0],"id":3,"left_children":[1,3,5,7,9,11,13,15,17,19,21,23,25,27,29,31,33,35,37,39,41,43,45,47,49,51,53,55,57,59,61,-1,-1,-1,-1,-1,-1,-1,-1,-1,-1,-1,-1,-1,-1,-1,-1,-1,-1,-1,-1,-1,-1,-1,-1,-1,-1,-1,-1,-1,-1,-1,-1],"loss_changes":[7.643871E2,3.611594E2,3.9616937E2,1.280285E2,1.4075139E2,1.461917E2,1.6508081E2,3.8377686E1,3.7784245E1,5.110713E1,4.8233757E1,4.461081E1,5.0178772E1,9.0039825E1,1.833313E1,1.369751E1,3.470993E0,1.1232903E1,1.4314973E1,1.0502457E1,4.6780838E1,1.3940061E1,2.520639E1,2.31307E1,1.692404E1,1.8508587E1,1.4501663E1,4.2127914E1,4.5581787E1,6.599106E0,2.965973E0,0E0,0E0,0E0,0E0,0E0,0E0,0E0,0E0,0E0,0E0,0E0,0E0,0E0,0E0,0E0,0E0,0E0,0E0,0E0,0E0,0E0,0E0,0E0,0E0,0E0,0E0,0E0,0E0,0E0,0E0,0E0,0E0],"parents":[2147483647,0,0,1,1,2,2,3,3,4,4,5,5,6,6,7,7,8,8,9,9,10,10,11,11,12,12,13,13,14,14,15,15,16,16,17,17,18,18,19,19,20,20,21,21,22,22,23,23,24,24,25,25,26,26,27,27,28,28,29,29,30,30],"right_children":[2,4,6,8,10,12,14,16,18,20,22,24,26,28,30,32,34,36,38,40,42,44,46,48,50,52,54,56,58,60,62,-1,-1,-1,-1,-1,-1,-1,-1,-1,-1,-1,-1,-1,-1,-1,-1,-1,-1,-1,-1,-1,-1,-1,-1,-1,-1,-1,-1,-1,-1,-1,-1],"split_conditions":[1E0,1E0,1E0,2E0,2E0,2E0,2E0,1E0,1E0,1E0,1E0,1E0,1E0,1E0,1E0,1E0,1E0,1E0,1E0,2E0,1E0,1E0,1E0,1E0,1E0,1E0,1E0,1E0,1E0,1E0,1E0,-5.0278496E-2,-3.6984827E-2,-3.150399E-2,-2.4436224E-2,-3.0352075E-2,-1.2495474E-2,-7.948856E-3,1.3159195E-2,-2.1531094E-2,-8.59877E-3,-1.0765435E-2,1.5478502E-2,-1.8620718E-3,1.8498098E-2,2.1532094E-2,5.185019E-2,-2.538808E-2,-7.313367E-3,-6.4095827E-3,9.764343E-3,-3.6044456E-3,1.9816807E-2,2.5602689E-2,4.870851E-2,-2.1769092E-3,2.392363E-2,2.423527E-2,5.2583218E-2,3.9177295E-2,5.5797692E-2,5.930078E-2,7.2568074E-2],"split_indices":[6,3,3,8,8,8,8,5,5,7,5,7,5,7,5,7,7,7,7,4,5,7,7,5,5,7,7,5,5,7,7,0,0,0,0,0,0,0,0,0,0,0,0,0,0,0,0,0,0,0,0,0,0,0,0,0,0,0,0,0,0,0,0],"split_type":[0,0,0,0,0,0,0,0,0,0,0,0,0,0,0,0,0,0,0,0,0,0,0,0,0,0,0,0,0,0,0,0,0,0,0,0,0,0,0,0,0,0,0,0,0,0,0,0,0,0,0,0,0,0,0,0,0,0,0,0,0,0,0],"sum_hessian":[7.9657466E3,4.2636313E3,3.7021152E3,2.2492334E3,2.0143978E3,1.9729501E3,1.7291653E3,1.5734249E3,6.758084E2,1.3997909E3,6.14607E2,1.356811E3,6.16139E2,1.1930737E3,5.360915E2,8.168868E2,7.565382E2,3.5604327E2,3.197651E2,7.2114984E2,6.78641E2,3.3582907E2,2.7877792E2,7.1087335E2,6.459377E2,3.3588696E2,2.8025204E2,6.1892944E2,5.7414435E2,2.6976956E2,2.663219E2,4.1721494E2,3.996718E2,3.8840256E2,3.6813565E2,1.7699411E2,1.7904916E2,1.6578386E2,1.5398125E2,4.867046E2,2.3444527E2,3.547751E2,3.2386594E2,1.7693546E2,1.5889363E2,1.4756906E2,1.3120886E2,3.7129813E2,3.395752E2,3.354091E2,3.105286E2,1.6791751E2,1.6796944E2,1.4617317E2,1.3407887E2,3.267362E2,2.9219327E2,3.0352646E2,2.7061786E2,1.4162843E2,1.2814114E2,1.2984016E2,1.3648175E2],"tree_param":{"num_deleted":"0","num_feature":"9","num_nodes":"63","size_leaf_vector":"1"}},{"base_weights":[-1.6731255E-3,-2.7152047E-1,3.0925983E-1,-5.260753E-1,1.28494315E-2,2.1994535E-2,6.3592285E-1,-7.9810977E-1,-3.2748333E-1,-3.4097844E-1,2.7673125E-1,-1.4547624E-1,3.8835347E-1,2.4564101E-1,9.4390017E-1,-9.203797E-1,-5.2014977E-1,-5.008219E-1,7.272772E-2,-4.8922542E-1,-1.6235303E-2,7.378047E-2,7.4009746E-1,-4.0484822E-1,6.5583E-2,7.771619E-2,6.26754E-1,2.9701794E-2,7.3761964E-1,7.655839E-1,1.3277847E0,-5.234195E-2,-3.94233E-2,-3.3843663E-2,-1.7613819E-2,-3.1093E-2,-1.8317504E-2,-4.564827E-3,2.2316094E-2,-3.381253E-2,-1.4122996E-2,-8.945093E-3,8.576904E-3,-4.9759275E-3,1.2742819E-2,2.675659E-2,4.7691777E-2,-2.797384E-2,-1.1713137E-2,-6.181165E-3,1.3427043E-2,-6.434561E-3,1.5068804E-2,2.0474022E-2,4.3635014E-2,-9.5446035E-3,1.3422537E-2,5.176649E-3,3.8902707E-2,2.5649685E-2,5.1633216E-2,6.0592867E-2,7.2077185E-2],"categories":[],"categories_nodes":[],"categories_segments":[],"categories_sizes":[],"default_left":[0,0,0,0,0,0,0,0,0,0,0,0,0,0,0,0,0,0,1,0,0,0,0,0,0,0,0,0,0,0,0,0,0,0,0,0,0,0,0,0,0,0,0,0,0,0,0,0,0,0,0,0,0,0,0,0,0,0,0,0,0,0,0],"id":4,"left_children":[1,3,5,7,9,11,13,15,17,19,21,23,25,27,29,31,33,35,37,39,41,43,45,47,49,51,53,55,57,59,61,-1,-1,-1,-1,-1,-1,-1,-1,-1,-1,-1,-1,-1,-1,-1,-1,-1,-1,-1,-1,-1,-1,-1,-1,-1,-1,-1,-1,-1,-1,-1,-1],"loss_changes":[6.683815E2,3.0872275E2,3.473055E2,1.2131238E2,1.882682E2,1.2094988E2,2.0792926E2,3.1770752E1,9.039137E1,4.1462112E1,1.08559944E2,7.409304E1,4.5749146E1,8.127057E1,6.522009E1,1.0146423E1,7.448944E0,1.4566635E1,2.4215515E1,2.2678116E1,8.308879E0,2.5264435E1,1.48962555E1,1.5884201E1,2.8712162E1,1.24880905E1,1.8332565E1,2.8113396E1,5.9027863E0,4.420282E1,2.2824707E0,0E0,0E0,0E0,0E0,0E0,0E0,0E0,0E0,0E0,0E0,0E0,0E0,0E0,0E0,0E0,0E0,0E0,0E0,0E0,0E0,0E0,0E0,0E0,0E0,0E0,0E0,0E0,0E0,0E0,0E0,0E0,0E0],"parents":[2147483647,0,0,1,1,2,2,3,3,4,4,5,5,6,6,7,7,8,8,9,9,10,10,11,11,12,12,13,13,14,14,15,15,16,16,17,17,18,18,19,19,20,20,21,21,22,22,23,23,24,24,25,25,26,26,27,27,28,28,29,29,30,30],"right_children":[2,4,6,8,10,12,14,16,18,20,22,24,26,28,30,32,34,36,38,40,42,44,46,48,50,52,54,56,58,60,62,-1,-1,-1,-1,-1,-1,-1,-1,-1,-1,-1,-1,-1,-1,-1,-1,-1,-1,-1,-1,-1,-1,-1,-1,-1,-1,-1,-1,-1,-1,-1,-1],"split_conditions":[1E0,1E0,1E0,5.1E1,5.1E1,2E0,5.1E1,2E0,2E0,2E0,2E0,5.2E1,5.1E1,2E0,2E0,1E0,1E0,1E0,2E0,1E0,1E0,1E0,1E0,1E0,1E0,1E0,1E0,1E0,2E1,1E0,1E0,-5.234195E-2,-3.94233E-2,-3.3843663E-2,-1.7613819E-2,-3.1093E-2,-1.8317504E-2,-4.564827E-3,2.2316094E-2,-3.381253E-2,-1.4122996E-2,-8.945093E-3,8.576904E-3,-4.9759275E-3,1.2742819E-2,2.675659E-2,4.7691777E-2,-2.797384E-2,-1.1713137E-2,-6.181165E-3,1.3427043E-2,-6.434561E-3,1.5068804E-2,2.0474022E-2,4.3635014E-2,-9.5446035E-3,1.3422537E-2,5.176649E-3,3.8902707E-2,2.5649685E-2,5.1633216E-2,6.0592867E-2,7.2077185E-2],"split_indices":[6,3,3,0,0,8,0,8,8,8,8,0,0,8,8,7,7,7,4,7,7,7,7,7,7,7,7,7,0,7,7,0,0,0,0,0,0,0,0,0,0,0,0,0,0,0,0,0,0,0,0,0,0,0,0,0,0,0,0,0,0,0,0],"split_type":[0,0,0,0,0,0,0,0,0,0,0,0,0,0,0,0,0,0,0,0,0,0,0,0,0,0,0,0,0,0,0,0,0,0,0,0,0,0,0,0,0,0,0,0,0,0,0,0,0,0,0,0,0,0,0,0,0,0,0,0,0,0,0],"sum_hessian":[7.9639844E3,4.263755E3,3.7002297E3,2.249371E3,2.0143837E3,1.9694105E3,1.7308193E3,9.479016E2,1.3014695E3,8.6040765E2,1.153976E3,1.3519893E3,6.174213E2,7.641958E2,9.6662354E2,6.567133E2,2.911883E2,9.07963E2,3.935065E2,5.9038654E2,2.7002112E2,8.0329724E2,3.506787E2,6.061588E2,7.458304E2,2.6866946E2,3.4875186E2,5.318268E2,2.32369E2,6.620788E2,3.045447E2,3.3174725E2,3.2496606E2,1.4902722E2,1.4216107E2,4.7594272E2,4.320203E2,2.7397507E2,1.19531456E2,3.0879877E2,2.8158777E2,1.4470854E2,1.25312584E2,4.106931E2,3.9260416E2,1.8080148E2,1.6987723E2,3.1675446E2,2.8940436E2,3.8619406E2,3.5963632E2,1.3994449E2,1.2872498E2,1.8658449E2,1.6216736E2,2.7652756E2,2.5529926E2,1.4142895E1,2.182261E2,3.417711E2,3.203077E2,1.5660637E2,1.4793835E2],"tree_param":{"num_deleted":"0","num_feature":"9","num_nodes":"63","size_leaf_vector":"1"}},{"base_weights":[1.5750518E-3,-8.889209E-1,2.957968E-1,-1.061874E0,-6.981655E-1,4.8648054E-3,6.271201E-1,-1.1509253E0,-8.641512E-1,-8.2568276E-1,-4.155208E-1,-1.6931644E-1,3.9566272E-1,4.3657872E-1,1.0600742E0,-1.2492787E0,-1.0387224E0,-1.0328203E0,-6.757022E-1,-9.5579E-1,-6.776229E-1,-5.407192E-1,-2.7882564E-1,-3.5247937E-1,2.5522089E-2,1.3730595E-1,6.915982E-1,2.0394163E-1,6.880799E-1,7.881585E-1,1.3567151E0,-6.3364945E-2,-1.782973E-2,-5.6745645E-2,-4.688411E-2,-2.5966445E-2,-5.7157952E-2,-4.2716675E-2,-2.588175E-2,-5.203099E-2,-4.3238025E-2,-4.213453E-2,-2.469527E-2,-3.534617E-2,-1.759364E-2,2.1567203E-2,-1.9704867E-2,-2.6966605E-2,-7.7485046E-3,-5.759204E-3,8.918087E-3,-7.0496756E-3,2.0633178E-2,2.365706E-2,4.5999084E-2,5.282261E-4,2.05651E-2,2.0870628E-2,4.9149323E-2,2.8876161E-2,5.1015E-2,5.8315616E-2,7.7776454E-2],"categories":[],"categories_nodes":[],"categories_segments":[],"categories_sizes":[],"default_left":[0,0,0,0,0,0,0,0,0,0,0,0,0,0,0,0,0,0,0,0,0,0,0,0,0,0,0,0,0,0,0,0,0,0,0,0,0,0,0,0,0,0,0,0,0,0,0,0,0,0,0,0,0,0,0,0,0,0,0,0,0,0,0],"id":5,"left_children":[1,3,5,7,9,11,13,15,17,19,21,23,25,27,29,31,33,35,37,39,41,43,45,47,49,51,53,55,57,59,61,-1,-1,-1,-1,-1,-1,-1,-1,-1,-1,-1,-1,-1,-1,-1,-1,-1,-1,-1,-1,-1,-1,-1,-1,-1,-1,-1,-1,-1,-1,-1,-1],"loss_changes":[2.0936252E3,6.473096E1,5.78962E2,1.729773E1,3.3774506E1,2.1782933E2,2.31203E2,6.5737915E0,9.683914E0,1.1898682E1,4.92025E0,7.900386E1,7.533554E1,1.1405197E2,6.8097534E1,5.583191E0,2.23172E0,9.064423E0,3.9952087E0,1.7582703E0,8.926193E0,4.5720825E0,1.1934836E1,4.2025955E1,2.3106985E1,4.051812E1,2.2494919E1,4.0708145E1,7.441568E1,2.1403687E1,1.3657593E1,0E0,0E0,0E0,0E0,0E0,0E0,0E0,0E0,0E0,0E0,0E0,0E0,0E0,0E0,0E0,0E0,0E0,0E0,0E0,0E0,0E0,0E0,0E0,0E0,0E0,0E0,0E0,0E0,0E0,0E0,0E0,0E0],"parents":[2147483647,0,0,1,1,2,2,3,3,4,4,5,5,6,6,7,7,8,8,9,9,10,10,11,11,12,12,13,13,14,14,15,15,16,16,17,17,18,18,19,19,20,20,21,21,22,22,23,23,24,24,25,25,26,26,27,27,28,28,29,29,30,30],"right_children":[2,4,6,8,10,12,14,16,18,20,22,24,26,28,30,32,34,36,38,40,42,44,46,48,50,52,54,56,58,60,62,-1,-1,-1,-1,-1,-1,-1,-1,-1,-1,-1,-1,-1,-1,-1,-1,-1,-1,-1,-1,-1,-1,-1,-1,-1,-1,-1,-1,-1,-1,-1,-1],"split_conditions":[2.004412E1,1E0,1E0,2E0,2E0,2E0,2E0,1E0,1E0,1E0,1E0,1E0,1E0,1E0,1E0,1.9417252E1,1E0,3.8168588E0,9.368231E0,1E0,1E0,1E0,2.8459399E0,1E0,1E0,1E0,1E0,1E0,1E0,1E0,1E0,-6.3364945E-2,-1.782973E-2,-5.6745645E-2,-4.688411E-2,-2.5966445E-2,-5.7157952E-2,-4.2716675E-2,-2.588175E-2,-5.203099E-2,-4.3238025E-2,-4.213453E-2,-2.469527E-2,-3.534617E-2,-1.759364E-2,2.1567203E-2,-1.9704867E-2,-2.6966605E-2,-7.7485046E-3,-5.759204E-3,8.918087E-3,-7.0496756E-3,2.0633178E-2,2.365706E-2,4.5999084E-2,5.282261E-4,2.05651E-2,2.0870628E-2,4.9149323E-2,2.8876161E-2,5.1015E-2,5.8315616E-2,7.7776454E-2],"split_indices":[1,3,3,8,8,8,8,5,5,7,7,5,5,7,5,1,7,1,1,5,5,2,1,7,7,7,7,5,5,7,7,0,0,0,0,0,0,0,0,0,0,0,0,0,0,0,0,0,0,0,0,0,0,0,0,0,0,0,0,0,0,0,0],"split_type":[0,0,0,0,0,0,0,0,0,0,0,0,0,0,0,0,0,0,0,0,0,0,0,0,0,0,0,0,0,0,0,0,0,0,0,0,0,0,0,0,0,0,0,0,0,0,0,0,0,0,0,0,0,0,0,0,0,0,0,0,0,0,0],"sum_hessian":[7.988832E3,1.9835051E3,6.005327E3,1.0379E3,9.45605E2,3.1981099E3,2.8072173E3,7.1227997E2,3.256201E2,6.5029724E2,2.9530774E2,2.212535E3,9.855749E2,1.9507213E3,8.56496E2,3.7416473E2,3.3811523E2,1.6946329E2,1.561568E2,3.432296E2,3.0706766E2,1.5259294E2,1.427148E2,1.1400205E3,1.0725144E3,5.2697797E2,4.5859692E2,1.01430566E3,9.3641565E2,4.4877933E2,4.077166E2,3.6634973E2,7.8150077E0,1.6797275E2,1.7014249E2,3.0982832E1,1.3848045E2,7.124181E1,8.491499E1,1.722651E2,1.709645E2,1.5985406E2,1.472136E2,7.970287E1,7.289007E1,1.9546997E1,1.231678E2,5.849246E2,5.550959E2,5.585512E2,5.1396313E2,2.6233163E2,2.6464636E2,2.3596225E2,2.2263467E2,5.253932E2,4.889125E2,4.895336E2,4.4688205E2,2.3711723E2,2.1166211E2,2.117712E2,1.9594542E2],"tree_param":{"num_deleted":"0","num_feature":"9","num_nodes":"63","size_leaf_vector":"1"}},{"base_weights":[1.7010625E-3,-8.5468566E-1,2.8843468E-1,-1.0338854E0,-6.561819E-1,-2.5451814E-3,6.331245E-1,-1.1805E0,-8.75288E-1,-8.216082E-1,-4.6673837E-1,-2.7152133E-1,3.0611822E-1,3.414876E-1,9.6754795E-1,-1.2810986E0,-9.518742E-1,-9.8340267E-1,-7.5745E-1,-9.5015144E-1,-6.7941236E-1,-6.138603E-1,-1.3304713E-1,-4.1866806E-1,6.3246876E-2,1.2969336E-1,7.0262796E-1,1.5119888E-1,7.5729316E-1,7.792E-1,1.3867679E0,-6.830885E-2,-5.869487E-2,-5.5679794E-2,-3.8209923E-2,-5.327033E-2,-3.150119E-2,-4.3962218E-2,-2.378599E-2,-5.1221084E-2,-3.9512403E-2,-4.1562703E-2,-2.4775239E-2,-3.8616907E-2,-2.13241E-2,-6.0657274E-2,-4.9304105E-3,-2.7846629E-2,-1.329864E-2,-6.3862614E-3,1.2594928E-2,-3.9618216E-3,1.7453877E-2,2.1380804E-2,5.0772972E-2,-1.1618626E-3,1.6658215E-2,2.3474379E-2,5.4811627E-2,2.3705335E-2,5.58694E-2,6.1372943E-2,7.684485E-2],"categories":[],"categories_nodes":[],"categories_segments":[],"categories_sizes":[],"default_left":[0,0,0,0,0,0,0,0,0,0,0,0,0,0,0,0,0,0,0,0,0,0,0,0,0,0,0,0,0,0,0,0,0,0,0,0,0,0,0,0,0,0,0,0,0,0,0,0,0,0,0,0,0,0,0,0,0,0,0,0,0,0,0],"id":6,"left_children":[1,3,5,7,9,11,13,15,17,19,21,23,25,27,29,31,33,35,37,39,41,43,45,47,49,51,53,55,57,59,61,-1,-1,-1,-1,-1,-1,-1,-1,-1,-1,-1,-1,-1,-1,-1,-1,-1,-1,-1,-1,-1,-1,-1,-1,-1,-1,-1,-1,-1,-1,-1,-1],"loss_changes":[1.9528801E3,7.028247E1,5.975815E2,2.330481E1,2.936319E1,2.683916E2,2.6566614E2,1.1223633E1,5.709961E0,8.592346E0,2.1754608E1,8.511906E1,1.0521208E2,1.15278915E2,9.9191284E1,1.7964478E0,4.2845764E0,6.888626E0,8.049515E0,2.313095E0,6.386894E0,8.829079E0,4.9904256E0,2.5188843E1,1.9065842E1,4.7834866E1,3.9425354E1,3.1805399E1,4.4126465E1,9.011536E1,7.498474E0,0E0,0E0,0E0,0E0,0E0,0E0,0E0,0E0,0E0,0E0,0E0,0E0,0E0,0E0,0E0,0E0,0E0,0E0,0E0,0E0,0E0,0E0,0E0,0E0,0E0,0E0,0E0,0E0,0E0,0E0,0E0,0E0],"parents":[2147483647,0,0,1,1,2,2,3,3,4,4,5,5,6,6,7,7,8,8,9,9,10,10,11,11,12,12,13,13,14,14,15,15,16,16,17,17,18,18,19,19,20,20,21,21,22,22,23,23,24,24,25,25,26,26,27,27,28,28,29,29,30,30],"right_children":[2,4,6,8,10,12,14,16,18,20,22,24,26,28,30,32,34,36,38,40,42,44,46,48,50,52,54,56,58,60,62,-1,-1,-1,-1,-1,-1,-1,-1,-1,-1,-1,-1,-1,-1,-1,-1,-1,-1,-1,-1,-1,-1,-1,-1,-1,-1,-1,-1,-1,-1,-1,-1],"split_conditions":[2.004412E1,1E0,1E0,1E0,1E0,1E0,1E0,2E0,1E0,1E0,2E0,2E0,2E0,2E0,2E0,1E0,1E0,1.5624988E1,2E0,2E0,1E0,1E0,3.051103E-1,1E0,1E0,1E0,1E0,1E0,1E0,1E0,1E0,-6.830885E-2,-5.869487E-2,-5.5679794E-2,-3.8209923E-2,-5.327033E-2,-3.150119E-2,-4.3962218E-2,-2.378599E-2,-5.1221084E-2,-3.9512403E-2,-4.1562703E-2,-2.4775239E-2,-3.8616907E-2,-2.13241E-2,-6.0657274E-2,-4.9304105E-3,-2.7846629E-2,-1.329864E-2,-6.3862614E-3,1.2594928E-2,-3.9618216E-3,1.7453877E-2,2.1380804E-2,5.0772972E-2,-1.1618626E-3,1.6658215E-2,2.3474379E-2,5.4811627E-2,2.3705335E-2,5.58694E-2,6.1372943E-2,7.684485E-2],"split_indices":[1,3,6,6,6,3,3,8,5,5,8,8,8,8,8,5,5,1,8,8,7,5,1,7,7,7,5,5,5,5,5,0,0,0,0,0,0,0,0,0,0,0,0,0,0,0,0,0,0,0,0,0,0,0,0,0,0,0,0,0,0,0,0],"split_type":[0,0,0,0,0,0,0,0,0,0,0,0,0,0,0,0,0,0,0,0,0,0,0,0,0,0,0,0,0,0,0,0,0,0,0,0,0,0,0,0,0,0,0,0,0,0,0,0,0,0,0,0,0,0,0,0,0,0,0,0,0,0,0],"sum_hessian":[7.9509233E3,1.9938663E3,5.957057E3,1.0456738E3,9.4819257E2,3.230733E3,2.7263242E3,5.4001556E2,5.0565823E2,5.0440115E2,4.437914E2,1.726416E3,1.504317E3,1.4574037E3,1.2689205E3,3.718103E2,1.6820525E2,2.598783E2,2.4577992E2,2.6193402E2,2.4246713E2,3.074149E2,1.3637651E2,1.1991023E3,5.273137E2,1.0420082E3,4.623088E2,1.00077423E3,4.5662943E2,8.775237E2,3.9139682E2,2.0074684E2,1.7106346E2,8.769991E1,8.050534E1,2.0929507E2,5.0583225E1,1.7011633E2,7.56636E1,1.7516754E2,8.676647E1,1.3088397E2,1.1158317E2,1.6486029E2,1.4255461E2,3.156425E0,1.332201E2,6.278979E2,5.712044E2,2.6220578E2,2.6510797E2,5.340481E2,5.079601E2,2.4728561E2,2.150232E2,5.1140356E2,4.893707E2,2.4823192E2,2.0839749E2,4.625974E2,4.1492627E2,1.9434459E2,1.9705223E2],"tree_param":{"num_deleted":"0","num_feature":"9","num_nodes":"63","size_leaf_vector":"1"}},{"base_weights":[-1.2641028E-3,-8.129578E-1,2.6889628E-1,-9.813488E-1,-6.252621E-1,-1.04432E-2,5.950199E-1,-1.0732876E0,-7.7871025E-1,-8.037095E-1,-4.2877212E-1,-2.669511E-1,2.777033E-1,3.0445892E-1,9.344041E-1,-1.205897E0,-9.3147516E-1,-8.938784E-1,-6.3684756E-1,-9.3415046E-1,-6.61308E-1,-5.788535E-1,-8.676817E-2,-3.9420903E-1,2.5543254E-2,9.155827E-2,7.1738714E-1,1.3329515E-1,6.868903E-1,7.492173E-1,1.3380492E0,-6.5559335E-2,-5.40437E-2,-4.6882417E-2,-2.5144745E-2,-2.3732642E-2,-4.9820583E-2,-3.771953E-2,-2.4822999E-2,-4.9763244E-2,-2.8766101E-2,-3.9274946E-2,-1.8759996E-2,-4.056335E-2,-2.4053367E-2,-1.6399901E-3,-3.340097E-2,-2.6554963E-2,-1.2341634E-2,-9.703888E-3,1.3541524E-2,-5.0162137E-3,1.4802555E-2,2.1673225E-2,5.2562993E-2,-8.732602E-4,1.4669475E-2,2.2698589E-2,4.8006084E-2,2.4823098E-2,5.1912792E-2,5.9747823E-2,7.363156E-2],"categories":[],"categories_nodes":[],"categories_segments":[],"categories_sizes":[],"default_left":[0,0,0,0,0,0,0,0,0,0,0,0,0,0,0,0,0,0,0,0,0,0,0,0,0,0,0,0,0,0,0,0,0,0,0,0,0,0,0,0,0,0,0,0,0,0,0,0,0,0,0,0,0,0,0,0,0,0,0,0,0,0,0],"id":7,"left_children":[1,3,5,7,9,11,13,15,17,19,21,23,25,27,29,31,33,35,37,39,41,43,45,47,49,51,53,55,57,59,61,-1,-1,-1,-1,-1,-1,-1,-1,-1,-1,-1,-1,-1,-1,-1,-1,-1,-1,-1,-1,-1,-1,-1,-1,-1,-1,-1,-1,-1,-1,-1,-1],"loss_changes":[1.732254E3,6.1734497E1,5.399344E2,1.8503296E1,3.2460815E1,2.361023E2,2.6936383E2,1.2255493E1,4.7834167E0,8.468628E0,2.2916016E1,6.291366E1,1.2306406E2,9.643796E1,9.323987E1,3.3775635E0,4.4961548E-1,7.1931763E0,2.1052513E0,4.9730225E0,8.136627E0,6.673149E0,4.295757E0,2.3627487E1,2.7703444E1,4.1548065E1,4.194818E1,2.4622845E1,2.8565552E1,6.27901E1,5.8517456E0,0E0,0E0,0E0,0E0,0E0,0E0,0E0,0E0,0E0,0E0,0E0,0E0,0E0,0E0,0E0,0E0,0E0,0E0,0E0,0E0,0E0,0E0,0E0,0E0,0E0,0E0,0E0,0E0,0E0,0E0,0E0,0E0],"parents":[2147483647,0,0,1,1,2,2,3,3,4,4,5,5,6,6,7,7,8,8,9,9,10,10,11,11,12,12,13,13,14,14,15,15,16,16,17,17,18,18,19,19,20,20,21,21,22,22,23,23,24,24,25,25,26,26,27,27,28,28,29,29,30,30],"right_children":[2,4,6,8,10,12,14,16,18,20,22,24,26,28,30,32,34,36,38,40,42,44,46,48,50,52,54,56,58,60,62,-1,-1,-1,-1,-1,-1,-1,-1,-1,-1,-1,-1,-1,-1,-1,-1,-1,-1,-1,-1,-1,-1,-1,-1,-1,-1,-1,-1,-1,-1,-1,-1],"split_conditions":[2.004412E1,1E0,1E0,2E0,1E0,1E0,1E0,1E0,1E0,1E0,2E0,2E0,2E0,2E0,2E0,1E0,1.9696922E1,4.4319935E0,1E0,1.6630646E1,2E0,5.6239533E0,1.8811518E1,1E0,1E0,1E0,1E0,1E0,1E0,1E0,1E0,-6.5559335E-2,-5.40437E-2,-4.6882417E-2,-2.5144745E-2,-2.3732642E-2,-4.9820583E-2,-3.771953E-2,-2.4822999E-2,-4.9763244E-2,-2.8766101E-2,-3.9274946E-2,-1.8759996E-2,-4.056335E-2,-2.4053367E-2,-1.6399901E-3,-3.340097E-2,-2.6554963E-2,-1.2341634E-2,-9.703888E-3,1.3541524E-2,-5.0162137E-3,1.4802555E-2,2.1673225E-2,5.2562993E-2,-8.732602E-4,1.4669475E-2,2.2698589E-2,4.8006084E-2,2.4823098E-2,5.1912792E-2,5.9747823E-2,7.363156E-2],"split_indices":[1,6,6,8,3,3,3,3,5,5,8,8,8,8,8,5,1,1,3,1,8,1,1,5,5,5,5,5,5,5,5,0,0,0,0,0,0,0,0,0,0,0,0,0,0,0,0,0,0,0,0,0,0,0,0,0,0,0,0,0,0,0,0],"split_type":[0,0,0,0,0,0,0,0,0,0,0,0,0,0,0,0,0,0,0,0,0,0,0,0,0,0,0,0,0,0,0,0,0,0,0,0,0,0,0,0,0,0,0,0,0,0,0,0,0,0,0,0,0,0,0,0,0,0,0,0,0,0,0],"sum_hessian":[7.897469E3,1.9716526E3,5.9258164E3,1.0370426E3,9.3461E2,3.1923735E3,2.7334429E3,7.104219E2,3.2662073E2,4.881729E2,4.4643707E2,1.688947E3,1.5034265E3,1.4736698E3,1.2597731E3,3.6324567E2,3.4717624E2,1.773456E2,1.4927515E2,2.5188458E2,2.3628833E2,3.0979663E2,1.3664043E2,1.1766602E3,5.1228687E2,1.0570999E3,4.463267E2,1.0189636E3,4.5470624E2,8.6553406E2,3.94239E2,1.9203409E2,1.7121156E2,3.4107568E2,6.100556E0,3.595725E1,1.4138834E2,7.8867645E1,7.04075E1,2.1371223E2,3.817236E1,1.635505E2,7.273782E1,8.958324E1,2.202134E2,1.2599811E2,1.0642319E1,6.086826E2,5.6797754E2,2.7039453E2,2.4189236E2,5.45628E2,5.1147183E2,2.4244865E2,2.0387805E2,5.252388E2,4.9372485E2,2.4689763E2,2.0780861E2,4.6319867E2,4.023354E2,1.95866E2,1.98373E2],"tree_param":{"num_deleted":"0","num_feature":"9","num_nodes":"63","size_leaf_vector":"1"}},{"base_weights":[1.6595158E-3,-7.666415E-1,2.5722107E-1,-9.8856485E-1,-6.0222787E-1,-7.607651E-2,5.1227146E-1,-1.1241653E0,-8.488955E-1,-7.900786E-1,-3.9235663E-1,-3.1426367E-1,1.9142745E-1,2.1641831E-1,8.7211704E-1,-1.2522489E0,-9.827757E-1,-9.997593E-1,-6.850558E-1,-9.5081985E-1,-6.068354E-1,-5.863839E-1,-1.7669342E-1,-5.1035625E-1,-1.00965254E-1,-4.4703174E-2,4.70049E-1,-3.3071157E-2,4.9749523E-1,5.7492214E-1,1.2176483E0,-6.926813E-2,-5.5249788E-2,-5.394574E-2,-4.3798476E-2,-4.0710475E-2,-5.3352553E-2,-3.6459845E-2,-1.5071647E-2,-5.3103276E-2,-4.1179445E-2,-4.912028E-2,-2.8589848E-2,-3.5436396E-2,-2.1897096E-2,-2.0597544E-2,5.9603327E-3,-3.185981E-2,-1.895638E-2,-1.5710643E-2,6.350418E-3,-1.1795943E-2,8.018815E-3,1.0421817E-2,3.746477E-2,-1.1463952E-2,9.2929285E-3,1.4814439E-2,3.62327E-2,1.790695E-2,3.9930593E-2,5.008198E-2,7.212225E-2],"categories":[],"categories_nodes":[],"categories_segments":[],"categories_sizes":[],"default_left":[0,0,0,0,0,0,0,0,0,0,0,0,0,0,0,0,0,0,0,0,0,0,0,0,0,0,0,0,0,0,0,0,0,0,0,0,0,0,0,0,0,0,0,0,0,0,0,0,0,0,0,0,0,0,0,0,0,0,0,0,0,0,0],"id":8,"left_children":[1,3,5,7,9,11,13,15,17,19,21,23,25,27,29,31,33,35,37,39,41,43,45,47,49,51,53,55,57,59,61,-1,-1,-1,-1,-1,-1,-1,-1,-1,-1,-1,-1,-1,-1,-1,-1,-1,-1,-1,-1,-1,-1,-1,-1,-1,-1,-1,-1,-1,-1,-1,-1],"loss_changes":[1.5439591E3,7.101965E1,5.016377E2,1.4835876E1,4.4240234E1,1.6309723E2,3.5569263E2,6.3743286E0,9.567535E0,1.6957489E1,2.2312988E1,5.6579285E1,7.935542E1,1.2875746E2,1.5415259E2,2.7166748E0,1.1521912E0,1.800293E0,3.2010727E0,3.5888672E0,3.1353302E0,4.8032074E0,1.7810184E1,1.1496216E1,3.162846E1,2.5668745E1,4.026075E1,4.1860744E1,3.9245102E1,3.9117645E1,3.2370117E1,0E0,0E0,0E0,0E0,0E0,0E0,0E0,0E0,0E0,0E0,0E0,0E0,0E0,0E0,0E0,0E0,0E0,0E0,0E0,0E0,0E0,0E0,0E0,0E0,0E0,0E0,0E0,0E0,0E0,0E0,0E0,0E0],"parents":[2147483647,0,0,1,1,2,2,3,3,4,4,5,5,6,6,7,7,8,8,9,9,10,10,11,11,12,12,13,13,14,14,15,15,16,16,17,17,18,18,19,19,20,20,21,21,22,22,23,23,24,24,25,25,26,26,27,27,28,28,29,29,30,30],"right_children":[2,4,6,8,10,12,14,16,18,20,22,24,26,28,30,32,34,36,38,40,42,44,46,48,50,52,54,56,58,60,62,-1,-1,-1,-1,-1,-1,-1,-1,-1,-1,-1,-1,-1,-1,-1,-1,-1,-1,-1,-1,-1,-1,-1,-1,-1,-1,-1,-1,-1,-1,-1,-1],"split_conditions":[2.004412E1,5.1E1,5.1E1,1E0,1E0,1E0,1E0,1E0,1E0,1E0,1E0,1E0,1E0,1E0,1E0,1E0,1E0,2.8E1,1.789574E1,1E0,1.2178345E0,1E0,1E0,1E0,1E0,1E0,1E0,1E0,1E0,1E0,1E0,-6.926813E-2,-5.5249788E-2,-5.394574E-2,-4.3798476E-2,-4.0710475E-2,-5.3352553E-2,-3.6459845E-2,-1.5071647E-2,-5.3103276E-2,-4.1179445E-2,-4.912028E-2,-2.8589848E-2,-3.5436396E-2,-2.1897096E-2,-2.0597544E-2,5.9603327E-3,-3.185981E-2,-1.895638E-2,-1.5710643E-2,6.350418E-3,-1.1795943E-2,8.018815E-3,1.0421817E-2,3.746477E-2,-1.1463952E-2,9.2929285E-3,1.4814439E-2,3.62327E-2,1.790695E-2,3.9930593E-2,5.008198E-2,7.212225E-2],"split_indices":[1,0,0,6,3,6,6,5,3,6,7,3,3,3,3,3,7,0,1,5,1,5,5,7,5,5,7,5,5,7,7,0,0,0,0,0,0,0,0,0,0,0,0,0,0,0,0,0,0,0,0,0,0,0,0,0,0,0,0,0,0,0,0],"split_type":[0,0,0,0,0,0,0,0,0,0,0,0,0,0,0,0,0,0,0,0,0,0,0,0,0,0,0,0,0,0,0,0,0,0,0,0,0,0,0,0,0,0,0,0,0,0,0,0,0,0,0,0,0,0,0,0,0,0,0,0,0,0,0],"sum_hessian":[7.861368E3,1.9617404E3,5.899628E3,8.327256E2,1.1290148E3,2.5578083E3,3.3418196E3,4.1894092E2,4.1378464E2,5.943034E2,5.3471136E2,1.3529546E3,1.2048538E3,1.8348599E3,1.5069597E3,2.1569135E2,2.0324956E2,2.1276666E2,2.0101799E2,3.1435858E2,2.7994485E2,2.8056998E2,2.5414137E2,7.041826E2,6.48772E2,6.5260944E2,5.522443E2,9.7251685E2,8.62343E2,8.115776E2,6.953822E2,1.08868416E2,1.0682293E2,1.0217633E2,1.0107323E2,6.0112514E1,1.5265414E2,1.7946701E2,2.1550974E1,1.6379514E2,1.5056343E2,2.1581339E1,2.5836353E2,1.5173633E2,1.2883365E2,1.4135995E2,1.1278142E2,3.5611838E2,3.480642E2,3.350171E2,3.1375488E2,3.3764218E2,3.1496725E2,2.8602634E2,2.66218E2,5.12848E2,4.5966885E2,4.5851578E2,4.0382724E2,4.1347247E2,3.9810507E2,3.574051E2,3.379771E2],"tree_param":{"num_deleted":"0","num_feature":"9","num_nodes":"63","size_leaf_vector":"1"}},{"base_weights":[1.7784917E-3,-7.5060993E-1,2.4738416E-1,-9.5754796E-1,-5.8816695E-1,-6.592601E-2,4.8673233E-1,-1.0820527E0,-8.258378E-1,-7.717192E-1,-3.8929406E-1,-2.620911E-1,1.5819852E-1,2.3350859E-1,7.80118E-1,-1.1873683E0,-9.665843E-1,-9.3758506E-1,-7.31987E-1,-8.776863E-1,-6.530778E-1,-5.478704E-1,-2.109504E-1,-4.3187976E-1,-8.499535E-2,-6.909798E-2,4.059544E-1,5.212655E-2,4.4274393E-1,5.8419734E-1,9.9420846E-1,-4.847301E-2,-6.2706694E-2,-5.0752282E-2,-4.0275503E-2,-3.6780488E-2,-5.1155265E-2,-3.8885888E-2,-2.3653142E-2,-6.436645E-2,-4.2463616E-2,-3.618554E-2,-2.4146212E-2,-3.364473E-2,-2.0886315E-2,-2.0658165E-2,1.8673557E-3,-3.0645823E-2,-1.2184796E-2,-9.362849E-3,6.35745E-3,-1.1252515E-2,5.1020957E-3,7.537854E-3,3.4063186E-2,-8.141212E-3,1.4418743E-2,1.5269928E-2,2.9605776E-2,2.446139E-2,3.8985003E-2,3.8069244E-2,6.228864E-2],"categories":[],"categories_nodes":[],"categories_segments":[],"categories_sizes":[],"default_left":[0,0,0,0,0,0,0,0,0,0,0,0,0,0,0,0,0,0,0,0,1,0,0,0,1,0,0,0,0,1,0,0,0,0,0,0,0,0,0,0,0,0,0,0,0,0,0,0,0,0,0,0,0,0,0,0,0,0,0,0,0,0,0],"id":9,"left_children":[1,3,5,7,9,11,13,15,17,19,21,23,25,27,29,31,33,35,37,39,41,43,45,47,49,51,53,55,57,59,61,-1,-1,-1,-1,-1,-1,-1,-1,-1,-1,-1,-1,-1,-1,-1,-1,-1,-1,-1,-1,-1,-1,-1,-1,-1,-1,-1,-1,-1,-1,-1,-1],"loss_changes":[1.4533152E3,6.449939E1,4.44661E2,1.3038269E1,3.937555E1,1.1297594E2,2.4954712E2,4.124054E0,3.6877441E0,6.5200806E0,1.4695244E1,4.116281E1,6.757892E1,6.850375E1,6.4718994E1,2.019043E0,8.38501E-1,2.4743347E0,2.370224E0,2.3417053E0,2.8966064E0,4.2192993E0,1.2472939E1,2.36736E1,1.4600168E1,1.6742826E1,4.0231415E1,4.9220463E1,1.7017532E1,1.475647E1,4.2538757E1,0E0,0E0,0E0,0E0,0E0,0E0,0E0,0E0,0E0,0E0,0E0,0E0,0E0,0E0,0E0,0E0,0E0,0E0,0E0,0E0,0E0,0E0,0E0,0E0,0E0,0E0,0E0,0E0,0E0,0E0,0E0,0E0],"parents":[2147483647,0,0,1,1,2,2,3,3,4,4,5,5,6,6,7,7,8,8,9,9,10,10,11,11,12,12,13,13,14,14,15,15,16,16,17,17,18,18,19,19,20,20,21,21,22,22,23,23,24,24,25,25,26,26,27,27,28,28,29,29,30,30],"right_children":[2,4,6,8,10,12,14,16,18,20,22,24,26,28,30,32,34,36,38,40,42,44,46,48,50,52,54,56,58,60,62,-1,-1,-1,-1,-1,-1,-1,-1,-1,-1,-1,-1,-1,-1,-1,-1,-1,-1,-1,-1,-1,-1,-1,-1,-1,-1,-1,-1,-1,-1,-1,-1],"split_conditions":[2.004412E1,5.3E1,5.1E1,1E0,1E0,1E0,1E0,1E0,8.727199E0,1E0,1E0,1E0,1E0,1E0,1E0,2.8E1,4.4E1,2.8459399E0,4.7E1,9.252703E-1,2E0,1E0,1E0,1E0,2E0,1E0,1E0,1E0,1E0,2E0,1E0,-4.847301E-2,-6.2706694E-2,-5.0752282E-2,-4.0275503E-2,-3.6780488E-2,-5.1155265E-2,-3.8885888E-2,-2.3653142E-2,-6.436645E-2,-4.2463616E-2,-3.618554E-2,-2.4146212E-2,-3.364473E-2,-2.0886315E-2,-2.0658165E-2,1.8673557E-3,-3.0645823E-2,-1.2184796E-2,-9.362849E-3,6.35745E-3,-1.1252515E-2,5.1020957E-3,7.537854E-3,3.4063186E-2,-8.141212E-3,1.4418743E-2,1.5269928E-2,2.9605776E-2,2.446139E-2,3.8985003E-2,3.8069244E-2,6.228864E-2],"split_indices":[1,0,0,3,3,3,3,5,1,5,7,7,5,5,7,0,0,1,0,1,4,2,5,5,4,7,7,7,7,4,5,0,0,0,0,0,0,0,0,0,0,0,0,0,0,0,0,0,0,0,0,0,0,0,0,0,0,0,0,0,0,0,0],"split_type":[0,0,0,0,0,0,0,0,0,0,0,0,0,0,0,0,0,0,0,0,0,0,0,0,0,0,0,0,0,0,0,0,0,0,0,0,0,0,0,0,0,0,0,0,0,0,0,0,0,0,0,0,0,0,0,0,0,0,0,0,0,0,0],"sum_hessian":[7.8626436E3,1.9344852E3,5.9281587E3,8.485775E2,1.0859077E3,2.567712E3,3.3604465E3,4.3251163E2,4.1606586E2,5.6320764E2,5.2270013E2,1.3691731E3,1.1985388E3,1.8046409E3,1.5558057E3,2.2134546E2,2.1116617E2,1.8582068E2,2.3024518E2,2.941149E2,2.690927E2,2.7558688E2,2.4711325E2,6.982728E2,6.709003E2,6.254546E2,5.730842E2,9.6733026E2,8.373106E2,8.14323E2,7.4148267E2,5.555296E1,1.657925E2,1.5825221E2,5.2913956E1,5.813149E1,1.2768919E2,1.9398096E2,3.6264214E1,1.6203531E1,2.7791138E2,1.8785733E2,8.1235374E1,1.3843126E2,1.3715564E2,1.358298E2,1.11283455E2,3.547444E2,3.435284E2,4.527668E2,2.1813347E2,3.2708304E2,2.9837155E2,2.982083E2,2.7487592E2,5.066578E2,4.6067245E2,4.378018E2,3.9950882E2,5.5043835E2,2.6388464E2,3.8717627E2,3.5430643E2],"tree_param":{"num_deleted":"0","num_feature":"9","num_nodes":"63","size_leaf_vector":"1"}},{"base_weights":[2.9250658E-3,-7.072112E-1,2.3700413E-1,-8.783005E-1,-5.191256E-1,-2.700133E-2,5.479611E-1,-1.034448E0,-7.1156585E-1,-7.506181E-1,-3.0746633E-1,-3.2213834E-1,1.9684276E-1,2.0889364E-1,8.1650347E-1,-1.1577458E0,-7.563448E-1,-8.992225E-1,-5.671877E-1,-9.0887696E-1,-5.8120954E-1,-5.0134784E-1,-8.185364E-2,-5.018712E-1,-1.255624E-1,2.5565913E-2,6.0079736E-1,3.6783032E-2,5.9034324E-1,5.411473E-1,1.1457325E0,-6.403803E-2,-5.3096067E-2,-4.5156047E-2,-2.9210139E-2,-4.8318952E-2,-2.9348297E-2,-3.3729594E-2,-2.2503786E-2,-5.1042628E-2,-3.9152946E-2,-3.5163842E-2,-1.4455271E-2,-3.059558E-2,-1.2634451E-2,-1.5884807E-2,8.903576E-3,-3.0955946E-2,-1.1784154E-2,-1.5865788E-2,3.9637513E-3,-9.6322475E-3,1.359488E-2,1.410839E-2,4.9468026E-2,-8.118917E-3,1.3374343E-2,1.5479249E-2,4.6431314E-2,1.7737862E-2,4.812273E-2,4.6498965E-2,6.850395E-2],"categories":[],"categories_nodes":[],"categories_segments":[],"categories_sizes":[],"default_left":[0,0,0,0,0,0,0,0,0,0,0,0,0,0,0,0,0,0,0,0,0,0,0,0,0,0,0,0,0,0,0,0,0,0,0,0,0,0,0,0,0,0,0,0,0,0,0,0,0,0,0,0,0,0,0,0,0,0,0,0,0,0,0],"id":10,"left_children":[1,3,5,7,9,11,13,15,17,19,21,23,25,27,29,31,33,35,37,39,41,43,45,47,49,51,53,55,57,59,61,-1,-1,-1,-1,-1,-1,-1,-1,-1,-1,-1,-1,-1,-1,-1,-1,-1,-1,-1,-1,-1,-1,-1,-1,-1,-1,-1,-1,-1,-1,-1,-1],"loss_changes":[1.2923075E3,6.1564087E1,4.8001874E2,2.5502563E1,4.4871613E1,2.0903757E2,2.4429144E2,1.6894104E1,1.2781769E1,1.1240433E1,2.1066463E1,4.8153503E1,1.2448667E2,7.796792E1,1.351698E2,2.850006E0,3.5672379E0,3.8703003E0,3.2179947E0,2.3729706E0,7.4551315E0,6.974968E0,1.3801389E1,2.2093018E1,2.567952E1,6.803385E1,6.6051285E1,3.770425E1,3.4785248E1,6.385997E1,3.170337E1,0E0,0E0,0E0,0E0,0E0,0E0,0E0,0E0,0E0,0E0,0E0,0E0,0E0,0E0,0E0,0E0,0E0,0E0,0E0,0E0,0E0,0E0,0E0,0E0,0E0,0E0,0E0,0E0,0E0,0E0,0E0,0E0],"parents":[2147483647,0,0,1,1,2,2,3,3,4,4,5,5,6,6,7,7,8,8,9,9,10,10,11,11,12,12,13,13,14,14,15,15,16,16,17,17,18,18,19,19,20,20,21,21,22,22,23,23,24,24,25,25,26,26,27,27,28,28,29,29,30,30],"right_children":[2,4,6,8,10,12,14,16,18,20,22,24,26,28,30,32,34,36,38,40,42,44,46,48,50,52,54,56,58,60,62,-1,-1,-1,-1,-1,-1,-1,-1,-1,-1,-1,-1,-1,-1,-1,-1,-1,-1,-1,-1,-1,-1,-1,-1,-1,-1,-1,-1,-1,-1,-1,-1],"split_conditions":[2.004412E1,1E0,1E0,1E0,5.5E1,5.1E1,5.1E1,2E0,5.1E1,1E0,1E0,1E0,2E0,2E0,1E0,5.3E1,1E0,1.5624988E1,1E0,1E0,2E0,2E0,1E0,2E0,1E0,1E0,1E0,1E0,1E0,2E0,1E0,-6.403803E-2,-5.3096067E-2,-4.5156047E-2,-2.9210139E-2,-4.8318952E-2,-2.9348297E-2,-3.3729594E-2,-2.2503786E-2,-5.1042628E-2,-3.9152946E-2,-3.5163842E-2,-1.4455271E-2,-3.059558E-2,-1.2634451E-2,-1.5884807E-2,8.903576E-3,-3.0955946E-2,-1.1784154E-2,-1.5865788E-2,3.9637513E-3,-9.6322475E-3,1.359488E-2,1.410839E-2,4.9468026E-2,-8.118917E-3,1.3374343E-2,1.5479249E-2,4.6431314E-2,1.7737862E-2,4.812273E-2,4.6498965E-2,6.850395E-2],"split_indices":[1,3,6,6,0,0,0,8,0,6,6,3,8,8,3,0,5,1,5,7,8,8,7,8,5,3,3,3,3,8,7,0,0,0,0,0,0,0,0,0,0,0,0,0,0,0,0,0,0,0,0,0,0,0,0,0,0,0,0,0,0,0,0],"split_type":[0,0,0,0,0,0,0,0,0,0,0,0,0,0,0,0,0,0,0,0,0,0,0,0,0,0,0,0,0,0,0,0,0,0,0,0,0,0,0,0,0,0,0,0,0,0,0,0,0,0,0,0,0,0,0,0,0,0,0,0,0,0,0],"sum_hessian":[7.7722974E3,1.926318E3,5.8459795E3,1.0068145E3,9.195034E2,3.1621753E3,2.683804E3,5.172262E2,4.8958835E2,4.3795932E2,4.815441E2,1.3637028E3,1.7984725E3,1.1869335E3,1.4968705E3,3.5615912E2,1.6106705E2,2.1061348E2,2.7897488E2,2.2417421E2,2.1378513E2,2.5832712E2,2.2321698E2,7.1155884E2,6.52144E2,1.2637188E3,5.347538E2,8.1865265E2,3.6828082E2,8.1656586E2,6.803047E2,1.5053902E2,2.056201E2,8.4646904E1,7.642015E1,1.7161064E2,3.9002834E1,1.4303575E2,1.3593912E2,1.14848045E2,1.09326164E2,1.4978423E2,6.400089E1,1.7780638E2,8.052072E1,1.16913506E2,1.06303474E2,4.9305664E2,2.1850217E2,3.3654596E2,3.1559805E2,6.702242E2,5.9349457E2,2.9476596E2,2.3998781E2,4.395206E2,3.7913202E2,2.0229832E2,1.6598248E2,5.6738965E2,2.4917616E2,3.4941702E2,3.3088766E2],"tree_param":{"num_deleted":"0","num_feature":"9","num_nodes":"63","size_leaf_vector":"1"}},{"base_weights":[-2.0080584E-3,-6.7707163E-1,2.2333454E-1,-8.922546E-1,-5.218608E-1,-1.4291995E-2,5.06985E-1,-1.0078408E0,-6.3774705E-1,-7.004461E-1,-3.2347763E-1,-2.7784756E-1,1.8395036E-1,2.1854198E-1,7.672357E-1,-1.1466401E0,-8.602863E-1,-8.268937E-1,-4.3715915E-1,-8.402782E-1,-5.390916E-1,-4.5194367E-1,-4.2978987E-2,-4.6211734E-1,-7.274698E-2,1.1130709E-2,5.899482E-1,6.0486138E-2,5.734656E-1,5.233106E-1,1.0622394E0,-6.44839E-2,-4.9514953E-2,-5.035926E-2,-3.4179702E-2,2.7958503E-2,-4.3018E-2,-3.3092402E-2,-9.8434705E-3,-4.7514454E-2,-2.9559745E-2,-3.167505E-2,-2.1682544E-2,-3.0174488E-2,-1.3790049E-2,-1.24529265E-2,9.786245E-3,-2.8110517E-2,-1.2181628E-2,-1.3563422E-2,7.4102515E-3,-9.611948E-3,1.213715E-2,1.3261124E-2,4.939863E-2,-7.726365E-3,1.47623345E-2,1.5441665E-2,4.4608455E-2,1.6906738E-2,4.7078013E-2,4.0910188E-2,6.607044E-2],"categories":[],"categories_nodes":[],"categories_segments":[],"categories_sizes":[],"default_left":[0,0,0,0,0,0,0,0,0,0,0,0,0,0,0,0,0,0,0,0,0,0,0,0,0,0,0,0,0,0,0,0,0,0,0,0,0,0,0,0,0,0,0,0,0,0,0,0,0,0,0,0,0,0,0,0,0,0,0,0,0,0,0],"id":11,"left_children":[1,3,5,7,9,11,13,15,17,19,21,23,25,27,29,31,33,35,37,39,41,43,45,47,49,51,53,55,57,59,61,-1,-1,-1,-1,-1,-1,-1,-1,-1,-1,-1,-1,-1,-1,-1,-1,-1,-1,-1,-1,-1,-1,-1,-1,-1,-1,-1,-1,-1,-1,-1,-1],"loss_changes":[1.1854987E3,6.467438E1,3.938276E2,2.3358398E1,4.0002045E1,1.6621483E2,1.9977362E2,1.0469238E1,9.409569E0,1.3010193E1,1.943156E1,5.1579453E1,1.2738731E2,7.091304E1,1.00170044E2,5.101074E0,6.4526215E0,6.577484E0,6.732397E0,8.148773E0,2.5107956E0,9.713486E0,8.444136E0,1.5590347E1,2.844111E1,6.0082287E1,6.9801865E1,4.4271152E1,3.2579468E1,5.917778E1,3.892749E1,0E0,0E0,0E0,0E0,0E0,0E0,0E0,0E0,0E0,0E0,0E0,0E0,0E0,0E0,0E0,0E0,0E0,0E0,0E0,0E0,0E0,0E0,0E0,0E0,0E0,0E0,0E0,0E0,0E0,0E0,0E0,0E0],"parents":[2147483647,0,0,1,1,2,2,3,3,4,4,5,5,6,6,7,7,8,8,9,9,10,10,11,11,12,12,13,13,14,14,15,15,16,16,17,17,18,18,19,19,20,20,21,21,22,22,23,23,24,24,25,25,26,26,27,27,28,28,29,29,30,30],"right_children":[2,4,6,8,10,12,14,16,18,20,22,24,26,28,30,32,34,36,38,40,42,44,46,48,50,52,54,56,58,60,62,-1,-1,-1,-1,-1,-1,-1,-1,-1,-1,-1,-1,-1,-1,-1,-1,-1,-1,-1,-1,-1,-1,-1,-1,-1,-1,-1,-1,-1,-1,-1,-1],"split_conditions":[2.0376812E1,5.1E1,1E0,2E0,1E0,5.1E1,5.4E1,1E0,1E0,1E0,2E0,1E0,2E0,2E0,1E0,1E0,1E0,1.9E1,1E0,2E0,1E0,1E0,1E0,2E0,1E0,1E0,1E0,1E0,1E0,2E0,1E0,-6.44839E-2,-4.9514953E-2,-5.035926E-2,-3.4179702E-2,2.7958503E-2,-4.3018E-2,-3.3092402E-2,-9.8434705E-3,-4.7514454E-2,-2.9559745E-2,-3.167505E-2,-2.1682544E-2,-3.0174488E-2,-1.3790049E-2,-1.24529265E-2,9.786245E-3,-2.8110517E-2,-1.2181628E-2,-1.3563422E-2,7.4102515E-3,-9.611948E-3,1.213715E-2,1.3261124E-2,4.939863E-2,-7.726365E-3,1.47623345E-2,1.5441665E-2,4.4608455E-2,1.6906738E-2,4.7078013E-2,4.0910188E-2,6.607044E-2],"split_indices":[1,0,6,8,3,0,0,6,6,6,8,3,8,8,3,5,3,0,3,8,5,5,6,8,7,3,3,5,3,8,7,0,0,0,0,0,0,0,0,0,0,0,0,0,0,0,0,0,0,0,0,0,0,0,0,0,0,0,0,0,0,0,0],"split_type":[0,0,0,0,0,0,0,0,0,0,0,0,0,0,0,0,0,0,0,0,0,0,0,0,0,0,0,0,0,0,0,0,0,0,0,0,0,0,0,0,0,0,0,0,0,0,0,0,0,0,0,0,0,0,0,0,0,0,0,0,0,0,0],"sum_hessian":[7.7911567E3,1.9493733E3,5.8417837E3,8.14881E2,1.1344923E3,3.1792964E3,2.6624873E3,5.5834515E2,2.5653583E2,5.957051E2,5.3878723E2,1.364648E3,1.8146483E3,1.2637158E3,1.3987715E3,2.8421912E2,2.7412604E2,1.304264E2,1.2610941E2,3.168826E2,2.788225E2,3.691215E2,1.6966576E2,7.181673E2,6.464807E2,1.2735627E3,5.410856E2,8.7515784E2,3.8855798E2,7.671905E2,6.31581E2,1.4463866E2,1.3958047E2,1.4711603E2,1.2701002E2,2.7045457E0,1.2772186E2,6.426368E1,6.184573E1,2.1785083E2,9.9031746E1,1.4446428E2,1.3435825E2,1.9710991E2,1.7201158E2,9.103199E1,7.863376E1,4.9144952E2,2.2671777E2,3.4040506E2,3.0607562E2,6.78217E2,5.953458E2,2.9889792E2,2.4218762E2,4.56969E2,4.1818884E2,2.133631E2,1.751949E2,5.330129E2,2.3417758E2,3.2742877E2,3.041522E2],"tree_param":{"num_deleted":"0","num_feature":"9","num_nodes":"63","size_leaf_vector":"1"}},{"base_weights":[-1.2695393E-2,-2.1399634E-1,2.2317679E-1,-4.4452542E-1,-4.4511154E-2,-5.386715E-2,4.4639274E-1,-5.533669E-1,-2.0484594E-1,-2.5542372E-1,1.9744214E-1,-1.9938062E-1,2.792174E-1,2.2492854E-1,7.120722E-1,-6.8500286E-1,-4.2039067E-1,-4.1395965E-1,2.2281574E-2,-3.7120205E-1,9.840605E-3,3.347046E-2,5.8537143E-1,-3.6712167E-1,-9.953652E-3,4.6850078E-2,5.255671E-1,7.7025786E-2,5.496056E-1,5.0045496E-1,9.5005125E-1,-4.0361144E-2,-2.7861461E-2,-2.7647568E-2,-1.38039505E-2,-2.9016742E-2,-1.2335197E-2,-9.816272E-3,1.4680876E-2,-2.4009014E-2,-1.2764699E-2,-6.745537E-3,1.608101E-2,-5.4613925E-3,9.188012E-3,1.679018E-2,4.3253716E-2,-2.6755368E-2,-9.120818E-3,-9.796345E-3,1.0007122E-2,-9.897224E-3,1.6382487E-2,1.689801E-2,3.6701366E-2,-2.9039723E-3,1.1089664E-2,1.2604914E-2,4.5701638E-2,1.652919E-2,4.5012828E-2,3.57405E-2,6.0086753E-2],"categories":[],"categories_nodes":[],"categories_segments":[],"categories_sizes":[],"default_left":[0,0,0,0,0,0,0,0,0,0,0,0,0,0,0,0,0,0,0,0,1,0,0,0,0,0,0,0,0,0,0,0,0,0,0,0,0,0,0,0,0,0,0,0,0,0,0,0,0,0,0,0,0,0,0,0,0,0,0,0,0,0,0],"id":12,"left_children":[1,3,5,7,9,11,13,15,17,19,21,23,25,27,29,31,33,35,37,39,41,43,45,47,49,51,53,55,57,59,61,-1,-1,-1,-1,-1,-1,-1,-1,-1,-1,-1,-1,-1,-1,-1,-1,-1,-1,-1,-1,-1,-1,-1,-1,-1,-1,-1,-1,-1,-1,-1,-1],"loss_changes":[3.6916803E2,1.6388014E2,2.2142061E2,4.625009E1,1.2347603E2,7.752446E1,1.1650336E2,2.1096191E1,2.6446026E1,3.9703224E1,7.166782E1,3.5360355E1,2.7817394E1,5.195595E1,4.4896484E1,9.11261E0,1.152272E1,7.922596E0,1.59403925E1,1.1244553E1,1.7813068E1,1.7031559E1,2.3078285E1,1.8216278E1,2.050219E1,1.7344944E1,8.981079E0,1.4586227E1,3.6494568E1,3.2233437E1,2.4182068E1,0E0,0E0,0E0,0E0,0E0,0E0,0E0,0E0,0E0,0E0,0E0,0E0,0E0,0E0,0E0,0E0,0E0,0E0,0E0,0E0,0E0,0E0,0E0,0E0,0E0,0E0,0E0,0E0,0E0,0E0,0E0,0E0],"parents":[2147483647,0,0,1,1,2,2,3,3,4,4,5,5,6,6,7,7,8,8,9,9,10,10,11,11,12,12,13,13,14,14,15,15,16,16,17,17,18,18,19,19,20,20,21,21,22,22,23,23,24,24,25,25,26,26,27,27,28,28,29,29,30,30],"right_children":[2,4,6,8,10,12,14,16,18,20,22,24,26,28,30,32,34,36,38,40,42,44,46,48,50,52,54,56,58,60,62,-1,-1,-1,-1,-1,-1,-1,-1,-1,-1,-1,-1,-1,-1,-1,-1,-1,-1,-1,-1,-1,-1,-1,-1,-1,-1,-1,-1,-1,-1,-1,-1],"split_conditions":[1E0,5.1E1,5.1E1,2E0,1E0,2E0,1E0,1E0,1E0,2E0,2E0,1E0,1E0,2E0,1E0,1E0,1E0,1E0,1E0,1E0,2E0,1E0,1E0,1E0,1E0,1E0,1E0,1E0,1E0,2E0,1E0,-4.0361144E-2,-2.7861461E-2,-2.7647568E-2,-1.38039505E-2,-2.9016742E-2,-1.2335197E-2,-9.816272E-3,1.4680876E-2,-2.4009014E-2,-1.2764699E-2,-6.745537E-3,1.608101E-2,-5.4613925E-3,9.188012E-3,1.679018E-2,4.3253716E-2,-2.6755368E-2,-9.120818E-3,-9.796345E-3,1.0007122E-2,-9.897224E-3,1.6382487E-2,1.689801E-2,3.6701366E-2,-2.9039723E-3,1.1089664E-2,1.2604914E-2,4.5701638E-2,1.652919E-2,4.5012828E-2,3.57405E-2,6.0086753E-2],"split_indices":[6,0,0,8,3,8,3,7,5,8,8,7,5,8,5,5,3,3,7,5,4,7,7,5,3,3,3,7,5,8,7,0,0,0,0,0,0,0,0,0,0,0,0,0,0,0,0,0,0,0,0,0,0,0,0,0,0,0,0,0,0,0,0],"split_type":[0,0,0,0,0,0,0,0,0,0,0,0,0,0,0,0,0,0,0,0,0,0,0,0,0,0,0,0,0,0,0,0,0,0,0,0,0,0,0,0,0,0,0,0,0,0,0,0,0,0,0,0,0,0,0,0,0,0,0,0,0,0,0],"sum_hessian":[7.7730137E3,4.193898E3,3.5791155E3,1.776258E3,2.4176401E3,1.5973398E3,1.9817758E3,1.220641E3,5.556172E2,1.2916462E3,1.1259938E3,1.1119622E3,4.853776E2,1.0818322E3,8.999436E2,6.1132544E2,6.093155E2,2.888519E2,2.6676526E2,8.9890656E2,3.9273975E2,7.922207E2,3.337731E2,5.892407E2,5.227215E2,2.5038977E2,2.3498782E2,7.441025E2,3.377297E2,4.779981E2,4.219455E2,3.0973532E2,3.0159012E2,3.1611212E2,2.9320337E2,1.43569E2,1.4528291E2,1.4789072E2,1.1887455E2,4.616834E2,4.3722314E2,2.68602E2,1.2413776E2,4.0651392E2,3.857068E2,1.7755147E2,1.5622162E2,3.0759357E2,2.8164716E2,2.7731485E2,2.4540665E2,1.3392883E2,1.1646094E2,1.2505967E2,1.0992816E2,3.852056E2,3.5889688E2,1.8686803E2,1.508617E2,3.367456E2,1.4125249E2,2.2008179E2,2.0186371E2],"tree_param":{"num_deleted":"0","num_feature":"9","num_nodes":"63","size_leaf_vector":"1"}},{"base_weights":[-2.4832764E-3,-6.5164787E-1,2.0743227E-1,-8.496651E-1,-5.079276E-1,-4.3903135E-2,4.031989E-1,-9.726768E-1,-7.259013E-1,-6.6527927E-1,-3.3561924E-1,-2.1477784E-1,1.4901033E-1,1.7303716E-1,6.8283445E-1,-1.0702778E0,-8.693298E-1,-8.045614E-1,-6.3949776E-1,-7.7906305E-1,-5.37261E-1,-4.803087E-1,-1.7897207E-1,-3.59473E-1,-6.6039555E-2,-5.0802547E-2,3.660564E-1,-1.0647277E-3,3.7044308E-1,4.957209E-1,8.8890874E-1,-4.388565E-2,-5.6732904E-2,-3.763996E-2,-4.864513E-2,-2.7758528E-2,-4.281479E-2,-3.887369E-2,-2.3964092E-2,-2.9146546E-2,-4.140937E-2,-2.4180455E-2,-3.6653973E-2,-1.423071E-2,-2.7846638E-2,-1.7217822E-2,1.0390186E-3,-2.5160884E-2,-1.0681999E-2,-8.488431E-3,7.6242588E-3,-1.05578555E-2,6.523119E-3,7.0654075E-3,3.0992081E-2,-9.823726E-3,1.0460798E-2,1.1110982E-2,2.649558E-2,1.7614324E-2,3.254875E-2,3.364734E-2,5.6384504E-2],"categories":[],"categories_nodes":[],"categories_segments":[],"categories_sizes":[],"default_left":[0,0,0,0,0,0,0,0,0,0,0,0,0,0,0,0,0,0,0,0,0,0,0,0,1,0,0,0,0,0,0,0,0,0,0,0,0,0,0,0,0,0,0,0,0,0,0,0,0,0,0,0,0,0,0,0,0,0,0,0,0,0,0],"id":13,"left_children":[1,3,5,7,9,11,13,15,17,19,21,23,25,27,29,31,33,35,37,39,41,43,45,47,49,51,53,55,57,59,61,-1,-1,-1,-1,-1,-1,-1,-1,-1,-1,-1,-1,-1,-1,-1,-1,-1,-1,-1,-1,-1,-1,-1,-1,-1,-1,-1,-1,-1,-1,-1,-1],"loss_changes":[1.0607517E3,5.3699463E1,2.8943762E2,1.1449707E1,2.9726349E1,8.496188E1,2.127063E2,3.0790405E0,2.2173157E0,7.9768066E0,1.19100685E1,2.9389378E1,5.2527946E1,6.238467E1,5.7111633E1,1.4848633E0,1.6620636E0,2.1892395E0,3.9694061E0,2.435791E0,2.5286865E0,3.9582329E0,8.455374E0,1.4409737E1,1.5329657E1,1.837702E1,3.302166E1,3.971439E1,1.99889E1,1.724121E1,3.580432E1,0E0,0E0,0E0,0E0,0E0,0E0,0E0,0E0,0E0,0E0,0E0,0E0,0E0,0E0,0E0,0E0,0E0,0E0,0E0,0E0,0E0,0E0,0E0,0E0,0E0,0E0,0E0,0E0,0E0,0E0,0E0,0E0],"parents":[2147483647,0,0,1,1,2,2,3,3,4,4,5,5,6,6,7,7,8,8,9,9,10,10,11,11,12,12,13,13,14,14,15,15,16,16,17,17,18,18,19,19,20,20,21,21,22,22,23,23,24,24,25,25,26,26,27,27,28,28,29,29,30,30],"right_children":[2,4,6,8,10,12,14,16,18,20,22,24,26,28,30,32,34,36,38,40,42,44,46,48,50,52,54,56,58,60,62,-1,-1,-1,-1,-1,-1,-1,-1,-1,-1,-1,-1,-1,-1,-1,-1,-1,-1,-1,-1,-1,-1,-1,-1,-1,-1,-1,-1,-1,-1,-1,-1],"split_conditions":[2.004412E1,5.1E1,5.1E1,1E0,1E0,1E0,1E0,1E0,1E0,1E0,1E0,1E0,1E0,1E0,1E0,2.8E1,1E0,2.5E1,1E0,6.2E1,9.2E1,6.5E1,1E0,1E0,2E0,1E0,1E0,1E0,1E0,1E0,1E0,-4.388565E-2,-5.6732904E-2,-3.763996E-2,-4.864513E-2,-2.7758528E-2,-4.281479E-2,-3.887369E-2,-2.3964092E-2,-2.9146546E-2,-4.140937E-2,-2.4180455E-2,-3.6653973E-2,-1.423071E-2,-2.7846638E-2,-1.7217822E-2,1.0390186E-3,-2.5160884E-2,-1.0681999E-2,-8.488431E-3,7.6242588E-3,-1.05578555E-2,6.523119E-3,7.0654075E-3,3.0992081E-2,-9.823726E-3,1.0460798E-2,1.1110982E-2,2.649558E-2,1.7614324E-2,3.254875E-2,3.364734E-2,5.6384504E-2],"split_indices":[1,0,0,3,3,3,3,5,5,5,7,7,5,5,5,0,2,0,7,0,0,0,5,5,4,7,7,7,7,7,7,0,0,0,0,0,0,0,0,0,0,0,0,0,0,0,0,0,0,0,0,0,0,0,0,0,0,0,0,0,0,0,0],"split_type":[0,0,0,0,0,0,0,0,0,0,0,0,0,0,0,0,0,0,0,0,0,0,0,0,0,0,0,0,0,0,0,0,0,0,0,0,0,0,0,0,0,0,0,0,0,0,0,0,0,0,0,0,0,0,0,0,0,0,0,0,0,0,0],"sum_hessian":[7.782214E3,1.9010635E3,5.8811504E3,7.974409E2,1.1036226E3,2.5754407E3,3.3057095E3,3.964955E2,4.009454E2,5.7535156E2,5.2827106E2,1.365672E3,1.2097687E3,1.8141459E3,1.4915637E3,1.9910466E2,1.9739084E2,2.0552652E2,1.9541888E2,3.0191837E2,2.734332E2,2.735429E2,2.5472815E2,6.915264E2,6.741455E2,6.302894E2,5.7947925E2,9.645005E2,8.496453E2,7.835305E2,7.0803314E2,5.3554283E1,1.4555038E2,9.677583E1,1.00615E2,3.7325714E1,1.682008E2,1.0292686E2,9.249202E1,6.3050762E1,2.3886761E2,2.173512E2,5.608199E1,7.829508E1,1.9524782E2,1.3895602E2,1.1577212E2,3.4702252E2,3.445039E2,4.5729868E2,2.1684686E2,3.3434708E2,2.9594235E2,3.081464E2,2.7133286E2,4.9996155E2,4.6453897E2,4.4158896E2,4.080564E2,4.089674E2,3.7456314E2,3.7378635E2,3.3424683E2],"tree_param":{"num_deleted":"0","num_feature":"9","num_nodes":"63","size_leaf_vector":"1"}},{"base_weights":[6.290374E-3,-6.3986313E-1,2.1627027E-1,-7.990375E-1,-4.6947336E-1,-2.305058E-3,4.7709516E-1,-9.942855E-1,-6.538377E-1,-6.481564E-1,-3.341312E-1,-2.3372044E-1,1.7231388E-1,1.9577603E-1,7.05644E-1,-1.073191E0,-8.1826305E-1,-7.5796956E-1,-4.2690346E-1,-7.6091796E-1,-3.8694212E-1,-4.896905E-1,-1.6211683E-1,-4.0609616E-1,-4.489905E-2,2.26716E-2,5.3238636E-1,1.6484851E-2,4.061942E-1,4.674581E-1,1.0079914E0,-5.9901703E-2,-4.7099706E-2,2.3908844E-2,-4.2354837E-2,-4.5458347E-2,-2.9625112E-2,9.284473E-3,-2.3915557E-2,-4.3348E-2,-3.2212444E-2,4.913469E-4,-2.535806E-2,-1.886954E-2,-2.8253635E-2,-1.3981836E-2,4.752542E-3,-2.6929228E-2,-1.3388649E-2,-1.2215359E-2,8.700658E-3,-6.7370073E-3,1.0132948E-2,1.2571359E-2,4.4264432E-2,-8.086724E-3,9.950954E-3,1.2198227E-2,3.9331343E-2,1.4673183E-2,4.307339E-2,4.2280246E-2,6.847798E-2],"categories":[],"categories_nodes":[],"categories_segments":[],"categories_sizes":[],"default_left":[0,0,0,0,0,0,0,0,0,0,0,0,0,0,0,0,0,0,0,0,0,0,0,0,0,0,0,0,0,0,0,0,0,0,0,0,0,0,0,0,0,0,0,0,0,0,0,0,0,0,0,0,0,0,0,0,0,0,0,0,0,0,0],"id":14,"left_children":[1,3,5,7,9,11,13,15,17,19,21,23,25,27,29,31,33,35,37,39,41,43,45,47,49,51,53,55,57,59,61,-1,-1,-1,-1,-1,-1,-1,-1,-1,-1,-1,-1,-1,-1,-1,-1,-1,-1,-1,-1,-1,-1,-1,-1,-1,-1,-1,-1,-1,-1,-1,-1],"loss_changes":[1.0444126E3,5.0829773E1,3.3120963E2,2.6982239E1,2.189392E1,1.2780836E2,1.7016913E2,4.868927E0,1.295488E1,1.128093E1,1.38965645E1,4.4253883E1,9.711744E1,4.4839375E1,1.04750305E2,3.4984436E0,5.3499603E0,9.065247E0,5.7267876E0,2.8246307E0,5.754076E0,2.1043472E0,7.567857E0,1.2884644E1,2.8428183E1,3.6135426E1,5.2245514E1,2.094577E1,3.3558167E1,5.5903458E1,3.65932E1,0E0,0E0,0E0,0E0,0E0,0E0,0E0,0E0,0E0,0E0,0E0,0E0,0E0,0E0,0E0,0E0,0E0,0E0,0E0,0E0,0E0,0E0,0E0,0E0,0E0,0E0,0E0,0E0,0E0,0E0,0E0,0E0],"parents":[2147483647,0,0,1,1,2,2,3,3,4,4,5,5,6,6,7,7,8,8,9,9,10,10,11,11,12,12,13,13,14,14,15,15,16,16,17,17,18,18,19,19,20,20,21,21,22,22,23,23,24,24,25,25,26,26,27,27,28,28,29,29,30,30],"right_children":[2,4,6,8,10,12,14,16,18,20,22,24,26,28,30,32,34,36,38,40,42,44,46,48,50,52,54,56,58,60,62,-1,-1,-1,-1,-1,-1,-1,-1,-1,-1,-1,-1,-1,-1,-1,-1,-1,-1,-1,-1,-1,-1,-1,-1,-1,-1,-1,-1,-1,-1,-1,-1],"split_conditions":[2.004412E1,1E0,1E0,5.3E1,5.1E1,5.1E1,5.1E1,2E0,2E0,2E0,1E0,1E0,2E0,1E0,1E0,1E0,1.9E1,1E0,1.8655168E0,1E0,2.7E1,7.3E1,2E0,1E0,1E0,1E0,1E0,1E0,2E0,2E0,2E0,-5.9901703E-2,-4.7099706E-2,2.3908844E-2,-4.2354837E-2,-4.5458347E-2,-2.9625112E-2,9.284473E-3,-2.3915557E-2,-4.3348E-2,-3.2212444E-2,4.913469E-4,-2.535806E-2,-1.886954E-2,-2.8253635E-2,-1.3981836E-2,4.752542E-3,-2.6929228E-2,-1.3388649E-2,-1.2215359E-2,8.700658E-3,-6.7370073E-3,1.0132948E-2,1.2571359E-2,4.4264432E-2,-8.086724E-3,9.950954E-3,1.2198227E-2,3.9331343E-2,1.4673183E-2,4.307339E-2,4.2280246E-2,6.847798E-2],"split_indices":[1,6,6,0,0,0,0,8,8,8,3,3,8,3,3,3,0,3,1,3,0,0,8,5,5,3,3,5,8,8,8,0,0,0,0,0,0,0,0,0,0,0,0,0,0,0,0,0,0,0,0,0,0,0,0,0,0,0,0,0,0,0,0],"split_type":[0,0,0,0,0,0,0,0,0,0,0,0,0,0,0,0,0,0,0,0,0,0,0,0,0,0,0,0,0,0,0,0,0,0,0,0,0,0,0,0,0,0,0,0,0,0,0,0,0,0,0,0,0,0,0,0,0,0,0,0,0,0,0],"sum_hessian":[7.6956396E3,1.8869719E3,5.8086675E3,9.7368616E2,9.132858E2,3.1608323E3,2.6478354E3,4.127798E2,5.609064E2,3.919853E2,5.2130054E2,1.3592006E3,1.8016317E3,1.1877272E3,1.4601083E3,2.8149655E2,1.3128322E2,3.8287766E2,1.7802872E2,2.7245734E2,1.1952798E2,2.7277377E2,2.4852675E2,7.099416E2,6.492589E2,1.2734587E3,5.281729E2,6.418791E2,5.458481E2,8.181361E2,6.419722E2,1.4007448E2,1.4142209E2,2.5172431E0,1.2876598E2,1.977171E2,1.8516055E2,1.3580955E1,1.6444777E2,1.3936014E2,1.3309718E2,2.800826E1,9.1519714E1,1.1197166E2,1.6080212E2,1.7051694E2,7.800981E1,3.6114087E2,3.4880075E2,3.3970453E2,3.0955438E2,6.7946747E2,5.939913E2,2.9501364E2,2.3315929E2,3.2483588E2,3.170432E2,3.8381662E2,1.6203145E2,5.687301E2,2.49406E2,4.453131E2,1.9665913E2],"tree_param":{"num_deleted":"0","num_feature":"9","num_nodes":"63","size_leaf_vector":"1"}},{"base_weights":[2.0616795E-3,-5.8991516E-1,1.9563012E-1,-7.768981E-1,-4.5805934E-1,5.941821E-2,5.140454E-1,-8.759143E-1,-5.616407E-1,-5.9580755E-1,-3.130005E-1,-1.605551E-1,2.2738779E-1,2.3979479E-1,7.303993E-1,-1.0124863E0,-7.34342E-1,-5.94004E-1,2.9504287E-1,-6.7078096E-1,-4.3905768E-1,-4.1870633E-1,-8.230544E-2,-3.1542698E-1,1.413292E-3,2.1945933E-2,4.7305396E-1,4.9118962E-2,4.640446E-1,4.9031168E-1,1.0278528E0,-4.2307116E-2,-5.2557003E-2,-3.80239E-2,-1.0746656E-2,1.3631271E-2,-3.1031106E-2,3.1771533E-2,-3.64518E-2,-3.9834466E-2,-2.6764235E-2,-2.8533164E-2,-1.6358322E-2,-1.0904219E-2,-2.406027E-2,-8.055446E-3,2.3696486E-2,-2.2507137E-2,-8.280936E-3,-7.275575E-3,8.310708E-3,-4.8766704E-3,7.7646947E-3,1.3306645E-2,3.4875203E-2,4.2313803E-2,5.829891E-4,1.0687452E-2,3.757141E-2,1.2134756E-2,3.7378017E-2,4.2624664E-2,6.1192393E-2],"categories":[],"categories_nodes":[],"categories_segments":[],"categories_sizes":[],"default_left":[0,0,0,0,0,0,0,0,0,0,0,0,0,0,0,0,0,0,0,0,0,0,0,0,0,0,0,0,0,0,0,0,0,0,0,0,0,0,0,0,0,0,0,0,0,0,0,0,0,0,0,0,0,0,0,0,0,0,0,0,0,0,0],"id":15,"left_children":[1,3,5,7,9,11,13,15,17,19,21,23,25,27,29,31,33,35,37,39,41,43,45,47,49,51,53,55,57,59,61,-1,-1,-1,-1,-1,-1,-1,-1,-1,-1,-1,-1,-1,-1,-1,-1,-1,-1,-1,-1,-1,-1,-1,-1,-1,-1,-1,-1,-1,-1,-1,-1],"loss_changes":[8.7645514E2,4.6112305E1,2.4996503E2,1.6090363E1,2.1948105E1,1.4924171E2,1.0228674E2,9.525116E0,7.0485153E0,6.3699036E0,1.3174435E1,4.3873177E1,1.1557382E2,3.2602863E1,6.839856E1,8.317261E-1,3.4260406E0,5.687416E0,3.841913E0,6.085602E0,2.557743E0,4.549591E0,7.5915327E0,1.7969666E1,2.0748684E1,1.9902325E1,4.8251297E1,1.2337428E1,2.5052444E1,3.3948776E1,1.3736145E1,0E0,0E0,0E0,0E0,0E0,0E0,0E0,0E0,0E0,0E0,0E0,0E0,0E0,0E0,0E0,0E0,0E0,0E0,0E0,0E0,0E0,0E0,0E0,0E0,0E0,0E0,0E0,0E0,0E0,0E0,0E0,0E0],"parents":[2147483647,0,0,1,1,2,2,3,3,4,4,5,5,6,6,7,7,8,8,9,9,10,10,11,11,12,12,13,13,14,14,15,15,16,16,17,17,18,18,19,19,20,20,21,21,22,22,23,23,24,24,25,25,26,26,27,27,28,28,29,29,30,30],"right_children":[2,4,6,8,10,12,14,16,18,20,22,24,26,28,30,32,34,36,38,40,42,44,46,48,50,52,54,56,58,60,62,-1,-1,-1,-1,-1,-1,-1,-1,-1,-1,-1,-1,-1,-1,-1,-1,-1,-1,-1,-1,-1,-1,-1,-1,-1,-1,-1,-1,-1,-1,-1,-1],"split_conditions":[2.0376812E1,5.1E1,2E0,2E0,1E0,5.1E1,5.1E1,1E0,1.9417252E1,2E0,2E0,1E0,1E0,1E0,1E0,2.5E1,1.9417252E1,1.9E1,4.5E1,1E0,9.368231E0,6.4E1,9.5E1,1E0,1E0,1E0,1E0,2E1,1E0,1E0,1E0,-4.2307116E-2,-5.2557003E-2,-3.80239E-2,-1.0746656E-2,1.3631271E-2,-3.1031106E-2,3.1771533E-2,-3.64518E-2,-3.9834466E-2,-2.6764235E-2,-2.8533164E-2,-1.6358322E-2,-1.0904219E-2,-2.406027E-2,-8.055446E-3,2.3696486E-2,-2.2507137E-2,-8.280936E-3,-7.275575E-3,8.310708E-3,-4.8766704E-3,7.7646947E-3,1.3306645E-2,3.4875203E-2,4.2313803E-2,5.829891E-4,1.0687452E-2,3.757141E-2,1.2134756E-2,3.7378017E-2,4.2624664E-2,6.1192393E-2],"split_indices":[1,0,8,8,3,0,0,3,1,8,8,7,3,3,3,0,1,0,0,7,1,0,0,3,3,7,7,0,7,7,7,0,0,0,0,0,0,0,0,0,0,0,0,0,0,0,0,0,0,0,0,0,0,0,0,0,0,0,0,0,0,0,0],"split_type":[0,0,0,0,0,0,0,0,0,0,0,0,0,0,0,0,0,0,0,0,0,0,0,0,0,0,0,0,0,0,0,0,0,0,0,0,0,0,0,0,0,0,0,0,0,0,0,0,0,0,0,0,0,0,0,0,0,0,0,0,0,0,0],"sum_hessian":[7.6467427E3,1.883751E3,5.7629917E3,7.770025E2,1.1067484E3,4.0371594E3,1.7258323E3,5.3009503E2,2.469075E2,5.660852E2,5.406632E2,1.7480082E3,2.2891511E3,7.620124E2,9.638199E2,2.6668124E2,2.634138E2,2.3821497E2,8.692533E0,3.807117E2,1.8537354E2,3.7021402E2,1.7044922E2,8.9309546E2,8.549127E2,1.2472281E3,1.041923E3,4.124944E2,3.4951804E2,5.348043E2,4.2901556E2,5.4600697E1,2.1208054E2,2.5035225E2,1.3061556E1,6.8232217E0,2.3139175E2,6.8088784E0,1.8836542E0,1.9480841E2,1.8590329E2,8.329844E1,1.02075096E2,8.900321E1,2.812108E2,1.4991997E2,2.0529245E1,4.6917926E2,4.239162E2,4.5203094E2,4.0288174E2,6.5796356E2,5.892646E2,5.432683E2,4.986547E2,1.7544453E1,3.9494995E2,1.8774557E2,1.6177245E2,2.7349405E2,2.6131027E2,2.2925104E2,1.9976451E2],"tree_param":{"num_deleted":"0","num_feature":"9","num_nodes":"63","size_leaf_vector":"1"}},{"base_weights":[-3.8959635E-3,-5.884522E-1,1.875114E-1,-7.614437E-1,-4.67524E-1,4.792635E-2,5.145802E-1,-8.613417E-1,-5.49274E-1,-6.179315E-1,-3.0465868E-1,-1.57907E-1,2.0609711E-1,2.2513509E-1,7.350073E-1,-9.6857554E-1,-7.4828964E-1,1.3277881E-1,-5.7030636E-1,-6.8631524E-1,-4.6939442E-1,-4.3075475E-1,-1.5897638E-1,-3.1564644E-1,1.0160981E-2,3.449842E-2,3.9517984E-1,1.2860431E-2,4.6277252E-1,5.120558E-1,1.0200726E0,-5.2619185E-2,-4.3225538E-2,-4.3050982E-2,-3.139023E-2,3.289659E-2,-2.5861232E-2,-3.474441E-2,-2.171664E-2,-3.90124E-2,-2.9077439E-2,-3.0569155E-2,-1.4873293E-2,-3.244053E-2,-1.8410064E-2,-8.861597E-3,4.4968367E-2,-2.142969E-2,-9.593752E-3,-6.8376698E-3,9.053438E-3,-5.8870027E-3,1.0440824E-2,1.0792744E-2,3.0540986E-2,-8.37326E-3,9.918357E-3,1.0784273E-2,3.7397284E-2,1.4811371E-2,3.8765643E-2,4.2222496E-2,6.049071E-2],"categories":[],"categories_nodes":[],"categories_segments":[],"categories_sizes":[],"default_left":[0,0,0,0,0,0,0,0,0,0,0,0,0,0,0,0,0,0,0,0,0,0,0,0,0,0,0,0,0,0,0,0,0,0,0,0,0,0,0,0,0,0,0,0,0,0,0,0,0,0,0,0,0,0,0,0,0,0,0,0,0,0,0],"id":16,"left_children":[1,3,5,7,9,11,13,15,17,19,21,23,25,27,29,31,33,35,37,39,41,43,45,47,49,51,53,55,57,59,61,-1,-1,-1,-1,-1,-1,-1,-1,-1,-1,-1,-1,-1,-1,-1,-1,-1,-1,-1,-1,-1,-1,-1,-1,-1,-1,-1,-1,-1,-1,-1,-1],"loss_changes":[8.496689E2,3.8830322E1,2.6114874E2,1.5828247E1,2.6882156E1,1.3060646E2,1.0900372E2,5.5929565E0,3.6471176E0,5.5036316E0,9.714333E0,4.6220108E1,7.358554E1,3.7381947E1,6.1184143E1,1.3931274E0,2.9648285E0,3.1594095E0,3.7926025E0,3.3898773E0,4.3092537E0,3.6468658E0,4.9638124E0,1.248996E1,2.1241528E1,3.1611116E1,4.1596252E1,1.3163133E1,2.4477036E1,3.0839447E1,1.3143555E1,0E0,0E0,0E0,0E0,0E0,0E0,0E0,0E0,0E0,0E0,0E0,0E0,0E0,0E0,0E0,0E0,0E0,0E0,0E0,0E0,0E0,0E0,0E0,0E0,0E0,0E0,0E0,0E0,0E0,0E0,0E0,0E0],"parents":[2147483647,0,0,1,1,2,2,3,3,4,4,5,5,6,6,7,7,8,8,9,9,10,10,11,11,12,12,13,13,14,14,15,15,16,16,17,17,18,18,19,19,20,20,21,21,22,22,23,23,24,24,25,25,26,26,27,27,28,28,29,29,30,30],"right_children":[2,4,6,8,10,12,14,16,18,20,22,24,26,28,30,32,34,36,38,40,42,44,46,48,50,52,54,56,58,60,62,-1,-1,-1,-1,-1,-1,-1,-1,-1,-1,-1,-1,-1,-1,-1,-1,-1,-1,-1,-1,-1,-1,-1,-1,-1,-1,-1,-1,-1,-1,-1,-1],"split_conditions":[2.0376812E1,5.1E1,2E0,2E0,1E0,5.1E1,5E1,1E0,1.9E1,2E0,1E0,1E0,1E0,1E0,1E0,1E0,1E0,1.1934062E1,1E0,1E0,1E0,6.2E1,2.004412E1,1E0,1E0,1E0,1E0,1E0,1E0,1E0,1E0,-5.2619185E-2,-4.3225538E-2,-4.3050982E-2,-3.139023E-2,3.289659E-2,-2.5861232E-2,-3.474441E-2,-2.171664E-2,-3.90124E-2,-2.9077439E-2,-3.0569155E-2,-1.4873293E-2,-3.244053E-2,-1.8410064E-2,-8.861597E-3,4.4968367E-2,-2.142969E-2,-9.593752E-3,-6.8376698E-3,9.053438E-3,-5.8870027E-3,1.0440824E-2,1.0792744E-2,3.0540986E-2,-8.37326E-3,9.918357E-3,1.0784273E-2,3.7397284E-2,1.4811371E-2,3.8765643E-2,4.2222496E-2,6.049071E-2],"split_indices":[1,0,8,8,3,0,0,3,0,8,5,7,5,5,3,5,7,1,5,7,5,0,1,3,3,3,3,7,7,5,5,0,0,0,0,0,0,0,0,0,0,0,0,0,0,0,0,0,0,0,0,0,0,0,0,0,0,0,0,0,0,0,0],"split_type":[0,0,0,0,0,0,0,0,0,0,0,0,0,0,0,0,0,0,0,0,0,0,0,0,0,0,0,0,0,0,0,0,0,0,0,0,0,0,0,0,0,0,0,0,0,0,0,0,0,0,0,0,0,0,0,0,0,0,0,0,0,0,0],"sum_hessian":[7.5919116E3,1.8721893E3,5.7197227E3,7.681011E2,1.1040883E3,4.0096482E3,1.7100743E3,5.20139E2,2.4796207E2,5.7254443E2,5.315438E2,1.7423137E3,2.2673345E3,7.4017035E2,9.6990405E2,2.6305475E2,2.5708423E2,7.258681E0,2.4070338E2,3.8957205E2,1.8297241E2,2.8387637E2,2.4766747E2,8.9832074E2,8.43993E2,1.1892416E3,1.0780928E3,3.9150464E2,3.4866568E2,5.4581494E2,4.240891E2,1.4066118E2,1.22393585E2,1.2964119E2,1.2744304E2,4.0081806E0,3.2505002E0,1.2346845E2,1.1723494E2,2.0200702E2,1.8756503E2,9.881179E1,8.4160614E1,6.1192543E1,2.2268382E2,2.4428627E2,3.3811965E0,4.684107E2,4.2991E2,4.5396176E2,3.900312E2,6.3499835E2,5.542432E2,5.897014E2,4.8839142E2,1.9857397E2,1.9293066E2,1.8774829E2,1.6091737E2,3.0109262E2,2.4472229E2,2.2306923E2,2.0101988E2],"tree_param":{"num_deleted":"0","num_feature":"9","num_nodes":"63","size_leaf_vector":"1"}},{"base_weights":[-5.3690583E-4,-5.490322E-1,1.7478201E-1,-6.967284E-1,-3.9109316E-1,-3.5609636E-2,4.3049207E-1,-8.376724E-1,-5.5468965E-1,-5.362578E-1,-2.338606E-1,-2.2216013E-1,1.0415766E-1,1.8058927E-1,6.486614E-1,-9.47339E-1,-7.175473E-1,-7.666416E-1,-3.885436E-1,-7.143967E-1,-3.807328E-1,-3.6350644E-1,-8.649903E-2,-3.670689E-1,-6.370118E-2,-4.6688523E-2,2.8204477E-1,-3.0330531E-3,4.012141E-1,4.2480037E-1,9.3887544E-1,-5.6307137E-2,-4.141718E-2,-4.1112244E-2,-3.01011E-2,-3.9516784E-2,1.7968519E-2,-1.2482806E-2,-2.6728109E-2,-3.875419E-2,-2.2367138E-2,-1.1121704E-2,-2.3888139E-2,-2.4061194E-2,-7.81505E-3,-1.6205467E-2,5.2384376E-3,-2.4849547E-2,-1.1668336E-2,-1.22005185E-2,6.8886154E-3,-9.082787E-3,5.050631E-3,5.5463165E-3,2.3992555E-2,-7.849855E-3,7.860629E-3,9.15568E-3,3.2679632E-2,1.2202439E-2,3.0942544E-2,3.509405E-2,6.078127E-2],"categories":[],"categories_nodes":[],"categories_segments":[],"categories_sizes":[],"default_left":[0,0,0,0,0,0,0,0,0,0,0,0,0,0,0,0,0,0,0,0,0,0,0,0,0,0,0,0,0,0,0,0,0,0,0,0,0,0,0,0,0,0,0,0,0,0,0,0,0,0,0,0,0,0,0,0,0,0,0,0,0,0,0],"id":17,"left_children":[1,3,5,7,9,11,13,15,17,19,21,23,25,27,29,31,33,35,37,39,41,43,45,47,49,51,53,55,57,59,61,-1,-1,-1,-1,-1,-1,-1,-1,-1,-1,-1,-1,-1,-1,-1,-1,-1,-1,-1,-1,-1,-1,-1,-1,-1,-1,-1,-1,-1,-1,-1,-1],"loss_changes":[7.3275964E2,4.2782166E1,3.1067303E2,1.8603943E1,2.0284424E1,8.264625E1,1.4199493E2,5.592682E0,1.6512604E1,1.2587875E1,8.203341E0,3.1149574E1,4.864238E1,4.9275707E1,8.998724E1,4.29657E0,2.3032532E0,5.853142E0,5.3346252E0,3.1412125E0,3.7329788E0,5.5101566E0,9.261789E0,1.2198227E1,2.3634985E1,1.9584759E1,2.8099487E1,1.6426956E1,3.029168E1,2.7461212E1,3.882837E1,0E0,0E0,0E0,0E0,0E0,0E0,0E0,0E0,0E0,0E0,0E0,0E0,0E0,0E0,0E0,0E0,0E0,0E0,0E0,0E0,0E0,0E0,0E0,0E0,0E0,0E0,0E0,0E0,0E0,0E0,0E0,0E0],"parents":[2147483647,0,0,1,1,2,2,3,3,4,4,5,5,6,6,7,7,8,8,9,9,10,10,11,11,12,12,13,13,14,14,15,15,16,16,17,17,18,18,19,19,20,20,21,21,22,22,23,23,24,24,25,25,26,26,27,27,28,28,29,29,30,30],"right_children":[2,4,6,8,10,12,14,16,18,20,22,24,26,28,30,32,34,36,38,40,42,44,46,48,50,52,54,56,58,60,62,-1,-1,-1,-1,-1,-1,-1,-1,-1,-1,-1,-1,-1,-1,-1,-1,-1,-1,-1,-1,-1,-1,-1,-1,-1,-1,-1,-1,-1,-1,-1,-1],"split_conditions":[2.004412E1,1E0,1E0,1E0,1E0,5.1E1,5.2E1,1E0,5.4E1,5.4E1,1E0,1E0,1E0,1E0,1E0,5.1E1,1E0,1.9696922E1,1.0011432E1,1.5624988E1,7.3E1,7E1,5.1E1,1E0,1E0,1E0,1E0,1E0,1E0,1E0,1E0,-5.6307137E-2,-4.141718E-2,-4.1112244E-2,-3.01011E-2,-3.9516784E-2,1.7968519E-2,-1.2482806E-2,-2.6728109E-2,-3.875419E-2,-2.2367138E-2,-1.1121704E-2,-2.3888139E-2,-2.4061194E-2,-7.81505E-3,-1.6205467E-2,5.2384376E-3,-2.4849547E-2,-1.1668336E-2,-1.22005185E-2,6.8886154E-3,-9.082787E-3,5.050631E-3,5.5463165E-3,2.3992555E-2,-7.849855E-3,7.860629E-3,9.15568E-3,3.2679632E-2,1.2202439E-2,3.0942544E-2,3.509405E-2,6.078127E-2],"split_indices":[1,6,6,3,3,0,0,5,0,0,5,3,3,3,3,0,7,1,1,1,0,0,0,7,5,5,5,5,5,7,7,0,0,0,0,0,0,0,0,0,0,0,0,0,0,0,0,0,0,0,0,0,0,0,0,0,0,0,0,0,0,0,0],"split_type":[0,0,0,0,0,0,0,0,0,0,0,0,0,0,0,0,0,0,0,0,0,0,0,0,0,0,0,0,0,0,0,0,0,0,0,0,0,0,0,0,0,0,0,0,0,0,0,0,0,0,0,0,0,0,0,0,0,0,0,0,0,0,0],"sum_hessian":[7.618088E3,1.8447014E3,5.773386E3,9.514989E2,8.932026E2,3.1678347E3,2.6055518E3,4.7513177E2,4.7636713E2,4.631706E2,4.3003195E2,1.3565834E3,1.8112513E3,1.2153046E3,1.3902472E3,2.447785E2,2.3035327E2,2.077398E2,2.6862732E2,2.142148E2,2.489558E2,2.2798683E2,2.0204512E2,7.079005E2,6.4868286E2,9.8051965E2,8.307316E2,6.638116E2,5.51493E2,7.862359E2,6.040113E2,9.442724E1,1.5035126E2,1.1763042E2,1.12722855E2,2.0375052E2,3.9893003E0,1.3906424E2,1.2956308E2,1.7299901E2,4.1215786E1,9.585934E1,1.5309647E2,1.4454536E2,8.3441475E1,8.979679E1,1.1224832E2,3.5764758E2,3.5025296E2,3.4221005E2,3.064728E2,5.122254E2,4.6829425E2,4.462501E2,3.8448154E2,3.3855148E2,3.252601E2,2.967624E2,2.5473058E2,4.0823563E2,3.7800024E2,3.272809E2,2.7673038E2],"tree_param":{"num_deleted":"0","num_feature":"9","num_nodes":"63","size_leaf_vector":"1"}},{"base_weights":[-1.0949638E-2,-5.359867E-1,1.570227E-1,-6.8384445E-1,-3.80931E-1,-5.1910345E-2,4.117805E-1,-8.463276E-1,-5.7287174E-1,-5.601221E-1,-2.2080427E-1,-1.7046519E-1,2.2916514E-1,2.1492234E-1,6.622219E-1,-9.790009E-1,-7.091852E-1,-7.085229E-1,-4.324421E-1,-6.915518E-1,-4.2627132E-1,-3.1311834E-1,-1.5216752E-2,-3.4945402E-1,-3.863809E-2,-5.3407222E-2,4.4987783E-1,9.5678784E-2,4.8677424E-1,3.6898312E-1,9.2078525E-1,-5.5863984E-2,-4.192394E-2,-3.705976E-2,-1.8984295E-2,-4.0233407E-2,-2.52565E-2,-2.8268371E-3,-2.6479637E-2,-3.6200967E-2,-1.7523777E-2,-2.6114656E-2,-1.052266E-2,-2.1446181E-2,-9.01275E-3,-8.632078E-3,9.1376705E-3,-2.2963565E-2,-1.1782321E-2,-8.579572E-3,5.7002627E-3,-1.1639721E-2,7.1925693E-3,1.03539415E-2,3.839754E-2,-3.410415E-3,1.1650141E-2,1.2146606E-2,3.9858278E-2,1.0438966E-2,3.764719E-2,3.7998658E-2,6.4802304E-2],"categories":[],"categories_nodes":[],"categories_segments":[],"categories_sizes":[],"default_left":[0,0,0,0,0,0,0,0,0,0,0,0,0,0,0,0,0,0,0,0,0,0,0,0,0,0,0,0,0,0,0,0,0,0,0,0,0,0,0,0,0,0,0,0,0,0,0,0,0,0,0,0,0,0,0,0,0,0,0,0,0,0,0],"id":18,"left_children":[1,3,5,7,9,11,13,15,17,19,21,23,25,27,29,31,33,35,37,39,41,43,45,47,49,51,53,55,57,59,61,-1,-1,-1,-1,-1,-1,-1,-1,-1,-1,-1,-1,-1,-1,-1,-1,-1,-1,-1,-1,-1,-1,-1,-1,-1,-1,-1,-1,-1,-1,-1,-1],"loss_changes":[6.720704E2,4.2085938E1,3.0733115E2,1.654065E1,2.581073E1,1.05770584E2,1.2811987E2,6.239624E0,1.044014E1,7.1973267E0,9.085363E0,5.265719E1,5.8756313E1,4.72201E1,8.643625E1,2.77594E0,1.733284E0,5.1743164E0,1.0186508E1,2.1080704E0,4.3166695E0,5.007736E0,4.6899624E0,1.1722862E1,2.613022E1,1.467883E1,4.068197E1,2.2854084E1,3.3435745E1,3.2933365E1,3.5677734E1,0E0,0E0,0E0,0E0,0E0,0E0,0E0,0E0,0E0,0E0,0E0,0E0,0E0,0E0,0E0,0E0,0E0,0E0,0E0,0E0,0E0,0E0,0E0,0E0,0E0,0E0,0E0,0E0,0E0,0E0,0E0,0E0],"parents":[2147483647,0,0,1,1,2,2,3,3,4,4,5,5,6,6,7,7,8,8,9,9,10,10,11,11,12,12,13,13,14,14,15,15,16,16,17,17,18,18,19,19,20,20,21,21,22,22,23,23,24,24,25,25,26,26,27,27,28,28,29,29,30,30],"right_children":[2,4,6,8,10,12,14,16,18,20,22,24,26,28,30,32,34,36,38,40,42,44,46,48,50,52,54,56,58,60,62,-1,-1,-1,-1,-1,-1,-1,-1,-1,-1,-1,-1,-1,-1,-1,-1,-1,-1,-1,-1,-1,-1,-1,-1,-1,-1,-1,-1,-1,-1,-1,-1],"split_conditions":[2.004412E1,1E0,1E0,5.1E1,5.5E1,2E0,1E0,1E0,1E0,1E0,2E0,5.1E1,5E1,2E0,5.1E1,1E0,1.8217789E1,2E0,4.4319935E0,5.1E1,2E0,1E0,1E0,1E0,1E0,1E0,1E0,5.3E1,1E0,2E0,2E0,-5.5863984E-2,-4.192394E-2,-3.705976E-2,-1.8984295E-2,-4.0233407E-2,-2.52565E-2,-2.8268371E-3,-2.6479637E-2,-3.6200967E-2,-1.7523777E-2,-2.6114656E-2,-1.052266E-2,-2.1446181E-2,-9.01275E-3,-8.632078E-3,9.1376705E-3,-2.2963565E-2,-1.1782321E-2,-8.579572E-3,5.7002627E-3,-1.1639721E-2,7.1925693E-3,1.03539415E-2,3.839754E-2,-3.410415E-3,1.1650141E-2,1.2146606E-2,3.9858278E-2,1.0438966E-2,3.764719E-2,3.7998658E-2,6.4802304E-2],"split_indices":[1,6,6,0,0,8,3,5,3,3,8,0,0,8,0,3,1,8,1,0,8,5,5,5,3,5,3,0,5,8,8,0,0,0,0,0,0,0,0,0,0,0,0,0,0,0,0,0,0,0,0,0,0,0,0,0,0,0,0,0,0,0,0],"split_type":[0,0,0,0,0,0,0,0,0,0,0,0,0,0,0,0,0,0,0,0,0,0,0,0,0,0,0,0,0,0,0,0,0,0,0,0,0,0,0,0,0,0,0,0,0,0,0,0,0,0,0,0,0,0,0,0,0,0,0,0,0,0,0],"sum_hessian":[7.6186084E3,1.8460751E3,5.7725337E3,9.432256E2,9.028495E2,3.1719429E3,2.6005906E3,3.8008676E2,5.6313885E2,4.2488293E2,4.7796655E2,2.231227E3,9.407158E2,1.4571016E3,1.143489E3,1.9007106E2,1.900157E2,2.843852E2,2.7875366E2,2.1227792E2,2.1260501E2,3.2949277E2,1.4847375E2,9.4563544E2,1.2855916E3,4.128778E2,5.27838E2,1.0137764E3,4.433251E2,5.369532E2,6.065359E2,9.229681E1,9.7774254E1,1.7205185E2,1.7963846E1,1.9109642E2,9.328877E1,5.7572018E1,2.2118166E2,1.9280208E2,1.9475838E1,1.4615686E2,6.644816E1,1.7485703E2,1.5463576E2,8.277749E1,6.5696266E1,4.7970972E2,4.6592572E2,6.8704596E2,5.985456E2,2.1613985E2,1.9673795E2,3.0027557E2,2.2756244E2,4.624165E2,5.513599E2,2.4927689E2,1.940482E2,3.7996167E2,1.569915E2,4.2670377E2,1.7983212E2],"tree_param":{"num_deleted":"0","num_feature":"9","num_nodes":"63","size_leaf_vector":"1"}},{"base_weights":[2.1071192E-3,-4.996331E-1,1.6555583E-1,-6.664732E-1,-3.840449E-1,-3.0708646E-2,4.0678197E-1,-8.153322E-1,-5.137421E-1,-5.1760554E-1,-2.4652892E-1,-1.394528E-1,2.2382008E-1,1.5813363E-1,6.2600386E-1,-9.0344566E-1,-6.251322E-1,-6.137363E-1,-2.9463768E-1,-6.539896E-1,-3.6660573E-1,-3.552995E-1,-8.813601E-3,-2.9663786E-1,-2.4432212E-2,1.2289025E-2,4.563957E-1,2.861388E-2,4.5822915E-1,4.1024485E-1,9.1182E-1,-5.0227936E-2,-4.0093336E-2,3.1110525E-2,-3.2881428E-2,-3.7024684E-2,-2.3290468E-2,-3.6277324E-3,-1.8423824E-2,-3.7489366E-2,-2.2409514E-2,-2.2227265E-2,-1.3787995E-2,-2.3558237E-2,-1.1385804E-2,-8.580144E-3,8.2122935E-3,-2.1723634E-2,-7.620131E-3,-6.452954E-3,4.620853E-3,-8.0406815E-3,1.0113447E-2,1.0608988E-2,3.88096E-2,-5.712045E-3,9.038015E-3,1.0346384E-2,3.9651196E-2,1.3645089E-2,3.656495E-2,3.553565E-2,5.737496E-2],"categories":[],"categories_nodes":[],"categories_segments":[],"categories_sizes":[],"default_left":[0,0,0,0,0,0,0,0,0,0,0,0,0,0,0,0,0,0,0,0,0,0,0,0,0,0,0,0,0,0,0,0,0,0,0,0,0,0,0,0,0,0,0,0,0,0,0,0,0,0,0,0,0,0,0,0,0,0,0,0,0,0,0],"id":19,"left_children":[1,3,5,7,9,11,13,15,17,19,21,23,25,27,29,31,33,35,37,39,41,43,45,47,49,51,53,55,57,59,61,-1,-1,-1,-1,-1,-1,-1,-1,-1,-1,-1,-1,-1,-1,-1,-1,-1,-1,-1,-1,-1,-1,-1,-1,-1,-1,-1,-1,-1,-1,-1,-1],"loss_changes":[6.1629425E2,3.5354523E1,2.6837814E2,1.6732178E1,1.9950684E1,8.656553E1,1.3851767E2,5.809189E0,8.036179E0,1.11622925E1,1.3973E1,3.9607643E1,4.605556E1,4.6351562E1,8.2946655E1,1.8410187E0,5.421505E0,4.4664993E0,1.9320517E0,5.3741074E0,1.7539291E0,5.3743134E0,4.837487E0,1.833889E1,1.5493989E1,1.6190777E1,3.4661346E1,1.8154234E1,3.0087006E1,3.3830063E1,2.6692963E1,0E0,0E0,0E0,0E0,0E0,0E0,0E0,0E0,0E0,0E0,0E0,0E0,0E0,0E0,0E0,0E0,0E0,0E0,0E0,0E0,0E0,0E0,0E0,0E0,0E0,0E0,0E0,0E0,0E0,0E0,0E0,0E0],"parents":[2147483647,0,0,1,1,2,2,3,3,4,4,5,5,6,6,7,7,8,8,9,9,10,10,11,11,12,12,13,13,14,14,15,15,16,16,17,17,18,18,19,19,20,20,21,21,22,22,23,23,24,24,25,25,26,26,27,27,28,28,29,29,30,30],"right_children":[2,4,6,8,10,12,14,16,18,20,22,24,26,28,30,32,34,36,38,40,42,44,46,48,50,52,54,56,58,60,62,-1,-1,-1,-1,-1,-1,-1,-1,-1,-1,-1,-1,-1,-1,-1,-1,-1,-1,-1,-1,-1,-1,-1,-1,-1,-1,-1,-1,-1,-1,-1,-1],"split_conditions":[2.0376812E1,5.1E1,1E0,1E0,1E0,2E0,5.2E1,2E0,2E0,1E0,2E0,5.1E1,1E0,2E0,1E0,1E0,1.9E1,1E0,2.7E1,2E0,1E0,1E0,1E0,1E0,1E0,1E0,1E0,1E0,1E0,2E0,1E0,-5.0227936E-2,-4.0093336E-2,3.1110525E-2,-3.2881428E-2,-3.7024684E-2,-2.3290468E-2,-3.6277324E-3,-1.8423824E-2,-3.7489366E-2,-2.2409514E-2,-2.2227265E-2,-1.3787995E-2,-2.3558237E-2,-1.1385804E-2,-8.580144E-3,8.2122935E-3,-2.1723634E-2,-7.620131E-3,-6.452954E-3,4.620853E-3,-8.0406815E-3,1.0113447E-2,1.0608988E-2,3.88096E-2,-5.712045E-3,9.038015E-3,1.0346384E-2,3.9651196E-2,1.3645089E-2,3.656495E-2,3.553565E-2,5.737496E-2],"split_indices":[1,0,6,6,3,8,0,8,8,6,8,0,7,8,3,3,0,7,0,8,7,7,7,7,7,3,3,7,3,8,7,0,0,0,0,0,0,0,0,0,0,0,0,0,0,0,0,0,0,0,0,0,0,0,0,0,0,0,0,0,0,0,0],"split_type":[0,0,0,0,0,0,0,0,0,0,0,0,0,0,0,0,0,0,0,0,0,0,0,0,0,0,0,0,0,0,0,0,0,0,0,0,0,0,0,0,0,0,0,0,0,0,0,0,0,0,0,0,0,0,0,0,0,0,0,0,0,0,0],"sum_hessian":[7.5129688E3,1.8455642E3,5.6674043E3,7.533757E2,1.0921886E3,3.125408E3,2.5419966E3,3.793271E2,3.7404855E2,5.526603E2,5.3952826E2,2.1901475E3,9.352605E2,1.1918661E3,1.3501305E3,2.5667014E2,1.2265696E2,2.5559828E2,1.1845028E2,2.8863348E2,2.640268E2,3.6981754E2,1.6971075E2,9.2478033E2,1.2653671E3,4.9034088E2,4.4491965E2,8.3330927E2,3.585568E2,7.707422E2,5.7938837E2,1.2417517E2,1.3249495E2,2.653607E0,1.2000335E2,1.354912E2,1.2010708E2,3.0050575E1,8.8399704E1,1.9514978E2,9.348371E1,1.4001228E2,1.2401451E2,1.9239786E2,1.7741966E2,8.7454575E1,8.225618E1,4.7185333E2,4.5292697E2,6.6754376E2,5.978233E2,2.566471E2,2.3369379E2,2.5321371E2,1.9170592E2,4.299065E2,4.0340277E2,2.0574207E2,1.5281473E2,5.411113E2,2.2963084E2,3.1479053E2,2.6459784E2],"tree_param":{"num_deleted":"0","num_feature":"9","num_nodes":"63","size_leaf_vector":"1"}},{"base_weights":[6.534156E-3,-1.5973823E-1,2.0164871E-1,-2.5382128E-1,5.387505E-2,-6.460201E-3,3.7039682E-1,-3.9682004E-1,-1.5156512E-1,-1.3498124E-1,2.0178574E-1,-1.1481878E-1,2.4092941E-1,2.4674296E-1,6.5970117E-1,-5.1214117E-1,-2.7245143E-1,-2.5930548E-1,-3.0085806E-2,-2.7281716E-1,1.4418812E-2,2.1229679E-2,4.1711915E-1,-2.5168362E-1,3.7302233E-2,4.5155425E-2,4.7919005E-1,7.8601144E-2,4.375169E-1,4.8289952E-1,8.87999E-1,-2.0986786E-2,-3.0260412E-2,-2.0027585E-2,-6.571233E-3,-1.6127242E-2,-9.5413085E-3,-9.610351E-3,7.125448E-3,-9.1328295E-3,-1.9366058E-2,-7.629331E-3,1.0855721E-2,-7.991555E-3,1.0465368E-2,1.22742085E-2,3.0679336E-2,-2.2729725E-2,-1.17871985E-2,-5.5165933E-3,1.0285179E-2,-2.1887568E-3,1.2614312E-2,1.4457841E-2,3.424003E-2,-2.5361103E-3,1.1863439E-2,1.20055545E-2,3.4720454E-2,1.6698211E-2,3.179046E-2,3.8691238E-2,5.0806064E-2],"categories":[],"categories_nodes":[],"categories_segments":[],"categories_sizes":[],"default_left":[0,0,0,0,0,0,0,0,0,0,0,0,0,0,0,0,0,0,0,0,0,0,0,0,0,1,0,0,0,0,0,0,0,0,0,0,0,0,0,0,0,0,0,0,0,0,0,0,0,0,0,0,0,0,0,0,0,0,0,0,0,0,0],"id":20,"left_children":[1,3,5,7,9,11,13,15,17,19,21,23,25,27,29,31,33,35,37,39,41,43,45,47,49,51,53,55,57,59,61,-1,-1,-1,-1,-1,-1,-1,-1,-1,-1,-1,-1,-1,-1,-1,-1,-1,-1,-1,-1,-1,-1,-1,-1,-1,-1,-1,-1,-1,-1,-1,-1],"loss_changes":[2.429058E2,8.125693E1,1.209796E2,4.097937E1,3.4577988E1,4.140453E1,6.789133E1,1.663472E1,2.1431225E1,1.1203171E1,2.6974926E1,2.237118E1,2.1923515E1,4.2766792E1,2.2539322E1,4.955078E0,1.0151585E1,3.6973114E0,2.160265E1,2.85005E0,8.899613E0,1.29245205E1,1.0521248E1,1.7218666E0,1.2690926E1,4.788621E0,8.089497E0,1.4590061E1,3.1521858E1,7.140732E0,2.8291779E0,0E0,0E0,0E0,0E0,0E0,0E0,0E0,0E0,0E0,0E0,0E0,0E0,0E0,0E0,0E0,0E0,0E0,0E0,0E0,0E0,0E0,0E0,0E0,0E0,0E0,0E0,0E0,0E0,0E0,0E0,0E0,0E0],"parents":[2147483647,0,0,1,1,2,2,3,3,4,4,5,5,6,6,7,7,8,8,9,9,10,10,11,11,12,12,13,13,14,14,15,15,16,16,17,17,18,18,19,19,20,20,21,21,22,22,23,23,24,24,25,25,26,26,27,27,28,28,29,29,30,30],"right_children":[2,4,6,8,10,12,14,16,18,20,22,24,26,28,30,32,34,36,38,40,42,44,46,48,50,52,54,56,58,60,62,-1,-1,-1,-1,-1,-1,-1,-1,-1,-1,-1,-1,-1,-1,-1,-1,-1,-1,-1,-1,-1,-1,-1,-1,-1,-1,-1,-1,-1,-1,-1,-1],"split_conditions":[1E0,2E0,5.1E1,5.1E1,5.2E1,2E0,2E0,1E0,1E0,1E0,1E0,1E0,1E0,1E0,1E0,1E0,1E0,1E0,1E0,3.8E1,1E0,1E0,1E0,2E1,1E0,2E0,1E0,1E0,1E0,1E0,1E0,-2.0986786E-2,-3.0260412E-2,-2.0027585E-2,-6.571233E-3,-1.6127242E-2,-9.5413085E-3,-9.610351E-3,7.125448E-3,-9.1328295E-3,-1.9366058E-2,-7.629331E-3,1.0855721E-2,-7.991555E-3,1.0465368E-2,1.22742085E-2,3.0679336E-2,-2.2729725E-2,-1.17871985E-2,-5.5165933E-3,1.0285179E-2,-2.1887568E-3,1.2614312E-2,1.4457841E-2,3.424003E-2,-2.5361103E-3,1.1863439E-2,1.20055545E-2,3.4720454E-2,1.6698211E-2,3.179046E-2,3.8691238E-2,5.0806064E-2],"split_indices":[6,8,0,0,0,8,8,3,3,7,3,7,3,7,3,8,7,7,7,0,3,7,7,0,3,4,7,3,3,7,7,0,0,0,0,0,0,0,0,0,0,0,0,0,0,0,0,0,0,0,0,0,0,0,0,0,0,0,0,0,0,0,0],"split_type":[0,0,0,0,0,0,0,0,0,0,0,0,0,0,0,0,0,0,0,0,0,0,0,0,0,0,0,0,0,0,0,0,0,0,0,0,0,0,0,0,0,0,0,0,0,0,0,0,0,0,0,0,0,0,0,0,0,0,0,0,0,0,0],"sum_hessian":[7.485356E3,4.0414778E3,3.4438784E3,2.8056008E3,1.235877E3,1.542522E3,1.9013563E3,1.1685615E3,1.6370394E3,5.4284515E2,6.9303174E2,1.0730525E3,4.6946948E2,1.3333231E3,5.6803326E2,6.047176E2,5.6384393E2,8.669788E2,7.7006067E2,2.819204E2,2.6092474E2,3.775535E2,3.1547824E2,5.6450604E2,5.085464E2,2.583654E2,2.1110413E2,7.094497E2,6.238734E2,3.218764E2,2.4615686E2,3.062022E2,2.9851535E2,2.944987E2,2.6934525E2,4.4880533E2,4.181735E2,3.9701965E2,3.73041E2,1.5917839E2,1.2274203E2,1.4319249E2,1.1773227E2,1.924417E2,1.8511179E2,1.6958098E2,1.4589726E2,3.9110626E1,5.253954E2,2.7116568E2,2.3738072E2,1.8130965E2,7.7055725E1,1.109584E2,1.0014572E2,3.912437E2,3.18206E2,3.538761E2,2.699973E2,1.6467029E2,1.5720612E2,1.3388606E2,1.122708E2],"tree_param":{"num_deleted":"0","num_feature":"9","num_nodes":"63","size_leaf_vector":"1"}},{"base_weights":[-4.720055E-3,-1.524029E-1,1.6870968E-1,-2.52832E-1,7.737073E-2,-2.046637E-2,3.248117E-1,-3.9483178E-1,-1.5088275E-1,-9.106096E-2,2.729226E-1,-1.6750735E-1,1.4096664E-1,2.02008E-1,6.1194336E-1,-5.02765E-1,-2.840543E-1,-2.654863E-1,-2.2176031E-2,-2.8242508E-1,4.2267155E-2,4.872603E-2,4.7712934E-1,-3.0970877E-1,-1.5439626E-2,-1.3921009E-2,3.2946113E-1,3.5109635E-2,3.9286104E-1,3.990768E-1,8.694942E-1,-3.0066786E-2,-1.9901007E-2,-2.0295486E-2,-7.935475E-3,-1.877982E-2,-7.4135684E-3,-6.902279E-3,5.0056595E-3,-2.0431334E-2,-8.026085E-3,-6.394365E-3,1.2344599E-2,-5.4079234E-3,1.2167601E-2,1.4905313E-2,3.4738015E-2,-2.136544E-2,-9.003321E-3,-6.3877213E-3,1.1560827E-2,-4.6824063E-3,8.403641E-3,9.443451E-3,3.320107E-2,-4.644676E-3,9.0981815E-3,9.634319E-3,3.2692578E-2,7.988904E-3,3.732219E-2,3.7564896E-2,5.0376154E-2],"categories":[],"categories_nodes":[],"categories_segments":[],"categories_sizes":[],"default_left":[0,0,0,0,0,0,0,0,0,0,0,0,0,0,0,0,0,0,0,0,0,0,0,0,0,0,0,0,0,0,0,0,0,0,0,0,0,0,0,0,0,0,0,0,0,0,0,0,0,0,0,0,0,0,0,0,0,0,0,0,0,0,0],"id":21,"left_children":[1,3,5,7,9,11,13,15,17,19,21,23,25,27,29,31,33,35,37,39,41,43,45,47,49,51,53,55,57,59,61,-1,-1,-1,-1,-1,-1,-1,-1,-1,-1,-1,-1,-1,-1,-1,-1,-1,-1,-1,-1,-1,-1,-1,-1,-1,-1,-1,-1,-1,-1,-1,-1],"loss_changes":[1.9200302E2,9.344791E1,1.01819725E2,4.072972E1,4.0608727E1,3.7045723E1,6.648526E1,1.3928589E1,2.4209465E1,1.692109E1,2.6092316E1,1.7655117E1,2.1725735E1,4.2179775E1,3.0650589E1,5.901779E0,8.841587E0,1.1151508E1,1.09861555E1,4.1230927E0,1.3661575E1,8.362628E0,1.1419167E1,6.3564453E0,1.0991595E1,5.955516E0,1.5661392E1,1.3321249E1,3.2153793E1,2.5765915E1,3.403244E0,0E0,0E0,0E0,0E0,0E0,0E0,0E0,0E0,0E0,0E0,0E0,0E0,0E0,0E0,0E0,0E0,0E0,0E0,0E0,0E0,0E0,0E0,0E0,0E0,0E0,0E0,0E0,0E0,0E0,0E0,0E0,0E0],"parents":[2147483647,0,0,1,1,2,2,3,3,4,4,5,5,6,6,7,7,8,8,9,9,10,10,11,11,12,12,13,13,14,14,15,15,16,16,17,17,18,18,19,19,20,20,21,21,22,22,23,23,24,24,25,25,26,26,27,27,28,28,29,29,30,30],"right_children":[2,4,6,8,10,12,14,16,18,20,22,24,26,28,30,32,34,36,38,40,42,44,46,48,50,52,54,56,58,60,62,-1,-1,-1,-1,-1,-1,-1,-1,-1,-1,-1,-1,-1,-1,-1,-1,-1,-1,-1,-1,-1,-1,-1,-1,-1,-1,-1,-1,-1,-1,-1,-1],"split_conditions":[1E0,2E0,5.1E1,5.1E1,1E0,1E0,2E0,1E0,1E0,5E1,5.3E1,1E0,1E0,1E0,1E0,1E0,1E0,1E0,1E0,1E0,1E0,1E0,1E0,1E0,2E0,2E0,2E0,1E0,1E0,1E0,1E0,-3.0066786E-2,-1.9901007E-2,-2.0295486E-2,-7.935475E-3,-1.877982E-2,-7.4135684E-3,-6.902279E-3,5.0056595E-3,-2.0431334E-2,-8.026085E-3,-6.394365E-3,1.2344599E-2,-5.4079234E-3,1.2167601E-2,1.4905313E-2,3.4738015E-2,-2.136544E-2,-9.003321E-3,-6.3877213E-3,1.1560827E-2,-4.6824063E-3,8.403641E-3,9.443451E-3,3.320107E-2,-4.644676E-3,9.0981815E-3,9.634319E-3,3.2692578E-2,7.988904E-3,3.732219E-2,3.7564896E-2,5.0376154E-2],"split_indices":[6,8,0,0,5,5,8,5,3,0,0,7,3,7,5,3,7,5,7,3,3,3,3,3,8,8,8,5,3,3,3,0,0,0,0,0,0,0,0,0,0,0,0,0,0,0,0,0,0,0,0,0,0,0,0,0,0,0,0,0,0,0,0],"split_type":[0,0,0,0,0,0,0,0,0,0,0,0,0,0,0,0,0,0,0,0,0,0,0,0,0,0,0,0,0,0,0,0,0,0,0,0,0,0,0,0,0,0,0,0,0,0,0,0,0,0,0,0,0,0,0,0,0,0,0,0,0,0,0],"sum_hessian":[7.4944263E3,4.047731E3,3.446695E3,2.816569E3,1.2311619E3,1.5586617E3,1.8880333E3,1.1758776E3,1.6406917E3,6.6173456E2,5.6942737E2,8.1567126E2,7.429904E2,1.3236313E3,5.64402E2,5.937925E2,5.820851E2,8.67334E2,7.7335767E2,2.7126837E2,3.9046622E2,2.7201898E2,2.9740836E2,4.2097394E2,3.9469733E2,4.083619E2,3.3462854E2,7.0676184E2,6.168695E2,3.1040265E2,2.539993E2,3.0346964E2,2.903228E2,2.9401584E2,2.880692E2,4.4608426E2,4.212497E2,3.9703577E2,3.7632187E2,1.3212875E2,1.391396E2,2.1339444E2,1.7707176E2,1.5085873E2,1.2116024E2,1.6447832E2,1.3293004E2,2.1953511E2,2.0143883E2,2.715357E2,1.2316163E2,2.8430164E2,1.24060265E2,2.367174E2,9.791113E1,3.7781354E2,3.2894827E2,3.5009314E2,2.667764E2,1.8465504E2,1.2574762E2,1.4030066E2,1.1369863E2],"tree_param":{"num_deleted":"0","num_feature":"9","num_nodes":"63","size_leaf_vector":"1"}},{"base_weights":[-3.0027214E-4,-4.8694143E-1,1.5707932E-1,-6.1875E-1,-3.516585E-1,-2.0516701E-2,3.7716746E-1,-7.44119E-1,-4.9117696E-1,-4.9074927E-1,-2.0300108E-1,-1.2013422E-1,2.1630873E-1,2.4327597E-1,7.019334E-1,-8.3693796E-1,-5.5525315E-1,-6.4780235E-1,-3.76512E-1,-7.0113194E-1,-3.7349463E-1,-3.3801198E-1,-5.5434573E-2,-2.4013111E-1,1.3552605E-2,2.4148736E-2,3.9747497E-1,5.369023E-2,4.184737E-1,5.065856E-1,9.731087E-1,-5.1166095E-2,-3.5138547E-2,4.518723E-2,-2.9026648E-2,-3.8308512E-2,-1.9362403E-2,-3.5789426E-2,-1.7269365E-2,-3.973199E-2,-2.4497995E-2,-4.4601257E-3,-2.2526788E-2,-3.1901937E-2,-1.1233619E-2,-7.32304E-3,1.8051382E-2,-1.7278362E-2,-6.3116523E-3,-5.714161E-3,7.471674E-3,-5.2985287E-4,2.378219E-2,9.359621E-3,3.380862E-2,-4.9645924E-3,1.0871452E-2,1.2028365E-2,3.2860145E-2,1.3528556E-2,3.8186613E-2,3.591335E-2,6.0065933E-2],"categories":[],"categories_nodes":[],"categories_segments":[],"categories_sizes":[],"default_left":[0,0,0,0,0,0,0,0,0,0,0,0,0,0,0,0,0,0,0,0,0,0,0,0,0,0,0,0,0,0,0,0,0,0,0,0,0,0,0,0,0,0,0,0,0,0,0,0,0,0,0,0,0,0,0,0,0,0,0,0,0,0,0],"id":22,"left_children":[1,3,5,7,9,11,13,15,17,19,21,23,25,27,29,31,33,35,37,39,41,43,45,47,49,51,53,55,57,59,61,-1,-1,-1,-1,-1,-1,-1,-1,-1,-1,-1,-1,-1,-1,-1,-1,-1,-1,-1,-1,-1,-1,-1,-1,-1,-1,-1,-1,-1,-1,-1,-1],"loss_changes":[5.660264E2,3.1986755E1,2.1829001E2,1.42439575E1,1.8377052E1,7.296236E1,1.0827579E2,7.5775604E0,7.9400024E0,1.1108871E1,8.620844E0,3.492403E1,3.187009E1,5.868386E1,3.804593E1,6.9234314E0,6.2098236E0,5.600624E0,2.5561295E0,2.8455353E0,6.489334E0,7.550644E0,7.95256E0,1.3733147E1,1.7919537E1,6.9931073E0,2.74935E1,2.1313896E1,3.8849457E1,2.5584686E1,1.6790588E1,0E0,0E0,0E0,0E0,0E0,0E0,0E0,0E0,0E0,0E0,0E0,0E0,0E0,0E0,0E0,0E0,0E0,0E0,0E0,0E0,0E0,0E0,0E0,0E0,0E0,0E0,0E0,0E0,0E0,0E0,0E0,0E0],"parents":[2147483647,0,0,1,1,2,2,3,3,4,4,5,5,6,6,7,7,8,8,9,9,10,10,11,11,12,12,13,13,14,14,15,15,16,16,17,17,18,18,19,19,20,20,21,21,22,22,23,23,24,24,25,25,26,26,27,27,28,28,29,29,30,30],"right_children":[2,4,6,8,10,12,14,16,18,20,22,24,26,28,30,32,34,36,38,40,42,44,46,48,50,52,54,56,58,60,62,-1,-1,-1,-1,-1,-1,-1,-1,-1,-1,-1,-1,-1,-1,-1,-1,-1,-1,-1,-1,-1,-1,-1,-1,-1,-1,-1,-1,-1,-1,-1,-1],"split_conditions":[2.0376812E1,1E0,1E0,1E0,1E0,2E0,2E0,2E0,5.2E1,4.7E1,1E0,1E0,5.5E1,5.3E1,1E0,5.3E1,2E1,2E0,1.2178345E0,2E0,4.4319935E0,5.356478E0,8.3E1,1E0,1E0,9.4341675E1,1E0,1E0,1E0,1E0,5.1E1,-5.1166095E-2,-3.5138547E-2,4.518723E-2,-2.9026648E-2,-3.8308512E-2,-1.9362403E-2,-3.5789426E-2,-1.7269365E-2,-3.973199E-2,-2.4497995E-2,-4.4601257E-3,-2.2526788E-2,-3.1901937E-2,-1.1233619E-2,-7.32304E-3,1.8051382E-2,-1.7278362E-2,-6.3116523E-3,-5.714161E-3,7.471674E-3,-5.2985287E-4,2.378219E-2,9.359621E-3,3.380862E-2,-4.9645924E-3,1.0871452E-2,1.2028365E-2,3.2860145E-2,1.3528556E-2,3.8186613E-2,3.591335E-2,6.0065933E-2],"split_indices":[1,3,6,6,6,8,8,8,0,0,7,3,0,0,3,0,0,8,1,8,1,1,0,7,7,1,3,7,3,7,0,0,0,0,0,0,0,0,0,0,0,0,0,0,0,0,0,0,0,0,0,0,0,0,0,0,0,0,0,0,0,0,0],"split_type":[0,0,0,0,0,0,0,0,0,0,0,0,0,0,0,0,0,0,0,0,0,0,0,0,0,0,0,0,0,0,0,0,0,0,0,0,0,0,0,0,0,0,0,0,0,0,0,0,0,0,0,0,0,0,0,0,0,0,0,0,0,0,0],"sum_hessian":[7.388597E3,1.8050425E3,5.5835547E3,9.1245123E2,8.925913E2,3.0905774E3,2.492977E3,4.577635E2,4.5468774E2,4.599446E2,4.3264673E2,2.175834E3,9.147434E2,1.7664646E3,7.265126E2,3.046235E2,1.5313998E2,1.9021544E2,2.644723E2,1.6282263E2,2.9712198E2,2.2526118E2,2.0738553E2,1.1462064E3,1.0296276E3,4.4445297E2,4.7029044E2,8.490227E2,9.174419E2,4.2396625E2,3.0254633E2,1.24726715E2,1.7989679E2,2.016389E0,1.511236E2,1.294615E2,6.0753944E1,2.0375065E1,2.4409721E2,1.1093651E2,5.1886124E1,6.3810497E1,2.3331146E2,6.0494312E1,1.6476688E2,1.7071962E2,3.6665905E1,5.941574E2,5.52049E2,5.306008E2,4.990268E2,4.136E2,3.0852968E1,2.6899796E2,2.0129248E2,4.3913242E2,4.0989026E2,5.268381E2,3.9060382E2,2.2213675E2,2.018295E2,1.448925E2,1.5765382E2],"tree_param":{"num_deleted":"0","num_feature":"9","num_nodes":"63","size_leaf_vector":"1"}},{"base_weights":[1.2727041E-2,-4.696377E-1,1.6760094E-1,-5.862055E-1,-3.4739986E-1,1.1151615E-2,3.5919625E-1,-7.6287526E-1,-4.9345008E-1,-4.8711374E-1,-2.469622E-1,-8.183503E-2,2.3308563E-1,1.473833E-1,5.417209E-1,-8.6081076E-1,-5.547261E-1,-6.366174E-1,-3.55201E-1,-5.118181E-1,-3.8782398E-3,-3.840174E-1,-9.306768E-2,-1.8979067E-1,3.638219E-2,7.672712E-2,4.1897327E-1,3.756062E-2,4.0351844E-1,3.5439715E-1,8.039615E-1,-4.900038E-2,-3.641272E-2,4.6760272E-2,-3.0030949E-2,-3.6317624E-2,-2.2380685E-2,-1.8514652E-2,2.2047782E-2,-3.0328143E-2,-2.04337E-2,3.1891998E-2,-2.1033142E-2,-2.5204692E-2,-1.1465592E-2,-1.2324906E-2,4.199034E-3,-1.593017E-2,-4.8792576E-3,-9.111479E-3,5.2150334E-3,-2.5615296E-3,1.3258449E-2,9.873089E-3,3.0634243E-2,-4.189055E-3,8.458879E-3,1.0202205E-2,3.3602566E-2,1.1249607E-2,3.3644523E-2,2.8783722E-2,5.3958338E-2],"categories":[],"categories_nodes":[],"categories_segments":[],"categories_sizes":[],"default_left":[0,0,0,0,0,0,0,0,0,0,0,0,0,0,0,0,0,0,0,0,0,0,0,0,0,0,0,0,0,0,0,0,0,0,0,0,0,0,0,0,0,0,0,0,0,0,0,0,0,0,0,0,0,0,0,0,0,0,0,0,0,0,0],"id":23,"left_children":[1,3,5,7,9,11,13,15,17,19,21,23,25,27,29,31,33,35,37,39,41,43,45,47,49,51,53,55,57,59,61,-1,-1,-1,-1,-1,-1,-1,-1,-1,-1,-1,-1,-1,-1,-1,-1,-1,-1,-1,-1,-1,-1,-1,-1,-1,-1,-1,-1,-1,-1,-1,-1],"loss_changes":[5.505568E2,2.5318115E1,1.6721115E2,1.462384E1,1.2182785E1,6.3414433E1,9.686499E1,5.9092712E0,1.1710251E1,4.3631897E0,1.0765518E1,2.7645136E1,2.6338993E1,3.2672108E1,6.586157E1,2.6240692E0,7.6085205E0,4.6781693E0,3.876892E0,3.151535E0,5.294303E0,4.910282E0,6.6095037E0,1.3415176E1,1.5379418E1,1.1925734E1,1.765593E1,1.3020838E1,1.8536777E1,3.22946E1,3.4578705E1,0E0,0E0,0E0,0E0,0E0,0E0,0E0,0E0,0E0,0E0,0E0,0E0,0E0,0E0,0E0,0E0,0E0,0E0,0E0,0E0,0E0,0E0,0E0,0E0,0E0,0E0,0E0,0E0,0E0,0E0,0E0,0E0],"parents":[2147483647,0,0,1,1,2,2,3,3,4,4,5,5,6,6,7,7,8,8,9,9,10,10,11,11,12,12,13,13,14,14,15,15,16,16,17,17,18,18,19,19,20,20,21,21,22,22,23,23,24,24,25,25,26,26,27,27,28,28,29,29,30,30],"right_children":[2,4,6,8,10,12,14,16,18,20,22,24,26,28,30,32,34,36,38,40,42,44,46,48,50,52,54,56,58,60,62,-1,-1,-1,-1,-1,-1,-1,-1,-1,-1,-1,-1,-1,-1,-1,-1,-1,-1,-1,-1,-1,-1,-1,-1,-1,-1,-1,-1,-1,-1,-1,-1],"split_conditions":[2.0376812E1,1E0,1E0,4.7E1,5.1E1,2E0,5.1E1,2E0,1E0,1.9417252E1,1E0,1E0,1E0,2E0,1E0,1E0,1.9E1,2E0,2.004412E1,1E0,3.1E1,1.0909542E1,1E0,5.2E1,3.6E1,6.4E1,5.1E1,1E0,1E0,2E0,1E0,-4.900038E-2,-3.641272E-2,4.6760272E-2,-3.0030949E-2,-3.6317624E-2,-2.2380685E-2,-1.8514652E-2,2.2047782E-2,-3.0328143E-2,-2.04337E-2,3.1891998E-2,-2.1033142E-2,-2.5204692E-2,-1.1465592E-2,-1.2324906E-2,4.199034E-3,-1.593017E-2,-4.8792576E-3,-9.111479E-3,5.2150334E-3,-2.5615296E-3,1.3258449E-2,9.873089E-3,3.0634243E-2,-4.189055E-3,8.458879E-3,1.0202205E-2,3.3602566E-2,1.1249607E-2,3.3644523E-2,2.8783722E-2,5.3958338E-2],"split_indices":[1,6,6,0,0,8,0,8,3,1,5,3,5,8,3,5,0,8,1,3,0,1,3,0,0,0,0,5,3,8,5,0,0,0,0,0,0,0,0,0,0,0,0,0,0,0,0,0,0,0,0,0,0,0,0,0,0,0,0,0,0,0,0],"split_type":[0,0,0,0,0,0,0,0,0,0,0,0,0,0,0,0,0,0,0,0,0,0,0,0,0,0,0,0,0,0,0,0,0,0,0,0,0,0,0,0,0,0,0,0,0,0,0,0,0,0,0,0,0,0,0,0,0,0,0,0,0,0,0],"sum_hessian":[7.367622E3,1.7901263E3,5.577496E3,9.1437213E2,8.7575415E2,3.070942E3,2.5065542E3,3.1230502E2,6.0206714E2,3.646531E2,5.1110107E2,2.1646294E3,9.063123E2,1.1610302E3,1.3455239E3,2.1024692E2,1.02058105E2,2.940015E2,3.0806564E2,3.4686142E2,1.7791674E1,2.695501E2,2.4155098E2,1.1311035E3,1.033526E3,4.93022E2,4.132903E2,8.1341156E2,3.4761862E2,7.862447E2,5.5927924E2,1.07335754E2,1.02911156E2,2.4706087E0,9.95875E1,1.974251E2,9.65764E1,3.028595E2,5.206125E0,1.7824803E2,1.686134E2,6.796619E0,1.0995054E1,1.5048845E2,1.19061646E2,1.2919666E2,1.1235432E2,4.708552E2,6.602483E2,2.4458568E2,7.889403E2,2.9406863E2,1.9895337E2,1.9375197E2,2.1953836E2,4.2341537E2,3.899962E2,2.0046616E2,1.4715247E2,5.6029944E2,2.2594527E2,3.0738794E2,2.5189131E2],"tree_param":{"num_deleted":"0","num_feature":"9","num_nodes":"63","size_leaf_vector":"1"}},{"base_weights":[-3.6172217E-4,-1.3576502E-1,1.5986726E-1,-2.1837388E-1,5.434061E-2,5.4606404E-2,4.0772176E-1,-3.5101628E-1,-1.2599193E-1,-1.1342878E-1,2.5311166E-1,-9.617752E-2,2.0062725E-1,2.3564115E-1,6.0909367E-1,-4.558645E-1,-2.441429E-1,-2.260067E-1,-1.8679101E-2,-2.8802356E-1,1.5237825E-2,6.7734316E-2,4.852791E-1,-2.2214527E-1,3.9414085E-2,5.9031118E-2,3.8528204E-1,5.4124434E-2,4.8566574E-1,3.8582498E-1,8.546124E-1,-2.6675627E-2,-1.881686E-2,-1.7914675E-2,-6.361498E-3,-1.3877933E-2,-6.00937E-3,-6.8796948E-3,5.932434E-3,4.471168E-2,-1.57077E-2,-6.93526E-3,1.0022079E-2,-4.8818183E-3,1.573187E-2,1.4486755E-2,3.364604E-2,-1.5678143E-2,-6.1670374E-3,-4.969283E-3,1.0502161E-2,-3.1460964E-3,9.712766E-3,9.694017E-3,3.0730847E-2,1.4250248E-2,-2.1857594E-4,9.065182E-3,3.667391E-2,1.1224365E-2,2.9107362E-2,5.665716E-2,4.1241977E-2],"categories":[],"categories_nodes":[],"categories_segments":[],"categories_sizes":[],"default_left":[0,0,0,0,0,0,0,0,0,0,0,0,0,0,0,0,0,1,0,0,0,0,0,0,0,0,0,0,0,0,0,0,0,0,0,0,0,0,0,0,0,0,0,0,0,0,0,0,0,0,0,0,0,0,0,0,0,0,0,0,0,0,0],"id":24,"left_children":[1,3,5,7,9,11,13,15,17,19,21,23,25,27,29,31,33,35,37,39,41,43,45,47,49,51,53,55,57,59,61,-1,-1,-1,-1,-1,-1,-1,-1,-1,-1,-1,-1,-1,-1,-1,-1,-1,-1,-1,-1,-1,-1,-1,-1,-1,-1,-1,-1,-1,-1,-1,-1],"loss_changes":[1.5961171E2,6.263073E1,8.78872E1,3.4017838E1,4.0333397E1,5.2118855E1,3.465703E1,1.2670029E1,1.7598639E1,1.4743641E1,2.3789307E1,1.9904146E1,3.1416882E1,2.462413E1,2.500241E1,3.3475723E0,7.5216103E0,4.597122E0,1.2954314E1,8.88221E0,1.0824545E1,1.2644451E1,8.8158455E0,5.4168625E0,1.3326898E1,1.1255015E1,2.2780571E1,4.266537E0,1.708944E1,7.593136E0,8.8368225E-1,0E0,0E0,0E0,0E0,0E0,0E0,0E0,0E0,0E0,0E0,0E0,0E0,0E0,0E0,0E0,0E0,0E0,0E0,0E0,0E0,0E0,0E0,0E0,0E0,0E0,0E0,0E0,0E0,0E0,0E0,0E0,0E0],"parents":[2147483647,0,0,1,1,2,2,3,3,4,4,5,5,6,6,7,7,8,8,9,9,10,10,11,11,12,12,13,13,14,14,15,15,16,16,17,17,18,18,19,19,20,20,21,21,22,22,23,23,24,24,25,25,26,26,27,27,28,28,29,29,30,30],"right_children":[2,4,6,8,10,12,14,16,18,20,22,24,26,28,30,32,34,36,38,40,42,44,46,48,50,52,54,56,58,60,62,-1,-1,-1,-1,-1,-1,-1,-1,-1,-1,-1,-1,-1,-1,-1,-1,-1,-1,-1,-1,-1,-1,-1,-1,-1,-1,-1,-1,-1,-1,-1,-1],"split_conditions":[1E0,2E0,2E0,5.1E1,1E0,5.5E1,1E0,1E0,1E0,5.1E1,1E0,1E0,1E0,1E0,5.6E1,1E0,1E0,2E0,1E0,1.9E1,1E0,6.4E1,5.4E1,1E0,1E0,1E0,1E0,3.4E1,5E1,1E0,6E1,-2.6675627E-2,-1.881686E-2,-1.7914675E-2,-6.361498E-3,-1.3877933E-2,-6.00937E-3,-6.8796948E-3,5.932434E-3,4.471168E-2,-1.57077E-2,-6.93526E-3,1.0022079E-2,-4.8818183E-3,1.573187E-2,1.4486755E-2,3.364604E-2,-1.5678143E-2,-6.1670374E-3,-4.969283E-3,1.0502161E-2,-3.1460964E-3,9.712766E-3,9.694017E-3,3.0730847E-2,1.4250248E-2,-2.1857594E-4,9.065182E-3,3.667391E-2,1.1224365E-2,2.9107362E-2,5.665716E-2,4.1241977E-2],"split_indices":[6,8,8,0,3,0,5,5,5,0,5,5,3,3,0,3,3,4,3,0,5,0,0,3,3,5,5,0,0,3,0,0,0,0,0,0,0,0,0,0,0,0,0,0,0,0,0,0,0,0,0,0,0,0,0,0,0,0,0,0,0,0,0],"split_type":[0,0,0,0,0,0,0,0,0,0,0,0,0,0,0,0,0,0,0,0,0,0,0,0,0,0,0,0,0,0,0,0,0,0,0,0,0,0,0,0,0,0,0,0,0,0,0,0,0,0,0,0,0,0,0,0,0,0,0,0,0,0,0],"sum_hessian":[7.3548926E3,3.986342E3,3.3685505E3,2.7787222E3,1.2076199E3,2.3652693E3,1.00328125E3,1.1396328E3,1.6390894E3,6.551124E2,5.525074E2,1.1638239E3,1.2014454E3,5.4215643E2,4.6112485E2,5.7361847E2,5.660144E2,8.478207E2,7.912687E2,2.7742316E2,3.7768927E2,3.0792896E2,2.4457841E2,6.0299194E2,5.608319E2,6.807532E2,5.2069226E2,3.148171E2,2.2733932E2,2.4285236E2,2.1827249E2,2.8735E2,2.8626843E2,2.853459E2,2.806685E2,5.689987E2,2.788219E2,4.2406268E2,3.6720602E2,5.2806506E0,2.7214252E2,2.0638843E2,1.7130084E2,1.8477496E2,1.2315399E2,1.2101308E2,1.2356534E2,3.120751E2,2.909168E2,3.0949118E2,2.5134074E2,3.582222E2,3.2253094E2,2.8482455E2,2.3586774E2,6.28559E1,2.5196121E2,1.0280558E2,1.24533745E2,1.3448006E2,1.08372284E2,1.7499723E1,2.0077277E2],"tree_param":{"num_deleted":"0","num_feature":"9","num_nodes":"63","size_leaf_vector":"1"}},{"base_weights":[-4.69762E-3,-4.626959E-1,1.3953516E-1,-5.73085E-1,-3.5183862E-1,-7.6652863E-3,3.2057536E-1,-7.043905E-1,-4.82185E-1,-4.2928877E-1,-1.847571E-1,-9.1854595E-2,1.9149359E-1,1.5060215E-1,5.1615524E-1,-8.652141E-1,-5.448363E-1,-6.0224456E-1,-3.6358818E-1,-5.536991E-1,-3.3601978E-1,-3.2844347E-1,2.1192876E-3,-2.15418E-1,-2.517377E-3,-2.5818061E-2,3.683197E-1,-7.916989E-3,3.3382004E-1,2.907817E-1,7.205017E-1,-4.8225533E-2,-3.389336E-2,-1.4726284E-2,-2.8136542E-2,-4.7894525E-3,-3.1229595E-2,3.2035601E-3,-2.0213244E-2,-3.340448E-2,-2.1876095E-2,-1.1355295E-2,-2.3467725E-2,2.2222565E-3,-2.1101113E-2,-8.9902375E-3,1.0696109E-2,-1.584302E-2,-5.478912E-3,-5.530316E-3,5.5072852E-3,-8.770539E-3,6.9459626E-3,8.816326E-3,3.1018335E-2,-4.2770705E-3,8.458193E-3,9.541674E-3,3.4640897E-2,6.701849E-3,2.4393683E-2,2.8370792E-2,5.6151826E-2],"categories":[],